{"learner":{"attributes":{"best_iteration":"99","best_ntree_limit":"100","scikit_learn":"{\"use_label_encoder\": true, \"n_estimators\": 100, \"objective\": \"binary:logistic\", \"max_depth\": 10, \"learning_rate\": 0.5, \"verbosity\": null, \"booster\": \"gbtree\", \"tree_method\": null, \"gamma\": null, \"min_child_weight\": null, \"max_delta_step\": null, \"subsample\": null, \"colsample_bytree\": null, \"colsample_bylevel\": null, \"colsample_bynode\": null, \"reg_alpha\": null, \"reg_lambda\": null, \"scale_pos_weight\": null, \"base_score\": null, \"missing\": NaN, \"num_parallel_tree\": null, \"random_state\": null, \"n_jobs\": null, \"monotone_constraints\": null, \"interaction_constraints\": null, \"importance_type\": null, \"gpu_id\": null, \"validate_parameters\": null, \"predictor\": null, \"enable_categorical\": false, \"classes_\": [0, 1], \"n_classes_\": 2, \"_le\": {\"classes_\": [0, 1]}, \"_estimator_type\": \"classifier\"}"},"feature_names":["eventIdx","game_id","Game Seconds","Game Period","X-Coordinate","Y-Coordinate","Shot Distance","Shot Angle","Shot Type","Was Net Empty","Last Event Type","Last X-Coordinate","Last Y-Coordinate","Time from Last Event (seconds)","Distance from Last Event","Is Rebound","Change in Shot Angle","Speed"],"feature_types":["int","int","int","int","int","int","float","float","int","int","int","int","int","int","float","i","float","float"],"gradient_booster":{"model":{"gbtree_model_param":{"num_trees":"100","size_leaf_vector":"0"},"tree_info":[0,0,0,0,0,0,0,0,0,0,0,0,0,0,0,0,0,0,0,0,0,0,0,0,0,0,0,0,0,0,0,0,0,0,0,0,0,0,0,0,0,0,0,0,0,0,0,0,0,0,0,0,0,0,0,0,0,0,0,0,0,0,0,0,0,0,0,0,0,0,0,0,0,0,0,0,0,0,0,0,0,0,0,0,0,0,0,0,0,0,0,0,0,0,0,0,0,0,0,0],"trees":[{"base_weights":[-1.6311666E0,-1.6476028E0,1.9921799E0,-1.3862679E0,-1.8046844E0,-1.0454079E0,-1.5020765E0,-1.6676304E0,-1.8517371E0,-1.5444126E0,-9.7052836E-1,-1.6705064E0,-1.4547852E0,-1.7301939E0,-1.5488431E0,-1.862025E0,-1.5950739E0,-1.7616279E0,-1.4705882E0,-5.245136E-1,-1.041501E0,-1.7149925E0,-1.5472717E0,-1.4003756E0,-1.6571977E0,-1.890324E0,-1.692871E0,-1.3006451E0,-1.5835626E0,-1.8156475E0,-1.8902687E0,-1.1923809E0,-1.7332449E0,-1.7660819E0,-5E-1,-1.3358265E0,-1.6954839E0,-1.1451187E0,-4.164009E-1,-1.0815285E0,-6.7665416E-1,-8.181818E-1,-1.7182314E0,-1.479462E0,-1.7361257E0,-1.2105328E0,-1.450965E0,-1.6095433E0,-1.7960426E0,-1.6507113E0,-1.8923821E0,-1.5236807E0,-1.0920246E0,-1.83391E0,-1.5613109E0,-1.819202E0,-1.1219512E0,-1.921988E0,-1.8611655E0,-1.5151515E0,-9.632E-1,-1.6317652E0,-1.9193083E0,-5E-1,-1.7705883E0,-1.0868167E0,-1.4058253E0,-1.7068063E0,-6.666667E-1,-1.5510204E0,-9.894737E-1,-5.076517E-1,1.5789473E-1,-6.817276E-1,-1.127491E0,-5.4972595E-1,-1.1610942E0,-1.1E0,1E0,-1.6446822E0,-1.7541399E0,-1.495736E0,-6.2068963E-1,-1.7672887E0,-1E0,-1.259441E0,-7.9357797E-1,-1.4677773E0,-1.2450897E0,-1.659083E0,-1.4707575E0,-1.7987804E0,-0E0,-1.6544682E0,-3.846154E-1,-1.8934624E0,-5E-1,-1.6647398E0,-1.3853904E0,-1.2444445E0,-7.81362E-1,-1.8420441E0,-4E-1,-1.5438892E0,-1.8689789E0,-1.8561316E0,-1.7635623E0,6.666667E-1,-1.18E0,-1.9225078E0,1.8181819E-1,-1.8623184E0,-9.6E-1,-1.7380953E0,-1.3509434E0,-1.0273973E0,-4.4444446E-2,-1.8709677E0,-1.5780488E0,-1.9228544E0,-5E-1,-1.7751479E0,-5E-1,-1.3741497E0,-8.095238E-1,-1.4401623E0,-5.833333E-1,-5.4545456E-1,-1.7146631E0,2.2222222E-1,-1.2E0,-1.6363636E0,-5.714286E-1,-8E-2,-1.060606E0,1.904762E-2,-6.111111E-1,-9.3877554E-1,3.6293435E-1,-5.964912E-1,-1.2323233E0,-1.3373494E0,-1.0731754E0,-1.1878172E0,-4.3173432E-1,5E-1,-1.1876923E0,-3.529412E-1,-1.4074074E0,-1.6506132E0,-6.666667E-1,-1.7203791E0,-1.8539257E0,-1.2589642E0,-1.5470668E0,6.666667E-1,-8.8E-1,-5E-1,-1.7706726E0,1E0,-1.2727273E0,-1.2417567E0,-1.8301886E0,-2.9787233E-1,-8.8435376E-1,-1.5129293E0,-1.392405E0,-1.1284404E0,-1.3872832E0,-1.6621101E0,3.3333334E-1,-9.0909094E-1,-1.4989899E0,-1.8046154E0,-1E0,-1.5247525E0,-1.6860759E0,-0E0,-1.1111112E0,-1.8945454E0,-5E-1,-1.6923077E0,-3.3333334E-1,-0E0,-1.4066496E0,-1.3699284E0,-7.84E-1,-4.4848484E-1,-1.220339E0,-1.4679365E0,-1.5804328E0,-1.8832685E0,-2.2222222E-1,-1.8396878E0,-1.936575E0,-1.6436127E0,-1.7860945E0,-1.3023256E0,-3.75E-1,-1.7194127E0,-1.9265186E0,-1.8631397E0,-1.0476191E0,1.5384616E-1,-1.2195122E0,-1.7763975E0,-5.4545456E-1,-1.1208792E0,-1.7701149E0,-9.0909094E-1,-1.4285715E0,-7.096774E-1,1.1111112E0,-1.9261539E0,-6E-1,-1.4443169E0,-1.7205693E0,-1.9264278E0,-5E-1,-1.7797619E0,-5E-1,-0E0,-1.4326241E0,4E-1,-9.4736844E-1,-1.5914333E0,-1.1853786E0,-9.189189E-1,4E-1,-1.4766355E0,-1.7952468E0,5E-1,-1.2E0,6.666667E-1,-8.5714287E-1,-1.6842105E0,-9.391304E-1,4.8044693E-1,-5.714286E-1,-1.1084337E0,-5.5133617E-1,-1.1428572E0,1.8181819E-1,7.3170733E-1,-2.6262626E-1,-1.2258065E0,-4.9069974E-1,-3.783784E-1,-1.3939394E0,-1.5595238E0,-1.2595574E0,-1.013012E0,-1.3147877E0,-1.5E0,-9.767442E-1,9.4736844E-1,-4.8E-1,-1.2753624E0,-6.415094E-1,5E-1,-7.692308E-1,-1.6701299E0,-1.4007491E0,6.666667E-1,-1.0909091E0,-1.7586402E0,-1.6280885E0,-1.8648648E0,-5.263158E-1,-0E0,-1.295082E0,-1.5623552E0,-6.956522E-1,1E0,-0E0,1.5384616E-1,-1.1219512E0,-9.4736844E-1,-1.780269E0,-1.8181819E-1,-1.4594594E0,-1.3234652E0,-1.1282392E0,-1.8461539E0,-5E-1,-6.086956E-1,2.6415095E-1,1E0,-9.001368E-1,-1.4807209E0,-1.6309333E0,-1.3949075E0,-1.5384616E-1,-1.1373752E0,6.666667E-1,-1.18894E0,-1.5197369E0,-1.6152809E0,-1.8222222E0,1E0,-5E-1,-0E0,-1.0416666E0,-1.506599E0,-0E0,-7.692308E-1,-1.8070244E0,2.2222222E-1,-1.3043479E0,-1.5417073E0,-4.4444445E-1,-1.6477467E0,-1.7555255E0,-6.086956E-1,7.368421E-1,-1.4285715E0,-0E0,-1.8956311E0,-5E-1,-1.7375E0,-7.2727275E-1,-0E0,-5E-1,-1.5780591E0,-1.113924E0,-1.2352941E0,-1.8554217E0,6.666667E-1,-8.666667E-1,-9.5E-1,2.247191E-2,-1.3513514E0,5.4545456E-1,-1.4710743E0,5E-1,-1.5342532E0,-1.6623722E0,-1.9045726E0,-6.666667E-1,-1.9278688E0,-1.8135674E0,-5.4545456E-1,-1.6508197E0,-1.8764845E0,-1.7675945E0,5E-1,-1.3571428E0,1.6666667E-1,-1.3333334E0,-1.2527473E0,-1.7870723E0,-1.9270203E0,-9.5652175E-1,-1.8450717E0,-1.9058775E0,-1.1764706E-1,-1.4482758E0,-6.666667E-1,1E0,-1.4285715E0,-0E0,-5E-1,-1.7961783E0,-6.506024E-1,-1.4563106E0,-1.8481013E0,-6.666667E-1,-9.781022E-1,-3.272727E-1,-1.5081967E0,5E-1,2.5E-1,-1.3684211E0,1.4285715E0,-0E0,-5E-1,-1.9376947E0,6.666667E-1,-1.2E0,-1.5131965E0,-1.1709845E0,-5.263158E-1,-1.7414248E0,-1.4925373E0,-1.8181819E-1,9.3333334E-1,-6.666667E-1,-4.1269842E-1,-1.2688172E0,-1.6193771E0,-9.0909094E-1,-1.3703704E0,-9.239766E-1,-1.0967742E0,-0E0,-4E-1,1.1111112E0,-1.5047619E0,-0E0,-1.801105E0,-5E-1,-0E0,9.0909094E-1,-0E0,-1.2E0,-2.6415095E-1,-1.1160221E0,-1.1111112E0,6.424242E-1,-1.0769231E0,-2.6086956E-1,-1.25E0,-1.5384616E-1,-5.663591E-1,8.235294E-1,-1.3513514E0,2.2222222E-1,8.831169E-1,-1.1428572E0,1.2903225E-1,-8.292683E-1,1.0526316E-1,-1.3450292E0,-3.4343433E-1,-8.2697946E-1,-8E-1,9.0909094E-1,-0E0,-1.4285715E0,-1.6477495E0,-1.2484848E0,-1.2009627E0,-1.5393939E0,-9.110368E-1,-1.1317098E0,1.0588236E0,-1.3320236E0,-6.086956E-1,-1.773585E0,-1.1764706E-1,-1.0689656E0,1.1764706E0,-5E-1,-4.1555783E-1,-1.2727273E0,-1.2941177E0,-0E0,-1.0666667E0,-7.4074075E-2,-1.1111112E0,-0E0,-1.3282443E0,-1.6830342E0,-0E0,-1.4440155E0,-2.2222222E-1,-1.2941177E0,-1.7606353E0,-0E0,-1.6421896E0,-1E0,-4.6153846E-1,-1.8715256E0,3.3333334E-1,-1.2727273E0,7.692308E-1,-1.1111112E0,-7.222222E-1,-1.3809524E0,-1.6122563E0,-1.3005464E0,1.8181819E-1,-1.2857143E0,6.666667E-1,-5E-1,-1.6363636E0,-4.347826E-1,2.2222222E-1,-1.4285715E0,-5E-1,-1.7837838E0,3.529412E-1,-1.329114E0,-9.304229E-1,-1.189829E0,-7.4698794E-1,4.6153846E-1,5.365854E-1,-5E-1,-6.5346533E-1,-1.0648148E0,-1.607555E0,-1.4601247E0,-1.5302638E0,-1.7342119E0,-1.4010512E0,-1.0109891E0,7.692308E-1,-8.235294E-1,-1.2857143E0,-9.985528E-1,-1.2093023E0,5E-1,-1.5341098E0,-1.8181819E-1,-1.5256107E0,-1.7306889E0,-1E0,-1.8514851E0,5.714286E-1,-1E0,-6.415094E-1,-1.4042553E0,-0E0,-1.5112016E0,-6.666667E-1,6.666667E-1,-0E0,-1.1111112E0,-1.8082721E0,-5E-1,-1.5555556E0,-2.2222222E-1,-1.65038E0,-1.3757039E0,-4.6511628E-2,-1.4666667E0,-1.6319689E0,-1.8689789E0,-0E0,-1.7571106E0,-1.0588236E0,4E-1,1.3333334E0,-1.8181819E-1,-8.5714287E-1,-1.897748E0,-1.7887324E0,-1.2E0,5E-1,-1.1111112E0,-5.4545456E-1,-1.6E0,-1.3818182E0,-4.6153846E-1,-8.767123E-1,-1.4747474E0,-9.52381E-2,-9.9029124E-1,-1.245283E0,-3.2258064E-1,-1E0,4.6153846E-1,-1.4285715E0,-0E0,-1.3451118E0,-1.5149934E0,-1.5419323E0,-8.77193E-1,-1.6668152E0,-0E0,2.2222222E-1,-1.2E0,-5.4545456E-1,-1.9296271E0,-1.0588236E0,-1.8156997E0,-1.0588236E0,6.666667E-1,-1.6678082E0,-1.2222222E0,-1.7682356E0,-2.2222222E-1,5E-1,-1.4146341E0,6.666667E-1,-8E-1,-1.3882353E0,4E-1,-1.1428572E0,-1.8278688E0,-1.9281751E0,-1.483871E0,-1.5E0,1.8181819E-1,-1.8874483E0,-1.806563E0,-1.9062566E0,-5E-1,8E-1,-9.0909094E-1,-2.2222222E-1,-1.6E0,-1.3333334E0,-2.4561404E-1,-1.5416666E0,-1.8181819E-1,-1E0,-0E0,-7.8518516E-1,-1.3103448E0,-7.692308E-1,6E-1,-8.5714287E-1,-1.6326531E0,1.1111112E0,-5.4545456E-1,-1.8181819E-1,-1.5259259E0,-1.2969697E0,-3.75E-1,5.4545456E-1,-1.3333334E0,-1.7653478E0,-8.965517E-1],"categories":[],"categories_nodes":[],"categories_segments":[],"categories_sizes":[],"default_left":[true,true,false,true,true,true,true,true,true,true,true,true,true,true,true,true,true,true,true,true,true,true,true,true,true,false,true,true,true,true,true,true,true,true,false,true,true,true,true,true,true,true,true,true,true,true,true,true,true,true,true,true,true,true,true,true,true,true,true,true,true,true,true,false,true,true,true,true,true,true,true,true,true,true,true,true,true,true,false,true,true,true,true,true,true,true,true,true,true,true,true,true,false,true,true,true,false,true,true,true,true,false,false,true,true,true,true,false,true,true,false,true,true,true,true,true,true,true,true,true,false,true,false,true,true,true,true,false,true,false,false,false,true,true,true,true,true,true,true,true,true,true,true,true,true,false,true,true,false,true,true,true,true,true,true,true,true,false,true,false,true,true,true,true,true,true,true,true,true,true,true,true,true,true,true,true,true,true,true,true,false,true,true,false,true,true,true,true,true,true,true,true,false,true,false,true,true,true,true,true,true,true,true,true,true,true,false,true,true,true,true,true,true,true,true,true,true,false,false,false,false,false,true,true,true,true,true,true,true,true,true,false,false,true,true,false,true,true,true,true,true,true,false,true,true,true,true,true,true,true,true,true,true,true,true,true,true,true,true,false,true,true,true,false,true,true,true,true,true,true,true,true,true,false,false,true,true,true,true,false,false,true,true,false,false,true,true,false,true,true,true,true,true,true,false,true,true,true,true,false,false,true,true,true,true,true,true,false,true,true,true,true,true,true,true,false,false,true,false,true,true,false,false,true,true,true,false,false,true,true,true,true,false,true,false,true,true,false,true,true,true,true,true,false,true,false,true,true,false,true,true,true,true,true,true,true,false,false,false,true,false,false,false,true,true,false,true,true,true,true,false,true,false,false,false,false,false,false,false,true,true,true,true,false,false,false,false,false,false,false,false,false,false,false,false,false,false,false,false,false,false,false,false,false,false,false,false,false,false,false,false,false,false,false,false,false,false,false,false,false,false,false,false,false,false,false,false,false,false,false,false,false,false,false,false,false,false,false,false,false,false,false,false,false,false,false,false,false,false,false,false,false,false,false,false,false,false,false,false,false,false,false,false,false,false,false,false,false,false,false,false,false,false,false,false,false,false,false,false,false,false,false,false,false,false,false,false,false,false,false,false,false,false,false,false,false,false,false,false,false,false,false,false,false,false,false,false,false,false,false,false,false,false,false,false,false,false,false,false,false,false,false,false,false,false,false,false,false,false,false,false,false,false,false,false,false,false,false,false,false,false,false,false,false,false,false,false,false,false,false,false,false,false,false,false,false,false,false,false,false,false,false,false,false,false,false,false,false,false,false,false,false,false,false,false,false,false,false,false,false,false,false,false,false,false,false,false,false,false,false,false,false,false,false,false,false,false,false,false,false,false,false,false,false,false,false,false,false,false,false,false,false,false,false,false],"id":0,"left_children":[1,3,-1,5,7,9,11,13,15,17,19,21,23,25,27,29,31,33,35,37,39,41,43,45,47,-1,49,51,53,55,57,59,61,63,-1,65,67,69,71,73,75,77,79,81,83,85,87,89,91,93,95,97,99,101,103,105,107,109,111,113,115,117,119,-1,121,123,125,127,129,131,133,135,137,139,141,143,145,147,-1,149,151,153,155,157,159,161,163,165,167,169,171,173,-1,175,177,179,-1,181,183,185,187,-1,-1,189,191,193,195,-1,197,199,-1,201,203,205,207,209,211,213,215,217,-1,219,-1,221,223,225,227,-1,229,-1,-1,-1,231,233,235,237,239,241,243,245,247,249,251,253,255,-1,257,259,-1,261,263,265,267,269,271,273,275,-1,277,-1,279,281,283,285,287,289,291,293,295,297,299,301,303,305,307,309,311,313,315,317,-1,319,321,-1,323,325,327,329,331,333,335,337,-1,339,-1,341,343,345,347,349,351,353,355,357,359,361,-1,363,365,367,369,371,373,375,377,379,381,-1,-1,-1,-1,-1,383,385,387,389,391,393,395,397,399,-1,-1,401,403,-1,405,407,409,411,413,415,-1,417,419,421,423,425,427,429,431,433,435,437,439,441,443,445,447,-1,449,451,453,-1,455,457,459,461,463,465,467,469,471,-1,-1,473,475,477,479,-1,-1,481,483,-1,-1,485,487,-1,489,491,493,495,497,499,-1,501,503,505,507,-1,-1,509,511,513,515,517,519,-1,521,523,525,527,529,531,533,-1,-1,535,-1,537,539,-1,-1,541,543,545,-1,-1,547,549,551,553,-1,555,-1,557,559,-1,561,563,565,567,569,-1,571,-1,573,575,-1,577,579,581,583,585,587,589,-1,-1,-1,591,-1,-1,-1,593,595,-1,597,599,601,603,-1,605,-1,-1,-1,-1,-1,-1,-1,607,609,611,613,-1,-1,-1,-1,-1,-1,-1,-1,-1,-1,-1,-1,-1,-1,-1,-1,-1,-1,-1,-1,-1,-1,-1,-1,-1,-1,-1,-1,-1,-1,-1,-1,-1,-1,-1,-1,-1,-1,-1,-1,-1,-1,-1,-1,-1,-1,-1,-1,-1,-1,-1,-1,-1,-1,-1,-1,-1,-1,-1,-1,-1,-1,-1,-1,-1,-1,-1,-1,-1,-1,-1,-1,-1,-1,-1,-1,-1,-1,-1,-1,-1,-1,-1,-1,-1,-1,-1,-1,-1,-1,-1,-1,-1,-1,-1,-1,-1,-1,-1,-1,-1,-1,-1,-1,-1,-1,-1,-1,-1,-1,-1,-1,-1,-1,-1,-1,-1,-1,-1,-1,-1,-1,-1,-1,-1,-1,-1,-1,-1,-1,-1,-1,-1,-1,-1,-1,-1,-1,-1,-1,-1,-1,-1,-1,-1,-1,-1,-1,-1,-1,-1,-1,-1,-1,-1,-1,-1,-1,-1,-1,-1,-1,-1,-1,-1,-1,-1,-1,-1,-1,-1,-1,-1,-1,-1,-1,-1,-1,-1,-1,-1,-1,-1,-1,-1,-1,-1,-1,-1,-1,-1,-1,-1,-1,-1,-1,-1,-1,-1,-1,-1,-1,-1,-1,-1,-1,-1,-1,-1,-1,-1,-1,-1,-1,-1,-1,-1,-1,-1,-1,-1,-1,-1,-1,-1,-1,-1,-1,-1,-1,-1,-1],"loss_changes":[3.3701875E3,2.3078594E3,0E0,8.3264453E2,2.2357031E2,1.9887256E2,1.2319531E2,6.415234E1,6.609375E1,8.602417E0,1.4713965E2,1.6264648E1,1.3338281E2,3.1955078E1,2.4757324E1,2.95E1,5.4408447E1,8.3496094E-2,1.3707031E1,4.2631897E1,5.803418E1,5.932129E0,9.283447E0,9.157422E1,1.4345215E1,0E0,3.708008E1,1.6366455E1,1.2319336E1,2.1486328E1,1.0824219E1,1.7958466E1,1.1095459E1,9.033203E-2,0E0,4.298218E0,1.1190796E0,4.4512863E0,2.8837372E1,6.583447E1,2.3988098E1,6.736364E0,3.760254E0,8.68335E0,3.7095947E0,4.0820557E1,2.4711914E1,1.0959961E1,3.230713E0,1.8169922E1,2.9736328E-1,1.2976379E0,8.67543E0,1.7912598E0,1.0567383E1,1.6226562E1,6.107811E0,8.480469E0,6.6992188E0,1.5782471E0,9.170212E0,3.3981934E0,3.4838867E-1,0E0,9.729004E-2,5.0823517E0,6.43219E0,8.0755615E-1,2.0444446E0,1.1131744E0,4.5245285E0,2.582721E1,1.7430138E1,1.6922623E1,3.5601562E1,2.352333E1,4.227806E0,1.7997818E0,0E0,3.7810059E0,2.4555664E0,6.2470703E0,5.4271264E0,9.136963E-2,7.818182E0,1.6236084E1,9.546158E0,2.2E1,8.146118E0,9.169678E0,6.9068604E0,1.2529297E0,0E0,1.359082E1,3.6324785E0,2.993164E-1,0E0,2.6107788E0,2.9231415E0,6.726059E0,9.644947E0,0E0,0E0,4.288574E0,2.634735E0,3.9589844E0,7.352539E0,0E0,4.4352264E0,2.7421875E0,0E0,3.5058594E0,3.800825E0,9.496536E-1,4.4048233E0,5.6306763E0,9.436559E0,4.8237305E0,5.3293457E0,3.5498047E-1,0E0,1.0443115E-1,0E0,2.9529648E0,7.3814526E0,7.613983E0,4.327478E0,0E0,9.79126E-1,0E0,0E0,0E0,2.9571428E0,4.1980953E0,3.4179916E0,2.1729609E1,1.116095E1,3.0092764E0,1.51293335E1,2.121885E1,6.304123E0,9.511841E0,3.626245E1,1.7801285E0,1.84934E1,0E0,3.0724106E0,1.8936651E0,0E0,1.736084E0,4.5454545E0,1.6071777E0,4.9837646E0,5.7066193E0,6.0689697E0,6.666666E-1,3.2993622E0,0E0,1.0498047E-1,0E0,1.9754314E0,1.5033203E1,2.0246887E-1,6.3186073E0,6.3650208E0,1.437793E1,8.049316E0,6.0030518E0,5.0105286E0,7.7521973E0,2.1666667E0,3.314394E0,5.645996E0,2.3120117E-1,2.8937197E0,1.3651855E1,5.5185547E0,4.709382E0,1.5873017E0,3.0126953E-1,0E0,2.421585E0,1.6666666E-1,0E0,3.1468658E0,4.554886E0,4.3253326E0,9.764266E0,7.5616493E0,5.5985107E0,3.4829102E0,2.0608215E0,0E0,7.4228516E0,0E0,3.9628906E0,2.022461E0,4.9269104E0,4.375E0,2.6000366E0,1.7011719E0,2.7734375E0,3.741911E0,2.9230769E0,2.6132412E0,1.181488E-1,0E0,6.229946E0,6.396103E-1,4.3174515E0,5.591339E0,5.2415113E0,1.5873017E0,3.6843872E-1,4.6000004E0,2.3276367E0,3.8967285E0,0E0,0E0,0E0,0E0,0E0,2.3702621E0,3.4666665E0,6.0073853E0,1.4212952E0,3.3640137E0,1.5117693E0,2.5777779E0,2.2219849E0,1.3708496E-1,0E0,0E0,6.060606E-1,1.0285714E0,0E0,6.5706024E0,1.2250189E1,5.2135696E0,5.4158936E0,7.80912E0,3.2887163E0,0E0,1.2646185E1,5.599774E0,7.520851E0,1.3693672E1,5.7484026E0,1.9913483E0,2.5529785E0,6.300537E0,2.4085205E1,2.2367188E1,3.309681E0,2.4293118E0,3.73839E0,1.28809395E1,1.6504669E0,3.1175404E0,0E0,8.547008E-1,1.161377E0,4.04541E0,0E0,6.8330383E-1,3.0961914E0,1.7632446E0,2.9405518E0,3.4720895E0,4.7008543E0,5.0040283E0,4.948242E0,6.188029E0,0E0,0E0,1.4230769E0,2.9117908E0,2.9908104E0,1.1151123E-1,0E0,0E0,1.0225098E1,8.061035E0,0E0,0E0,3.7488813E0,3.0266912E0,0E0,6.727722E0,6.748535E0,7.093506E0,4.8588867E0,4.651583E0,5.424225E0,0E0,4.336029E0,2.6440125E0,8.872559E0,5.727661E0,0E0,0E0,3.142857E0,2.581377E0,3.4151611E0,2E0,8.547008E-1,1.5209961E-1,0E0,1.217391E0,1.1625E1,5.423255E0,4.114258E0,3.0844727E0,3.034271E0,2.8452952E0,0E0,0E0,1.8481445E-1,0E0,5.6518555E-2,3.1464643E0,0E0,0E0,4.6965027E-1,6.265663E0,6.005478E0,0E0,0E0,2.766714E0,3.3036232E0,1.0450302E1,2.8957558E0,0E0,2.3131104E0,0E0,3.8583984E0,4.15625E0,0E0,2.0444446E0,1.5419922E0,3.9902344E0,4.128342E0,2.4031982E0,0E0,2.25E0,0E0,5.1916428E0,3.4333332E0,0E0,5.6496468E0,1.3670654E0,8.613281E-1,3.8300395E0,5.986328E0,3.2128906E-1,3.8139038E0,0E0,0E0,0E0,1.453968E0,0E0,0E0,0E0,5.409849E0,2.5209236E0,0E0,6.666666E-1,5.556923E0,6.0965037E0,1.0719299E0,0E0,3.3459594E0,0E0,0E0,0E0,0E0,0E0,0E0,0E0,2.612152E0,4.352257E0,4.835726E0,2.2474365E0,0E0,0E0,0E0,0E0,0E0,0E0,0E0,0E0,0E0,0E0,0E0,0E0,0E0,0E0,0E0,0E0,0E0,0E0,0E0,0E0,0E0,0E0,0E0,0E0,0E0,0E0,0E0,0E0,0E0,0E0,0E0,0E0,0E0,0E0,0E0,0E0,0E0,0E0,0E0,0E0,0E0,0E0,0E0,0E0,0E0,0E0,0E0,0E0,0E0,0E0,0E0,0E0,0E0,0E0,0E0,0E0,0E0,0E0,0E0,0E0,0E0,0E0,0E0,0E0,0E0,0E0,0E0,0E0,0E0,0E0,0E0,0E0,0E0,0E0,0E0,0E0,0E0,0E0,0E0,0E0,0E0,0E0,0E0,0E0,0E0,0E0,0E0,0E0,0E0,0E0,0E0,0E0,0E0,0E0,0E0,0E0,0E0,0E0,0E0,0E0,0E0,0E0,0E0,0E0,0E0,0E0,0E0,0E0,0E0,0E0,0E0,0E0,0E0,0E0,0E0,0E0,0E0,0E0,0E0,0E0,0E0,0E0,0E0,0E0,0E0,0E0,0E0,0E0,0E0,0E0,0E0,0E0,0E0,0E0,0E0,0E0,0E0,0E0,0E0,0E0,0E0,0E0,0E0,0E0,0E0,0E0,0E0,0E0,0E0,0E0,0E0,0E0,0E0,0E0,0E0,0E0,0E0,0E0,0E0,0E0,0E0,0E0,0E0,0E0,0E0,0E0,0E0,0E0,0E0,0E0,0E0,0E0,0E0,0E0,0E0,0E0,0E0,0E0,0E0,0E0,0E0,0E0,0E0,0E0,0E0,0E0,0E0,0E0,0E0,0E0,0E0,0E0,0E0,0E0,0E0,0E0,0E0,0E0,0E0,0E0,0E0,0E0,0E0,0E0,0E0,0E0,0E0,0E0,0E0,0E0,0E0,0E0,0E0,0E0,0E0,0E0,0E0,0E0,0E0,0E0,0E0,0E0,0E0,0E0,0E0,0E0,0E0,0E0,0E0,0E0,0E0,0E0],"parents":[2147483647,0,0,1,1,3,3,4,4,5,5,6,6,7,7,8,8,9,9,10,10,11,11,12,12,13,13,14,14,15,15,16,16,17,17,18,18,19,19,20,20,21,21,22,22,23,23,24,24,26,26,27,27,28,28,29,29,30,30,31,31,32,32,33,33,35,35,36,36,37,37,38,38,39,39,40,40,41,41,42,42,43,43,44,44,45,45,46,46,47,47,48,48,49,49,50,50,51,51,52,52,53,53,54,54,55,55,56,56,57,57,58,58,59,59,60,60,61,61,62,62,64,64,65,65,66,66,67,67,68,68,69,69,70,70,71,71,72,72,73,73,74,74,75,75,76,76,77,77,79,79,80,80,81,81,82,82,83,83,84,84,85,85,86,86,87,87,88,88,89,89,90,90,91,91,93,93,94,94,95,95,97,97,98,98,99,99,100,100,103,103,104,104,105,105,106,106,108,108,109,109,111,111,112,112,113,113,114,114,115,115,116,116,117,117,118,118,119,119,121,121,123,123,124,124,125,125,126,126,128,128,132,132,133,133,134,134,135,135,136,136,137,137,138,138,139,139,140,140,141,141,142,142,143,143,144,144,146,146,147,147,149,149,150,150,151,151,152,152,153,153,154,154,155,155,156,156,158,158,160,160,161,161,162,162,163,163,164,164,165,165,166,166,167,167,168,168,169,169,170,170,171,171,172,172,173,173,174,174,175,175,176,176,177,177,178,178,179,179,181,181,182,182,184,184,185,185,186,186,187,187,188,188,189,189,190,190,191,191,193,193,195,195,196,196,197,197,198,198,199,199,200,200,201,201,202,202,203,203,204,204,205,205,207,207,208,208,209,209,210,210,211,211,212,212,213,213,214,214,215,215,216,216,222,222,223,223,224,224,225,225,226,226,227,227,228,228,229,229,230,230,233,233,234,234,236,236,237,237,238,238,239,239,240,240,241,241,243,243,244,244,245,245,246,246,247,247,248,248,249,249,250,250,251,251,252,252,253,253,254,254,255,255,256,256,257,257,258,258,260,260,261,261,262,262,264,264,265,265,266,266,267,267,268,268,269,269,270,270,271,271,272,272,275,275,276,276,277,277,278,278,281,281,282,282,285,285,286,286,288,288,289,289,290,290,291,291,292,292,293,293,295,295,296,296,297,297,298,298,301,301,302,302,303,303,304,304,305,305,306,306,308,308,309,309,310,310,311,311,312,312,313,313,314,314,317,317,319,319,320,320,323,323,324,324,325,325,328,328,329,329,330,330,331,331,333,333,335,335,336,336,338,338,339,339,340,340,341,341,342,342,344,344,346,346,347,347,349,349,350,350,351,351,352,352,353,353,354,354,355,355,359,359,363,363,364,364,366,366,367,367,368,368,369,369,371,371,379,379,380,380,381,381,382,382],"right_children":[2,4,-1,6,8,10,12,14,16,18,20,22,24,26,28,30,32,34,36,38,40,42,44,46,48,-1,50,52,54,56,58,60,62,64,-1,66,68,70,72,74,76,78,80,82,84,86,88,90,92,94,96,98,100,102,104,106,108,110,112,114,116,118,120,-1,122,124,126,128,130,132,134,136,138,140,142,144,146,148,-1,150,152,154,156,158,160,162,164,166,168,170,172,174,-1,176,178,180,-1,182,184,186,188,-1,-1,190,192,194,196,-1,198,200,-1,202,204,206,208,210,212,214,216,218,-1,220,-1,222,224,226,228,-1,230,-1,-1,-1,232,234,236,238,240,242,244,246,248,250,252,254,256,-1,258,260,-1,262,264,266,268,270,272,274,276,-1,278,-1,280,282,284,286,288,290,292,294,296,298,300,302,304,306,308,310,312,314,316,318,-1,320,322,-1,324,326,328,330,332,334,336,338,-1,340,-1,342,344,346,348,350,352,354,356,358,360,362,-1,364,366,368,370,372,374,376,378,380,382,-1,-1,-1,-1,-1,384,386,388,390,392,394,396,398,400,-1,-1,402,404,-1,406,408,410,412,414,416,-1,418,420,422,424,426,428,430,432,434,436,438,440,442,444,446,448,-1,450,452,454,-1,456,458,460,462,464,466,468,470,472,-1,-1,474,476,478,480,-1,-1,482,484,-1,-1,486,488,-1,490,492,494,496,498,500,-1,502,504,506,508,-1,-1,510,512,514,516,518,520,-1,522,524,526,528,530,532,534,-1,-1,536,-1,538,540,-1,-1,542,544,546,-1,-1,548,550,552,554,-1,556,-1,558,560,-1,562,564,566,568,570,-1,572,-1,574,576,-1,578,580,582,584,586,588,590,-1,-1,-1,592,-1,-1,-1,594,596,-1,598,600,602,604,-1,606,-1,-1,-1,-1,-1,-1,-1,608,610,612,614,-1,-1,-1,-1,-1,-1,-1,-1,-1,-1,-1,-1,-1,-1,-1,-1,-1,-1,-1,-1,-1,-1,-1,-1,-1,-1,-1,-1,-1,-1,-1,-1,-1,-1,-1,-1,-1,-1,-1,-1,-1,-1,-1,-1,-1,-1,-1,-1,-1,-1,-1,-1,-1,-1,-1,-1,-1,-1,-1,-1,-1,-1,-1,-1,-1,-1,-1,-1,-1,-1,-1,-1,-1,-1,-1,-1,-1,-1,-1,-1,-1,-1,-1,-1,-1,-1,-1,-1,-1,-1,-1,-1,-1,-1,-1,-1,-1,-1,-1,-1,-1,-1,-1,-1,-1,-1,-1,-1,-1,-1,-1,-1,-1,-1,-1,-1,-1,-1,-1,-1,-1,-1,-1,-1,-1,-1,-1,-1,-1,-1,-1,-1,-1,-1,-1,-1,-1,-1,-1,-1,-1,-1,-1,-1,-1,-1,-1,-1,-1,-1,-1,-1,-1,-1,-1,-1,-1,-1,-1,-1,-1,-1,-1,-1,-1,-1,-1,-1,-1,-1,-1,-1,-1,-1,-1,-1,-1,-1,-1,-1,-1,-1,-1,-1,-1,-1,-1,-1,-1,-1,-1,-1,-1,-1,-1,-1,-1,-1,-1,-1,-1,-1,-1,-1,-1,-1,-1,-1,-1,-1,-1,-1,-1,-1,-1,-1,-1,-1,-1,-1,-1,-1,-1,-1,-1,-1,-1,-1,-1,-1,-1,-1],"split_conditions":[5E-1,2.6210657E1,9.9608994E-1,3.5E0,3.6297348E1,1.5E0,4.8273144E1,1.5E0,1.567131E2,4.8695206E1,5E-1,1.5E0,1.313048E2,-2.15E1,3.5E0,4.71858E1,4.5E0,3.515E2,1.14095116E2,4.5E0,3.8903427E1,-8.796212E0,5.5E0,1.0367969E1,1.5841399E2,-9.45162E-1,2.35E1,2.5E0,3.346089E1,3.5E0,1.5E0,3.5E0,2.0160207E9,-1.4780177E1,-2.5E-1,-7.85E1,2.0180212E9,2.5E0,3.0757359E1,-3.8893364E1,2.5E0,-9.664064E0,1.2062321E1,3.5955E3,1.444861E1,1.42293E1,1.7437183E1,1.5E0,1.8861334E2,4.3495E3,3.8175E3,1.634E3,2.5E0,3.643E3,1.510294E2,1.5E0,-5.438861E1,4.35E3,6.85E1,8.8492004E1,3.485E2,-1.25E1,3.75E2,-2.5E-1,1.7991248E2,2.0165207E9,1.1114401E2,2.5322475E0,1.2203935E2,2.865E2,7.447942E0,-2.4878458E1,9.5082085E1,8.541882E1,5.0619064E1,9.424216E1,3.930259E1,1.5E0,5E-1,3.769E3,5E-1,9.326763E0,-3.70273E1,-1.45E1,1.4816696E1,5.5E0,7.2456064E0,1.5E0,1.8069263E1,1.8459534E2,4.5977312E-1,3.415E2,-0E0,4.5E0,3.82E2,9.5E1,-2.5E-1,4.5E0,1.681E3,5E-1,3.8065697E1,-9.2102206E-1,-2E-1,2.5E0,8.9E1,2.85E1,4.5E0,3.3333334E-1,1.25116905E2,1.5171624E1,9.090909E-2,3.8535E3,5.434568E1,3.36E2,9.441174E1,2.0165204E9,6.85E1,4.7E1,4.5E0,8.9E1,-2.5E-1,1.5386609E2,-2.5E-1,-9.75E1,3.47E2,2.5E0,3.4645058E1,-2.7272728E-1,-7.85E1,1.1111111E-1,-6E-1,-8.181818E-1,3.2185E3,2.016021E9,4.215E2,5.2602005E1,4.182873E0,1.1E1,6.17164E1,1.9818466E1,7E2,-1.25E1,1.2887683E2,7.439974E1,5.242092E0,2.5E-1,2.5E0,2.016021E9,-7.037037E-1,1.5294774E1,-7.5E0,3.8223694E1,9.05E1,3.6298043E-1,2.3714678E1,4.6E1,2.0155206E9,-2.5E-1,3.8726783E-1,5E-1,4.65E2,1.5E0,3.26E2,2.0873478E1,1.4295275E1,5E-1,9.5E1,3.8545E3,1.3315216E2,5E-1,2.0180202E9,8.273769E0,9.15E1,3.5811388E0,1.6390976E1,3.5875E3,3.2349632E1,2.0160205E9,3.885E2,1.12E2,-2.5E-1,9.55E1,9.35E1,-0E0,1.5E0,6.25E1,2.15E1,-1.5E0,2.0180211E9,4.15E1,3.272612E1,3.5E0,-1.1111111E-1,-2.85E1,-9.682875E-1,-7.5312805E1,-2.55E1,2.0150203E9,2.9E1,2.5E0,9.830307E1,2.15E1,2.6669288E0,4.9E1,9.154818E1,2.0150202E9,-2.7272728E-1,1.5E0,1.3084229E2,5.9123E1,1.6717505E2,9.082808E1,8.15E1,1.5263206E-1,4.8449066E1,8.154806E0,1.571162E2,-9.632139E-1,-2.5E-1,-8.8988096E-1,-2.5E-1,-0E0,-8.05E1,2.1666027E1,-7.65E1,9.75E1,4.0656628E1,9.5E1,5E-1,3.35E2,1.7182574E2,2.5E-1,-6E-1,2.0155205E9,1.92E2,-8.4210527E-1,1.015E2,-8.272983E1,-4.8913067E1,3.341E3,2.5670967E1,6.1612175E1,9.090909E-2,1.645616E2,4.7057426E1,-8E1,1.3247305E1,5.15E1,-7.796043E1,-4.5E0,1.05E1,5E-1,3.8643284E0,6.613703E0,2.0150207E9,1.5E0,1.6258775E2,8.85E1,1.8165E3,2.5E-1,2.3E1,5.5210094E0,-7.750575E1,3.3333334E-1,8.147765E0,3.877E3,3.345E2,1.5607609E-1,1.5E0,2.285E2,5.5E0,2.0180206E9,1.8613691E1,5E-1,-0E0,3.29E2,1.6999973E1,5.733964E0,-1.1919371E1,-9.090909E-2,-7.297297E-1,3.8643284E0,7.9362535E0,-9.230769E-1,-2.5E-1,3.3085E3,3.35E1,5E-1,-1.5E0,-8.5E0,1.5083021E1,3.61E3,2.0160207E9,8.6050156E1,3.3333334E-1,1.3297368E2,1.303511E2,1.8411934E1,6.555664E0,5E-1,-2.5E-1,5.5E0,1.5E0,2.8E1,1.575E2,2.0165207E9,3.8375E3,1.1111111E-1,2.1E1,3.5E0,3.7875E3,5E-1,-9.722656E1,6E0,6.7E1,-7.1428573E-1,-0E0,-5.0467606E0,-2.5E-1,3.65E1,-2.55E1,-0E0,-2.5E-1,-9.65E1,1.25E1,3.1312935E1,-9.2771083E-1,3.3333334E-1,4.36353E1,5.65E1,8.11E2,3.597908E1,2.7272728E-1,2.4124641E1,2.5E-1,2.7529774E1,9.8E1,-9.522863E-1,6.1689266E1,-1.3294644E2,-7.65E1,4.3029057E1,2.0180211E9,-9.3824226E-1,3.153129E1,2.5E-1,-9.45E1,2.59E2,-6.666667E-1,1.2577072E2,7.040863E-1,3.6885E3,2.0170204E9,-1.75E1,1.4564275E2,-3E0,-7.241379E-1,-3.3333334E-1,5E-1,8.4535587E-1,-0E0,-2.5E-1,-8.980892E-1,-2.3E1,9.386818E1,-9.240506E-1,2.0160207E9,1.2897008E1,9.119793E1,2.916667E-1,2.5E-1,3.635E2,-6.8421054E-1,7.1428573E-1,-0E0,-2.5E-1,-9.6884733E-1,3.3333334E-1,-6E-1,9.5E0,3.1245E3,3.558072E1,1.934206E1,-7.4626863E-1,-9.090909E-2,4.6666667E-1,-3.3333334E-1,-2.0634921E-1,-6.344086E-1,-8.0968857E-1,-4.5454547E-1,-6.851852E-1,-4.619883E-1,-5.483871E-1,-0E0,-2E-1,5.555556E-1,-7.5238097E-1,-0E0,-9.005525E-1,-2.5E-1,-0E0,4.5454547E-1,-0E0,-6E-1,-1.3207547E-1,-5.5801105E-1,-5.555556E-1,3.212121E-1,-5.3846157E-1,-1.3043478E-1,-6.25E-1,-7.692308E-2,-2.8317955E-1,4.117647E-1,-6.756757E-1,1.1111111E-1,4.4155845E-1,-5.714286E-1,6.451613E-2,-4.1463414E-1,5.263158E-2,-6.725146E-1,-1.7171717E-1,-4.1348973E-1,-4E-1,4.5454547E-1,-0E0,-7.1428573E-1,-8.238748E-1,-6.242424E-1,-6.0048133E-1,-7.6969695E-1,-4.555184E-1,-5.658549E-1,5.294118E-1,-6.660118E-1,-3.043478E-1,-8.867925E-1,-5.882353E-2,-5.344828E-1,5.882353E-1,-2.5E-1,-2.0777892E-1,-6.363636E-1,-6.4705884E-1,-0E0,-5.3333336E-1,-3.7037037E-2,-5.555556E-1,-0E0,-6.6412216E-1,-8.415171E-1,-0E0,-7.2200775E-1,-1.1111111E-1,-6.4705884E-1,-8.803176E-1,-0E0,-8.210948E-1,-5E-1,-2.3076923E-1,-9.357628E-1,1.6666667E-1,-6.363636E-1,3.846154E-1,-5.555556E-1,-3.611111E-1,-6.904762E-1,-8.0612814E-1,-6.502732E-1,9.090909E-2,-6.4285713E-1,3.3333334E-1,-2.5E-1,-8.181818E-1,-2.173913E-1,1.1111111E-1,-7.1428573E-1,-2.5E-1,-8.918919E-1,1.764706E-1,-6.64557E-1,-4.6521145E-1,-5.949145E-1,-3.7349397E-1,2.3076923E-1,2.682927E-1,-2.5E-1,-3.2673267E-1,-5.324074E-1,-8.037775E-1,-7.3006237E-1,-7.651319E-1,-8.6710596E-1,-7.005256E-1,-5.0549453E-1,3.846154E-1,-4.117647E-1,-6.4285713E-1,-4.992764E-1,-6.0465115E-1,2.5E-1,-7.670549E-1,-9.090909E-2,-7.6280534E-1,-8.6534446E-1,-5E-1,-9.2574257E-1,2.857143E-1,-5E-1,-3.207547E-1,-7.0212764E-1,-0E0,-7.556008E-1,-3.3333334E-1,3.3333334E-1,-0E0,-5.555556E-1,-9.0413606E-1,-2.5E-1,-7.777778E-1,-1.1111111E-1,-8.2519E-1,-6.8785197E-1,-2.3255814E-2,-7.3333335E-1,-8.159844E-1,-9.344894E-1,-0E0,-8.785553E-1,-5.294118E-1,2E-1,6.666667E-1,-9.090909E-2,-4.2857143E-1,-9.48874E-1,-8.943662E-1,-6E-1,2.5E-1,-5.555556E-1,-2.7272728E-1,-8E-1,-6.909091E-1,-2.3076923E-1,-4.3835616E-1,-7.373737E-1,-4.761905E-2,-4.9514562E-1,-6.226415E-1,-1.6129032E-1,-5E-1,2.3076923E-1,-7.1428573E-1,-0E0,-6.725559E-1,-7.574967E-1,-7.709662E-1,-4.385965E-1,-8.334076E-1,-0E0,1.1111111E-1,-6E-1,-2.7272728E-1,-9.6481353E-1,-5.294118E-1,-9.0784985E-1,-5.294118E-1,3.3333334E-1,-8.339041E-1,-6.111111E-1,-8.841178E-1,-1.1111111E-1,2.5E-1,-7.0731705E-1,3.3333334E-1,-4E-1,-6.9411767E-1,2E-1,-5.714286E-1,-9.139344E-1,-9.6408755E-1,-7.419355E-1,-7.5E-1,9.090909E-2,-9.4372416E-1,-9.032815E-1,-9.531283E-1,-2.5E-1,4E-1,-4.5454547E-1,-1.1111111E-1,-8E-1,-6.666667E-1,-1.2280702E-1,-7.708333E-1,-9.090909E-2,-5E-1,-0E0,-3.9259258E-1,-6.551724E-1,-3.846154E-1,3E-1,-4.2857143E-1,-8.1632656E-1,5.555556E-1,-2.7272728E-1,-9.090909E-2,-7.6296294E-1,-6.484848E-1,-1.875E-1,2.7272728E-1,-6.666667E-1,-8.826739E-1,-4.4827586E-1],"split_indices":[9,6,0,13,6,10,7,8,6,7,13,8,7,5,13,6,13,0,7,10,16,7,8,6,7,0,5,10,7,8,8,10,1,7,0,11,1,10,16,16,13,7,6,2,17,17,17,8,14,2,2,2,13,2,7,8,16,2,4,7,0,5,0,0,14,1,7,14,7,0,6,16,7,7,7,7,16,10,0,2,8,6,16,5,17,8,6,8,6,14,17,0,0,13,0,4,0,8,2,15,14,0,0,8,4,5,13,0,7,7,0,2,6,0,7,1,11,13,5,13,0,17,0,11,2,13,17,0,4,0,0,0,2,1,2,14,14,12,14,7,2,12,7,7,6,0,8,1,0,17,5,7,4,17,17,11,1,0,17,0,2,8,0,17,17,8,13,2,14,8,1,6,4,6,14,2,6,1,0,13,0,11,0,0,10,4,0,12,1,12,6,8,0,5,0,16,5,1,5,13,17,5,17,11,6,1,0,12,14,14,14,7,11,17,14,17,6,0,0,0,0,0,11,6,4,11,14,11,8,0,14,0,0,1,0,0,0,16,16,2,6,16,0,7,16,11,6,0,16,5,5,15,6,17,1,8,7,4,2,0,11,6,16,0,6,2,0,17,10,0,13,1,6,0,0,0,6,6,7,0,0,6,6,0,0,2,12,0,5,5,6,2,1,7,0,14,7,6,6,0,0,8,10,2,0,1,2,0,13,10,2,8,16,5,11,0,0,7,0,12,12,0,0,11,12,6,0,0,7,4,2,6,0,14,0,17,13,0,14,16,4,6,1,0,17,0,11,0,0,6,17,2,1,5,7,5,0,0,0,17,0,0,0,12,7,0,1,17,7,17,0,0,0,0,0,0,0,0,0,0,2,14,17,0,0,0,0,0,0,0,0,0,0,0,0,0,0,0,0,0,0,0,0,0,0,0,0,0,0,0,0,0,0,0,0,0,0,0,0,0,0,0,0,0,0,0,0,0,0,0,0,0,0,0,0,0,0,0,0,0,0,0,0,0,0,0,0,0,0,0,0,0,0,0,0,0,0,0,0,0,0,0,0,0,0,0,0,0,0,0,0,0,0,0,0,0,0,0,0,0,0,0,0,0,0,0,0,0,0,0,0,0,0,0,0,0,0,0,0,0,0,0,0,0,0,0,0,0,0,0,0,0,0,0,0,0,0,0,0,0,0,0,0,0,0,0,0,0,0,0,0,0,0,0,0,0,0,0,0,0,0,0,0,0,0,0,0,0,0,0,0,0,0,0,0,0,0,0,0,0,0,0,0,0,0,0,0,0,0,0,0,0,0,0,0,0,0,0,0,0,0,0,0,0,0,0,0,0,0,0,0,0,0,0,0,0,0,0,0,0,0,0,0,0,0,0,0,0,0,0,0,0,0,0,0],"split_type":[0,0,0,0,0,0,0,0,0,0,0,0,0,0,0,0,0,0,0,0,0,0,0,0,0,0,0,0,0,0,0,0,0,0,0,0,0,0,0,0,0,0,0,0,0,0,0,0,0,0,0,0,0,0,0,0,0,0,0,0,0,0,0,0,0,0,0,0,0,0,0,0,0,0,0,0,0,0,0,0,0,0,0,0,0,0,0,0,0,0,0,0,0,0,0,0,0,0,0,0,0,0,0,0,0,0,0,0,0,0,0,0,0,0,0,0,0,0,0,0,0,0,0,0,0,0,0,0,0,0,0,0,0,0,0,0,0,0,0,0,0,0,0,0,0,0,0,0,0,0,0,0,0,0,0,0,0,0,0,0,0,0,0,0,0,0,0,0,0,0,0,0,0,0,0,0,0,0,0,0,0,0,0,0,0,0,0,0,0,0,0,0,0,0,0,0,0,0,0,0,0,0,0,0,0,0,0,0,0,0,0,0,0,0,0,0,0,0,0,0,0,0,0,0,0,0,0,0,0,0,0,0,0,0,0,0,0,0,0,0,0,0,0,0,0,0,0,0,0,0,0,0,0,0,0,0,0,0,0,0,0,0,0,0,0,0,0,0,0,0,0,0,0,0,0,0,0,0,0,0,0,0,0,0,0,0,0,0,0,0,0,0,0,0,0,0,0,0,0,0,0,0,0,0,0,0,0,0,0,0,0,0,0,0,0,0,0,0,0,0,0,0,0,0,0,0,0,0,0,0,0,0,0,0,0,0,0,0,0,0,0,0,0,0,0,0,0,0,0,0,0,0,0,0,0,0,0,0,0,0,0,0,0,0,0,0,0,0,0,0,0,0,0,0,0,0,0,0,0,0,0,0,0,0,0,0,0,0,0,0,0,0,0,0,0,0,0,0,0,0,0,0,0,0,0,0,0,0,0,0,0,0,0,0,0,0,0,0,0,0,0,0,0,0,0,0,0,0,0,0,0,0,0,0,0,0,0,0,0,0,0,0,0,0,0,0,0,0,0,0,0,0,0,0,0,0,0,0,0,0,0,0,0,0,0,0,0,0,0,0,0,0,0,0,0,0,0,0,0,0,0,0,0,0,0,0,0,0,0,0,0,0,0,0,0,0,0,0,0,0,0,0,0,0,0,0,0,0,0,0,0,0,0,0,0,0,0,0,0,0,0,0,0,0,0,0,0,0,0,0,0,0,0,0,0,0,0,0,0,0,0,0,0,0,0,0,0,0,0,0,0,0,0,0,0,0,0,0,0,0,0,0,0,0,0,0,0,0,0,0,0,0,0,0,0,0,0,0,0,0,0,0,0,0,0,0,0,0,0,0,0,0,0,0,0,0,0,0,0,0,0,0,0,0,0,0,0,0,0,0,0,0,0,0,0],"sum_hessian":[5.6534E4,5.627925E4,2.5475E2,2.1132E4,3.514725E4,5.3615E3,1.57705E4,8.992E3,2.615525E4,6.97E2,4.6645E3,3.44975E3,1.232075E4,5.881E3,3.111E3,2.514125E4,1.014E3,1.71E2,5.26E2,6.415E2,4.023E3,2.52525E3,9.245E2,9.71675E3,2.604E3,1.10225E3,4.77875E3,3.865E2,2.7245E3,9.5405E3,1.560075E4,2.615E2,7.525E2,1.7E2,1E0,3.3325E2,1.9275E2,9.375E1,5.4775E2,3.6235E3,3.995E2,1E1,2.51525E3,6.8675E2,2.3775E2,2.04975E3,7.667E3,1.948E3,6.56E2,3.95275E3,8.26E2,1.8375E2,2.0275E2,2.1575E2,2.50875E3,9.49025E3,5.025E1,7.43375E3,8.167E3,1.0625E2,1.5525E2,4.9325E2,2.5925E2,1E0,1.69E2,7.675E1,2.565E2,1.9E2,2.75E0,2.35E1,7.025E1,4.7275E2,7.5E1,3.7525E2,3.24825E3,3.1825E2,8.125E1,9E0,1E0,8.405E2,1.67475E3,6.7325E2,1.35E1,2.2675E2,1.1E1,1.83275E3,2.17E2,7.0825E3,5.845E2,1.4275E3,5.205E2,6.55E2,1E0,3.94075E3,1.2E1,8.25E2,1E0,8.55E1,9.825E1,1.34E2,6.875E1,2.1425E2,1.5E0,2.38E3,1.2875E2,5.68475E3,3.8055E3,1.25E0,4.9E1,7.432E3,1.75E0,8.1555E3,1.15E1,4.1E1,6.525E1,1.45E2,1.025E1,8.425E1,4.09E2,2.5825E2,1E0,1.68E2,1E0,3.575E1,4.1E1,2.455E2,1.1E1,1.75E0,1.8825E2,1.25E0,1.5E0,2.1E1,2.5E0,5.25E0,6.5E1,7.775E1,3.95E2,1.125E1,6.375E1,3.2675E2,4.85E1,6.63E2,2.58525E3,4.825E1,2.7E2,1E0,8.025E1,3.25E0,5.75E0,8.3475E2,5.75E0,1.265E3,4.0975E2,1.245E2,5.4875E2,2E0,1.15E1,1E0,2.2575E2,1E0,1E1,1.78075E3,5.2E1,3.425E1,1.8275E2,4.41725E3,2.66525E3,3.26E2,2.585E2,1.4255E3,2E0,2.65E1,4.94E2,6.49E2,6E0,7.8175E2,3.159E3,8.5E0,3.5E0,8.24E2,1E0,8.35E1,2E0,1.5E0,9.675E1,1.0375E2,3.025E1,4.025E1,2.85E1,7.865E2,1.5935E3,1.275E2,1.25E0,4.73975E3,9.45E2,6.135E2,3.192E3,4.2E1,7E0,1.5225E2,7.27975E3,8.146E3,9.5E0,2.25E0,9.25E0,3.925E1,1.75E0,4.45E1,2.075E1,1.145E2,3.05E1,6.75E0,3.5E0,8.025E1,4E0,2.1675E2,1.9225E2,2.5725E2,1E0,1.67E2,1E0,1.5E0,3.425E1,4E0,3.7E1,1.5075E2,9.475E1,8.25E0,2.75E0,5.25E1,1.3575E2,1E0,1.5E0,2.75E0,2.5E0,8.5E0,5.65E1,4.375E1,3.4E1,4.05E1,3.545E2,9.5E0,1.75E0,4E1,2.375E1,4.55E1,2.8125E2,8.25E0,4.025E1,1.67E2,4.96E2,2.074E3,5.1125E2,1.7E1,3.125E1,8.5E0,2.615E2,6.8E1,1.225E1,1E0,2.25E0,7.69E2,6.575E1,1.25E0,4.5E0,8.815E2,3.835E2,4.06E2,3.75E0,3.5E0,1.21E2,5.3825E2,1.05E1,1E0,1E0,2.25E0,9.25E0,3.75E0,2.22E2,1.75E0,8.25E0,1.02925E3,7.515E2,5.1E1,1E0,2.2E1,1.225E1,1E0,1.8175E2,3.48075E3,9.365E2,2.65975E3,5.5E0,3.2475E2,1.25E0,1.075E2,1.51E2,1.1115E3,3.14E2,1E0,1E0,3.5E0,2.3E1,4.915E2,2.5E0,2.25E0,6.4675E2,1.25E0,4.75E0,7.6925E2,1.25E1,2.0515E3,1.1075E3,4.75E0,3.75E0,2.5E0,1E0,8.23E2,1E0,7.9E1,4.5E0,1E0,1E0,5.825E1,3.85E1,8.4E1,1.975E1,1.25E0,2.9E1,1.9E1,2.125E1,2.675E1,1.75E0,7.855E2,1E0,1.03175E3,5.6175E2,1.2475E2,2.75E0,1.0665E3,3.67325E3,4.5E0,6.09E2,5.2525E2,2.66675E3,1E0,4.1E1,5E0,2E0,2.175E1,1.305E2,7.275E3,4.75E0,5.7565E3,2.3895E3,3.25E0,6.25E0,1.25E0,1E0,7.75E0,1.5E0,1E0,3.825E1,1.975E1,2.475E1,1.875E1,2E0,1.0175E2,1.275E1,2.95E1,1E0,3E0,3.75E0,2.5E0,1E0,1E0,7.925E1,1.25E0,2.75E0,1.695E2,4.725E1,3.75E0,1.885E2,3.25E1,1.75E0,2.75E0,1.25E0,1.475E1,2.225E1,1.435E2,7.25E0,5.3E1,4.175E1,6.75E0,1.5E0,1.5E0,1.25E0,5.15E1,1E0,1.3475E2,1E0,1E0,1.75E0,1E0,1.5E0,1.225E1,4.425E1,3.5E0,4.025E1,1.2E1,2.2E1,3.5E1,5.5E0,3.5125E2,3.25E0,8.25E0,1.25E0,3.75E1,2.5E0,1.45E1,9.25E0,3.75E0,4.175E1,1.97E2,8.425E1,6.5E0,1.75E0,1E0,3.925E1,1.2675E2,4.025E1,4.145E2,8.15E1,1.12025E3,9.5375E2,3.25E0,5.08E2,4.75E0,1.225E1,3.25E0,2.8E1,7.5E0,1E0,2.4325E2,1.825E1,6.7E1,1E0,6.5E0,5.75E0,1.25E0,1E0,3.175E1,7.3725E2,2E0,6.375E1,1.25E0,3.25E0,8.805E2,1E0,3.735E2,1E1,2.25E0,4.0375E2,2E0,1.75E0,2.25E0,1.25E0,1.7E1,1.04E2,4.4775E2,9.05E1,4.5E0,6E0,1.25E0,1E0,4.5E0,4.75E0,1.25E0,2.5E0,1E0,2.21E2,3.25E0,1.026E3,1.8225E2,5.6925E2,1.975E1,2.25E0,9.25E0,3E0,7.475E1,1.07E2,4.755E2,3.00525E3,4.8225E2,4.5425E2,2.61525E3,4.45E1,2.25E0,3.25E0,1.53E2,1.7175E2,1.065E2,1E0,1.4925E2,1.75E0,6.335E2,4.78E2,1.2E1,3.02E2,2.5E0,1E0,1.225E1,1.075E1,1.5E0,4.9E2,1.25E0,1.25E0,1E0,1.25E0,6.4575E2,1E0,3.5E0,1.25E0,4.595E2,3.0975E2,9.75E0,2.75E0,1.92275E3,1.2875E2,1E0,1.1065E3,3.25E0,1.5E0,2E0,1.75E0,2.5E0,8.205E2,7E1,9E0,1E0,3.5E0,1.75E0,5.65E1,2.65E1,1.2E1,3.55E1,4.85E1,4.25E0,2.475E1,1.225E1,6.75E0,6E0,1.525E1,2.525E1,1.5E0,2.1125E2,5.7425E2,1.0185E3,1.325E1,5.6025E2,1.5E0,1.25E0,1.5E0,1.75E0,1.06475E3,1.175E1,3.6615E3,3.25E0,1.25E0,5.83E2,2.6E1,2.6655E3,1.25E0,1E0,4E1,3.5E0,1.5E0,2.025E1,1.5E0,9.5E0,1.21E2,7.25275E3,2.225E1,3E0,1.75E0,2.71775E3,3.03875E3,2.3885E3,1E0,1.5E0,1.75E0,1.25E0,6.5E0,6.5E0,1.325E1,2.3E1,1.75E0,1E0,1E0,6.65E1,3.525E1,8.75E0,4E0,6E0,2.35E1,1.25E0,1.75E0,1.75E0,1.6775E2,4.025E1,7E0,1.75E0,2E0,1.8225E2,6.25E0],"tree_param":{"num_deleted":"0","num_feature":"18","num_nodes":"615","size_leaf_vector":"0"}},{"base_weights":[-1.0241848E0,-8.4754425E-1,-1.1834843E0,-6.058234E-1,-9.256485E-1,-1.1980999E0,1.3597983E0,-8.7811106E-1,-5.2389145E-1,-9.316648E-1,1.3393649E0,-1.115044E0,-1.2291207E0,-1.0726244E0,-7.876996E-1,-2.6388276E-1,-5.688295E-1,-1.0848031E0,-8.9429873E-1,-1.1670012E0,-1.026411E0,-1.2423121E0,-1.0324367E0,-1.0798143E0,7.417105E-1,-1.055818E0,-7.119032E-1,-2.9951558E-1,3.083406E-1,-5.7326263E-1,1.2216469E0,-1.243669E0,-1.0425459E0,-8.197338E-1,-1.0300488E0,-1.3025473E0,-1.1439242E0,-1.286057E0,-1.0066798E0,-1.2742445E0,-1.2104204E0,-6.4085907E-1,-1.1058127E0,-9.7634E-1,-1.2301493E0,-1.1644189E0,-6.965462E-1,-5.9586936E-1,-9.5850986E-1,-6.12713E-1,-2.508879E-1,5.4789805E-1,-3.716366E-1,-1.371749E-1,-5.8869416E-1,-1.2781492E0,-1.1257678E0,-1.0898936E0,-9.197497E-1,-9.458496E-1,-7.761919E-1,-9.998217E-1,-1.2194546E0,-1.3040129E0,-3.0432928E-1,-1.1148442E0,-1.3012874E0,-2.2152542E-1,-1.2910987E0,-8.724353E-1,-1.0331429E0,-1.2126818E0,-1.2871624E0,-1.1570734E0,-1.2349629E0,-1.2236938E0,-5.355997E-1,-1.131019E0,-5.966824E-1,-1.0374651E0,-3.944961E-1,-1.2605995E0,-7.048495E-1,-1.1727161E0,-3.2584894E-1,-8.149782E-1,5.995584E-1,-7.470866E-1,-4.0046838E-1,-9.9262166E-1,2.1824691E-2,-2.6702908E-1,-8.9835346E-1,-1.1421205E-1,-3.8770562E-1,1.844405E-1,1.4094404E0,4.0152833E-1,-9.40324E-1,-4.2129233E-1,1.6441397E-1,-9.9493873E-1,-5.7358336E-1,-1.2815458E0,-1.8434925E-1,-1.1388816E0,-3.4589406E-2,-1.0555137E0,-1.265732E0,-9.6277314E-1,-7.687548E-1,-9.6516377E-1,-7.5555485E-1,-7.9666024E-1,-5.4445404E-1,-1.0387176E0,-9.036879E-1,-1.2253909E0,9.5606E-2,-3.3599395E-1,-1.3051957E0,-1.0330533E0,-1.1531532E0,-1.3028998E0,-2.012322E-1,-1.2962115E0,-3.0958796E-1,-7.421557E-1,-9.536447E-1,-9.6999544E-1,-1.0872092E0,-6.700792E-1,-1.2185477E0,-1.2670668E0,-1.326024E0,-1.1363475E0,-1.2918409E0,-1.2382486E0,-9.4863826E-1,-6.0740757E-1,-1.3153632E0,-1.2793052E0,-4.7215256E-1,-1.0454714E0,-1.2820858E0,1.5860662E-2,-6.959972E-1,-1.0931556E0,-7.609427E-1,1.2993485E-1,-7.6982564E-1,-2.8758347E-1,-1.2657305E0,-2.1620043E-2,-1.0066594E0,-2.3133439E-1,-1.1779573E0,-4.6553636E-1,-1.0883958E0,-7.902287E-1,1.3786349E0,-8.5507977E-1,-5.683218E-1,-4.310038E-1,8.095688E-1,-1.0151639E0,-2.7153212E-1,7.3155767E-1,-8.551797E-1,-4.2309603E-1,3.892217E-1,-5.594354E-1,-1.1842468E0,-5.784833E-1,1.9058192E-2,-3.4957412E-1,-9.62483E-1,3.8968223E-1,-7.0161617E-1,-5.6326896E-1,1.3089875E0,-1.2810168E0,-1.6506623E-2,-2.660758E-2,-7.880618E-1,-7.610003E-1,2.810781E-1,-1.1151551E0,-6.7377025E-1,-6.709506E-1,-5.1048326E-1,-3.1719297E-1,-1.2831714E0,-9.7230095E-1,-1.240395E0,-1.0921886E0,-1.0044972E0,-1.2759842E0,-1.3473266E-1,-7.907571E-1,-1.004638E0,-4.338909E-1,-8.6895263E-1,-9.51644E-1,-1.2151052E0,1.1659404E0,-7.707923E-1,-7.864355E-1,-1.13508E0,-4.6199968E-1,-8.081017E-1,-9.9921834E-1,-1.2107162E0,-9.2244875E-1,-5.5272985E-1,-7.013498E-2,-1.2279097E0,-8.9526165E-1,8.370896E-1,-1.0488255E0,-5.556704E-1,2.6126143E-1,-1.1539756E0,-1.306081E0,-6.52008E-1,-1.2913103E-1,-8.41727E-1,-1.0821109E0,-8.0127704E-1,-9.764339E-1,-3.4969813E-1,-1.0969039E0,-4.354814E-1,-1.0113376E0,-2.0043242E-1,-1.2209477E0,-3.6324042E-1,-1.2674721E0,2.976589E-1,-1.3291463E0,-8.9358544E-1,-1.1370769E0,2.6464102E-1,-1.2969314E0,-3.5955706E-1,-2.7295223E-1,-1.239434E0,8.007857E-2,-1.1264713E0,2.5362906E-1,-8.7201697E-1,-2.9598087E-1,-1.3515595E0,-1.9395985E-1,-1.3624458E0,-4.1062984E-1,-1.2665404E0,-1.2922919E0,-9.956709E-1,-1.3027558E0,-6.739144E-1,-5.4075056E-1,9.0396297E-1,-4.5793158E-1,-1.0673193E0,-5.9372336E-1,-1.1192651E0,-3.0767593E-1,-1.0308559E0,-3.2689086E-1,7.480532E-1,-9.9672264E-1,8.486008E-1,-1.3500592E0,-1.1276478E0,8.248068E-1,-6.471058E-1,-2.823233E-1,-1.0826259E0,-7.795024E-1,-1.2026902E0,-6.345078E-1,4.8161995E-1,-1.1163371E0,-2.5253516E-1,-5.8427024E-1,-9.5601636E-1,-1.443517E-1,-6.6751283E-1,-7.2373635E-1,-3.0546013E-1,-3.20646E-2,1.4368062E0,-8.78718E-1,-1.1110661E0,8.972691E-1,-7.0237833E-1,-3.3309527E-2,1.5622411E0,-2.4146858E-1,-9.835381E-1,-1.7770542E-1,-9.152523E-1,1.2233866E0,-1.3356203E-1,-7.3861694E-1,6.316919E-1,-1.2805932E0,1.8395016E-1,-1.2049941E0,-4.094167E-1,-4.916889E-1,7.9991736E-2,-4.20525E-1,-3.7493296E-2,-3.501121E-1,-1.2303516E0,6.04393E-1,-7.881152E-1,2.0263143E-1,-1.334278E0,-2.904953E-1,4.4168165E-1,4.6541256E-1,-8.460869E-1,1.2252339E-1,-9.4836426E-1,-4.5327172E-1,4.085983E-1,1.03139535E-1,-1.1321297E0,-3.477249E-1,-1.1538925E0,-7.035128E-1,-3.2529575E-1,-4.180407E-1,-6.6498053E-1,-1.2847719E0,-4.0351862E-1,-1.0287888E0,1.816053E-1,-1.254404E0,-3.7173587E-1,-1.102361E0,-5.48128E-1,-6.437747E-1,-1.0259652E0,-3.2546857E-1,-1.2805858E0,4.415812E-1,-8.1178695E-1,-8.494986E-1,2.0125763E-1,-1.0152762E0,-4.1679627E-1,-5.434297E-1,8.393844E-1,-1.0156313E0,-5.7667184E-1,-9.900723E-1,-8.5835296E-1,-6.1256224E-1,-1.2368717E0,-6.549927E-1,-9.713963E-1,-6.814441E-1,-8.194606E-1,-7.875617E-1,-1.186245E0,-1.9744578E-1,-5.3283507E-1,-4.3443337E-1,-9.109563E-1,-9.337038E-1,-1.0737547E0,-1.2139257E0,1.2764274E-1,-8.7859267E-1,-1.0427439E0,-8.225349E-1,2.3409168E-1,-2.2093898E-2,-1.2299331E0,-1.058529E0,-5.310732E-1,-1.6461617E-1,-9.679227E-1,-1.1832068E0,-1.0989965E0,-4.9765533E-1,-1.3110628E0,-2.6018891E-2,-1.0487801E0,-6.740442E-1,2.24405E-1,1.5276702E-1,-8.808336E-1,-1.1404176E0,-6.781834E-1,-8.5417706E-1,-7.9073064E-2,-1.0787832E0,-9.412759E-1,-9.933282E-1,1.4843373E-1,-1.1003944E0,-2.2849524E-1,-8.331972E-1,1.855397E-1,-3.5940632E-1,-1.2472172E0,3.7735146E-1,-9.0970397E-1,-1.2057451E0,-1.3392761E0,-9.066655E-1,6.4255834E-1,-1.2696394E0,-8.363294E-1,-1.3295493E0,-1.9485912E-1,1.2200174E-1,-1.0048816E0,1.9616144E-2,-1.1380302E0,-2.3113337E-1,-1.2994336E0,3.4782183E-1,-9.099866E-1,-9.23888E-1,5.623473E-1,-1.2165704E0,-1.2729666E0,9.3843967E-1,-4.1696215E-1,-1.7517066E-1,-1.1932716E0,-2.465097E-1,-9.962917E-1,-4.438634E-1,1.7070339E0,-2.0403826E-1,-1.3017484E0,-9.1869E-1,-1.1894318E0,-3.3627722E-1,-1.3050811E0,2.666384E-1,-9.683359E-1,-9.698849E-1,-5.4632563E-2,1.2457327E0,1.2446793E-1,-6.3167346E-1,7.253598E-1,-1.2758405E0,-1.2105266E-1,-9.565757E-1,8.37073E-1,-2.90853E-1,-1.128771E0,-8.7102026E-1,-1.4449978E-2,-1.120959E0,-5.8000833E-3,3.1892315E-1,-7.302918E-1,1.7449045E0,-2.1669506E-1,-1.2351706E0,-2.9549715E-1,-3.931332E-1,-1.2526735E0,-1.1798877E0,-3.0963618E-1,-9.1047955E-1,2.503695E-1,-1.9838344E-1,-1.2144985E0,-1.262883E-2,-9.5106274E-1,-3.782813E-1,1.0114913E0,-8.2111776E-1,-1.412349E-1,-9.721556E-1,-6.327041E-2,-3.807554E-1,1.1843203E0,-7.007603E-1,5.750423E-1,5.0648624E-1,-7.987625E-1,1.4598612E-1,-4.6469933E-1,5.4650176E-1,-5.9738505E-1,-1.0670329E0,-6.222114E-1,-1.1588844E0,-1.9895992E-1,-9.907523E-1,3.2774422E-1,6.6553634E-1,-8.45664E-1,6.464698E-1,-5.084279E-1,-2.541995E-1,-1.2966212E0,-9.505718E-1,4.2802635E-1,-8.703385E-1,5.1452345E-1,9.3808293E-1,3.537558E-2,-7.694328E-1,-1.412882E0,-6.4923526E-3,-1.3702258E0,-5.359709E-1,3.2183564E-1,-7.857517E-2,-9.0140575E-1,6.298198E-1,1.2184658E-2,-3.652782E-1,-8.74209E-1,-2.0918047E-1,6.013821E-1,3.755761E-1,-1.0243375E0,7.841249E-1,-3.7184328E-1,-8.1657887E-1,1.107553E-1,-5.143443E-1,9.197463E-1,-5.1719743E-1,-1.0846413E0,-2.7728164E-1,-1.1726322E0,-9.057272E-1,5.830896E-1,9.286355E-1,1.0612937E-1,-1.2538527E0,-8.654073E-1,-4.9826634E-1,1.1834488E0,-1.3295976E0,-2.8760865E-1,-3.3146614E-1,-7.3553807E-1,-1.1029598E0,-2.4202321E-1,-6.177653E-2,-4.64306E-1,-5.085214E-1,-7.969138E-1,-3.939771E-1,-1.0983162E0,9.1392905E-1,-7.8740656E-1,-2.228965E-1,-1.263211E0,-9.673948E-1,-1.1330817E0,-9.4578844E-1,-3.0428534E-2,-7.5401443E-1,1.1101731E-1,-9.646204E-1,-1.144782E0,-1.2835301E0,-2.0514551E-1,-7.4159825E-1,-1.1421565E0,6.63208E-1,-6.9535834E-1,1.973095E-1,-1.0186505E0,8.945844E-1,-6.946586E-1,-2.2138087E-1,-7.1096194E-1,-2.9744217E-1,1.4447387E0,-1.052212E0,3.3703026E-1,-8.023721E-1,-7.526218E-2,-1.0054774E0,-7.134471E-1,-6.982861E-1,-9.475533E-1,-1.0259092E0,1.3429588E-1,-1.2818257E0,-8.280487E-1,-7.083358E-1,7.780651E-2,-1.017649E0,8.816055E-2,-7.513356E-1,-5.423382E-1,-8.658518E-1,-7.6780504E-1,6.0640603E-1,-9.9977016E-1,-3.438899E-1,-1.2016706E0,5.4523826E-1,-2.9060674E-1,-5.6179166E-1,1.5659747E-1,-6.1250937E-1,9.203695E-1,-1.6050119E-2,-9.345791E-1,-9.849305E-1,-8.369265E-1,-1.0819246E0,-6.8443775E-1,-2.9367678E-2,-1.2174206E0,-8.938206E-1,-4.416294E-1,-1.0533874E0,4.0396905E-1,4.241909E-1,-8.8697785E-1,5.104191E-1,-7.0542544E-1,-1.0000103E0,-1.2445716E0,-7.035478E-1,-1.0692927E0,-1.9460596E-1,-8.5242826E-1,2.596132E-1,-8.283488E-1,-1.0678781E0,2.5767112E-1,-1.0310898E0,-1.2034976E0,-7.2740144E-1,-1.1089115E0,-6.837534E-1,-1.3204035E0,-1.09177865E-1,-1.2377065E0,-7.6940745E-2,1.3571061E0,7.8071105E-1,-6.585179E-1,-9.1347754E-1,-8.30932E-2,-1.1676573E0,-4.9248365E-1,7.0562667E-1,-8.038636E-1,-8.854219E-1,1.5483989E-1,3.9328608E-1,-8.0788594E-1,-1.0949286E0,-4.2644513E-1,-7.984352E-1,-9.876226E-1,-8.852179E-1,5.9201E-1,-9.6951836E-1,-1.125924E0,1.2205019E0,-8.614398E-1,5.6566757E-1,-1.0570561E0,8.42756E-1,-6.388578E-1,-8.641075E-1,3.1110498E-1,-7.8561586E-1,8.354976E-1,-2.4745321E-1,-1.0475545E0,-1.2383235E0,-1.1607527E0,-1.3489043E0,-1.3866346E-1,-1.2491136E0,-1.3100345E0,4.2620704E-2,-9.397879E-1,-1.094561E0,1.2707204E-1,-1.0465926E0,-1.1549826E0,-1.3019991E0,-3.0587503E-1,-2.098637E-1,-1.0516022E0,1.7561603E0,-3.5507533E-1,-7.0002574E-1,-1.2189064E0,-1.273692E0,-1.12386726E-1,1.5048978E0,-3.1306145E-1,-7.706793E-1,6.679168E-1,6.3007617E-1,-9.357008E-1,-1.2252809E0,1.3348755E-1,1.1444032E0,-4.664444E-1,-1.311328E0,-2.1194436E-1,-9.24836E-1,3.3010855E-1,-1.2281734E0,-6.34786E-1,-1.3075433E0,-4.674997E-1,-7.6659644E-1,1.0369325E0,8.174712E-2,-1.1300056E0,9.020171E-1,-9.0550965E-1,-8.1063753E-1,-1.6953878E-1,-7.627514E-1,1.6845962E0,-1.3275164E0,-3.8785583E-1,6.302973E-1,-6.4422286E-1],"categories":[],"categories_nodes":[],"categories_segments":[],"categories_sizes":[],"default_left":[true,true,true,true,true,true,false,true,true,true,false,true,true,true,true,true,true,true,true,true,true,true,true,true,false,true,true,true,true,true,false,true,true,true,true,true,true,true,true,true,true,true,true,true,true,true,true,true,true,true,true,true,true,true,true,true,true,true,true,true,true,true,true,true,false,true,true,false,true,true,true,true,true,true,true,true,true,true,true,true,true,true,true,true,false,true,true,true,true,true,true,true,true,true,true,true,false,true,true,true,true,true,true,true,false,true,false,true,true,true,true,true,true,true,true,true,true,true,true,false,false,true,true,false,false,true,false,true,true,true,true,true,true,true,true,true,true,true,true,true,true,true,true,true,true,true,true,true,true,true,true,false,true,true,true,false,true,true,true,false,false,true,true,true,true,true,true,true,true,true,true,true,true,true,true,true,true,true,true,false,false,false,false,true,true,true,true,true,true,true,true,false,true,true,true,true,true,true,true,true,true,true,true,true,true,false,true,true,true,true,true,true,true,true,true,false,true,false,false,true,true,false,true,true,true,true,true,true,true,true,true,true,true,true,true,true,true,true,false,true,true,true,false,true,true,true,true,true,true,false,true,false,false,false,false,true,false,true,true,true,true,true,true,true,true,true,true,true,true,true,true,true,false,false,true,false,false,false,true,true,true,true,true,false,false,true,true,true,true,true,true,true,false,true,true,false,true,true,false,false,false,true,true,false,true,true,true,true,false,true,true,true,true,true,true,true,false,true,false,false,false,true,true,false,true,false,true,true,true,false,true,true,true,true,true,true,true,false,false,true,true,true,false,true,true,true,true,false,true,false,false,true,true,true,true,true,true,true,true,true,true,true,true,true,true,true,true,true,true,true,true,true,true,true,true,true,false,true,true,true,true,false,true,true,true,true,true,true,true,false,true,false,false,true,true,true,true,true,true,true,true,true,true,false,true,true,true,true,true,true,false,true,true,true,true,false,false,true,true,false,false,false,true,false,true,false,true,false,false,true,true,true,true,true,true,true,true,false,false,true,false,false,true,true,true,false,true,true,true,false,true,false,false,true,true,true,true,false,false,false,false,false,false,false,false,false,false,false,false,false,false,false,false,false,false,false,false,false,false,false,false,false,false,false,false,false,false,false,false,false,false,false,false,false,false,false,false,false,false,false,false,false,false,false,false,false,false,false,false,false,false,false,false,false,false,false,false,false,false,false,false,false,false,false,false,false,false,false,false,false,false,false,false,false,false,false,false,false,false,false,false,false,false,false,false,false,false,false,false,false,false,false,false,false,false,false,false,false,false,false,false,false,false,false,false,false,false,false,false,false,false,false,false,false,false,false,false,false,false,false,false,false,false,false,false,false,false,false,false,false,false,false,false,false,false,false,false,false,false,false,false,false,false,false,false,false,false,false,false,false,false,false,false,false,false,false,false,false,false,false,false,false,false,false,false,false,false,false,false,false,false,false,false,false,false,false,false,false,false,false,false,false,false,false,false,false,false,false,false,false,false,false,false,false,false,false,false,false,false,false,false,false,false,false,false,false,false,false,false,false,false,false,false,false,false,false,false,false,false,false,false,false,false,false,false,false,false,false,false,false,false,false,false,false,false,false,false,false,false,false,false,false,false,false,false,false,false,false,false,false,false,false,false,false,false,false,false,false,false,false,false,false,false,false,false,false,false,false,false,false,false,false,false,false,false,false,false,false,false],"id":1,"left_children":[1,3,5,7,9,11,-1,13,15,17,-1,19,21,23,25,27,29,31,33,35,37,39,41,43,-1,45,47,49,51,53,-1,55,57,59,61,63,65,67,69,71,73,75,77,79,81,83,85,87,89,91,93,95,97,99,101,103,105,107,109,111,113,115,117,119,-1,121,123,-1,125,127,129,131,133,135,137,139,141,143,145,147,149,151,153,155,-1,157,159,161,163,165,167,169,171,173,175,177,-1,179,181,183,185,187,189,191,-1,193,-1,195,197,199,201,203,205,207,209,211,213,215,217,-1,-1,219,221,-1,-1,223,-1,225,227,229,231,233,235,237,239,241,243,245,247,249,251,253,255,257,259,261,263,265,267,269,271,-1,273,275,277,-1,279,281,283,-1,-1,285,287,289,291,293,295,297,299,301,303,305,307,309,311,313,315,317,319,-1,-1,-1,-1,321,323,325,327,329,331,333,335,-1,337,339,341,343,345,347,349,351,353,355,357,359,361,-1,363,365,367,369,371,373,375,377,379,-1,381,-1,-1,383,385,-1,387,389,391,393,395,397,399,401,403,405,407,409,411,413,415,417,-1,419,421,423,-1,425,427,429,431,433,435,-1,437,-1,-1,-1,-1,439,-1,441,443,445,447,449,451,453,455,457,459,461,463,465,467,469,-1,-1,471,-1,-1,-1,473,475,477,479,481,-1,-1,483,485,487,489,491,493,495,-1,497,499,-1,501,503,-1,-1,-1,505,507,-1,509,511,513,515,-1,517,519,521,523,525,527,529,-1,531,-1,-1,-1,533,535,-1,537,-1,539,541,543,-1,545,547,549,551,553,555,557,-1,-1,559,561,563,-1,565,567,569,571,-1,573,-1,-1,575,577,579,581,583,585,587,589,591,593,595,597,599,601,603,605,607,609,611,613,615,617,619,621,623,-1,625,627,629,631,-1,633,635,637,639,641,643,645,-1,647,-1,-1,649,651,653,655,657,659,661,663,665,667,-1,669,671,673,675,677,679,-1,681,683,685,687,-1,-1,689,691,-1,-1,-1,693,-1,695,-1,697,-1,-1,699,701,703,705,707,709,711,713,-1,-1,715,-1,-1,717,719,721,-1,723,725,727,-1,729,-1,-1,731,733,735,737,-1,-1,-1,-1,-1,-1,-1,-1,-1,-1,-1,-1,-1,-1,-1,-1,-1,-1,-1,-1,-1,-1,-1,-1,-1,-1,-1,-1,-1,-1,-1,-1,-1,-1,-1,-1,-1,-1,-1,-1,-1,-1,-1,-1,-1,-1,-1,-1,-1,-1,-1,-1,-1,-1,-1,-1,-1,-1,-1,-1,-1,-1,-1,-1,-1,-1,-1,-1,-1,-1,-1,-1,-1,-1,-1,-1,-1,-1,-1,-1,-1,-1,-1,-1,-1,-1,-1,-1,-1,-1,-1,-1,-1,-1,-1,-1,-1,-1,-1,-1,-1,-1,-1,-1,-1,-1,-1,-1,-1,-1,-1,-1,-1,-1,-1,-1,-1,-1,-1,-1,-1,-1,-1,-1,-1,-1,-1,-1,-1,-1,-1,-1,-1,-1,-1,-1,-1,-1,-1,-1,-1,-1,-1,-1,-1,-1,-1,-1,-1,-1,-1,-1,-1,-1,-1,-1,-1,-1,-1,-1,-1,-1,-1,-1,-1,-1,-1,-1,-1,-1,-1,-1,-1,-1,-1,-1,-1,-1,-1,-1,-1,-1,-1,-1,-1,-1,-1,-1,-1,-1,-1,-1,-1,-1,-1,-1,-1,-1,-1,-1,-1,-1,-1,-1,-1,-1,-1,-1,-1,-1,-1,-1,-1,-1,-1,-1,-1,-1,-1,-1,-1,-1,-1,-1,-1,-1,-1,-1,-1,-1,-1,-1,-1,-1,-1,-1,-1,-1,-1,-1,-1,-1,-1,-1,-1,-1,-1,-1,-1,-1,-1,-1,-1,-1,-1,-1,-1,-1,-1,-1,-1,-1,-1,-1,-1,-1,-1,-1,-1,-1,-1,-1,-1,-1,-1,-1,-1,-1,-1,-1,-1,-1],"loss_changes":[1.3415469E3,4.2664453E2,9.340742E2,1.2288403E2,2.3427344E2,6.2890625E1,0E0,2.161908E1,4.9537354E1,9.662402E1,0E0,3.0085938E1,4.580664E1,6.052307E0,1.7046753E1,1.2908047E1,2.9473633E1,2.1129883E1,1.3799023E2,1.1883789E1,1.1609619E1,1.57734375E1,3.2238403E1,5.0427856E0,0E0,6.639282E0,1.905426E1,8.865414E0,6.285659E0,2.4257812E1,0E0,1.3933105E0,1.4375488E1,4.7907227E1,2.6598633E1,5.025635E-1,1.5305176E1,6.4941406E-1,7.4313965E0,5.1816406E0,9.736328E0,1.0592354E1,1.1700928E1,8.218567E0,1.6674042E0,6.2771606E-1,7.6741943E0,1.3560059E1,7.305359E0,7.550276E0,9.572926E0,8.512331E0,4.9164867E0,1.0772491E1,2.0870483E1,1.7389526E0,2.336441E0,1.0171143E1,4.082947E0,7.609253E0,3.082544E1,1.475E1,5.302063E0,2.640381E-1,0E0,8.51416E0,7.4017334E-1,0E0,4.6820068E-1,3.4465942E0,5.616455E0,3.918457E0,3.7792969E0,6.081299E0,4.305664E0,7.415161E-1,6.8076363E0,1.0519897E1,2.9072475E0,2.5393982E0,4.957115E0,3.8372803E-1,2.2513332E0,4.3469238E-1,0E0,3.631876E0,5.9568663E0,4.5963745E0,7.9893074E0,3.146103E0,5.793406E0,3.9663289E0,3.482254E0,1.6017712E1,5.28743E0,4.0656724E0,0E0,5.1811953E0,1.9451103E0,9.330326E0,6.8332915E0,4.032318E0,2.0361694E1,4.2364502E-1,0E0,1.567749E0,0E0,1.8931885E0,3.3794556E0,3.3380127E0,5.313385E0,5.791626E0,7.1543045E0,2.0052979E1,1.1322159E1,1.9038818E1,7.498535E0,1.8379517E0,3.6238012E0,0E0,0E0,6.928711E0,2.7453613E0,0E0,0E0,2.4230957E-1,0E0,9.370018E0,3.798935E0,3.294983E0,6.1209717E0,2.7033625E0,2.5749512E0,3.3129883E0,2.0004883E0,2.703125E0,1.2087402E0,6.248047E0,1.2963375E1,1.4489267E0,4.4415283E-1,7.9709625E-1,6.6305885E0,5.9820557E0,3.237671E0,4.2554636E0,3.1345577E0,1.6817017E0,4.5751286E0,3.3927104E0,6.180359E0,0E0,2.0898438E-1,2.8629386E0,1.13861084E-1,0E0,4.6481323E-1,3.6283774E0,2.681923E-1,0E0,0E0,3.8733063E0,4.1984444E0,7.2152405E0,2.916361E0,1.6899567E0,4.5310698E0,3.3100603E0,9.136605E-2,3.516787E0,3.5004628E0,5.0485177E0,3.1761951E0,5.6215363E0,6.3249674E0,5.3472233E0,2.0943308E0,4.9205937E0,2.7182844E0,0E0,0E0,0E0,0E0,4.10133E0,2.8266163E0,1.2971292E0,5.3523264E0,1.9495697E0,5.2767906E0,1.46501465E1,2.898523E1,0E0,2.2583008E-1,4.536854E0,7.2984314E-1,4.4782715E0,4.6121216E0,9.1030884E-1,1.8683048E0,6.9899826E0,2.4398193E0,6.1824408E0,4.967865E0,6.159668E0,5.787811E-1,0E0,4.3019257E0,1.9825928E1,2.1821442E0,7.618637E0,4.479027E0,1.0861572E1,2.5256348E0,5.1671143E0,1.3824457E1,0E0,1.5825195E0,0E0,0E0,4.2839355E0,5.327263E0,0E0,2.074463E0,2.6000977E-2,1.1135029E0,4.5589366E0,5.3229675E0,2.205368E0,4.2456512E0,2.2254028E0,3.6459262E0,2.8657227E0,4.3449936E0,1.1286268E0,3.981478E0,1.0222168E0,3.6096041E0,3.2641602E0,0E0,8.120117E-1,2.3808432E0,2.6135254E0,0E0,6.3482666E-1,1.6015266E0,5.055665E0,2.8583984E0,5.214548E0,3.6078262E0,0E0,9.234023E-2,0E0,0E0,0E0,0E0,1.0418715E1,0E0,7.2158813E-1,6.3118896E0,2.703247E-1,3.8118849E0,1.0546792E0,7.2675204E-1,5.9529376E0,2.8568363E0,6.547251E0,1.0092926E0,2.6882882E0,2.2690926E0,2.0843997E0,5.2272253E0,1.8422337E0,0E0,0E0,5.2421646E0,0E0,0E0,0E0,1.2692356E-1,1.7330914E0,1.3260651E0,3.5413437E0,2.0737946E0,0E0,0E0,4.7732716E0,1.6176147E0,6.9336786E0,3.810646E0,5.942726E0,1.0372406E1,1.4058014E0,0E0,3.6295242E0,4.823349E0,0E0,2.172686E0,2.6342785E0,0E0,0E0,0E0,6.208292E0,2.1651192E0,0E0,2.9788952E0,3.60421E0,5.7818747E-1,3.3060837E-1,0E0,2.3186493E0,4.519849E0,3.5965605E0,6.751699E0,4.6244545E0,5.1672864E0,3.3606155E0,0E0,2.999001E0,0E0,0E0,0E0,4.5584455E0,5.95039E0,0E0,1.9750938E0,0E0,5.7787514E-1,4.5785875E0,7.3792486E0,0E0,1.7554474E0,5.8989735E0,1.7848206E0,1.4140808E1,7.2237625E0,2.1145096E1,1.5392914E1,0E0,0E0,2.3819962E0,3.5329635E0,5.933838E-1,0E0,2.6375732E0,3.8506312E0,3.4893608E0,3.5673218E0,0E0,6.9174194E-1,0E0,0E0,2.6476822E0,3.5056157E0,2.0381165E0,4.204874E0,1.9150372E0,2.938336E0,4.5575943E0,5.100046E0,5.156128E0,7.590149E0,1.8461552E0,7.279968E-1,5.443569E0,3.801094E0,1.3326904E1,1.0040283E1,8.140058E0,1.5462036E0,6.2913E0,6.5666428E0,7.6298323E0,2.0683212E0,5.6240234E0,2.8531494E0,2.2438965E0,0E0,5.2702637E0,5.086731E0,4.235817E0,4.8190017E0,0E0,9.7210693E-1,2.8615723E0,1.9698353E0,5.472216E0,2.2796612E0,2.9503174E0,1.9306641E0,0E0,7.461548E-2,0E0,0E0,2.8109064E0,5.097056E0,3.5196803E0,3.27063E0,1.349762E0,3.7710247E0,3.4502258E0,3.3496847E0,1.886261E0,3.701233E0,0E0,3.7432997E0,2.329956E0,5.9846897E0,3.8936787E0,4.5701914E0,1.666204E0,0E0,3.6397018E0,1.3138294E-1,4.814453E-1,1.6379395E0,0E0,0E0,2.1811523E0,2.4121704E0,0E0,0E0,0E0,1.9779015E0,0E0,2.430664E0,0E0,4.928589E-1,0E0,0E0,2.4138403E-1,5.306243E0,3.2983398E0,1.8010254E0,3.6282218E0,3.527812E0,3.7208166E0,2.5396805E0,0E0,0E0,5.4094944E0,0E0,0E0,7.129669E-1,3.0657349E0,2.180481E0,0E0,3.717041E-2,3.8539371E0,1.7882481E0,0E0,3.7058628E0,0E0,0E0,1.8342419E0,6.8339524E0,5.4143906E-2,1.9235711E0,0E0,0E0,0E0,0E0,0E0,0E0,0E0,0E0,0E0,0E0,0E0,0E0,0E0,0E0,0E0,0E0,0E0,0E0,0E0,0E0,0E0,0E0,0E0,0E0,0E0,0E0,0E0,0E0,0E0,0E0,0E0,0E0,0E0,0E0,0E0,0E0,0E0,0E0,0E0,0E0,0E0,0E0,0E0,0E0,0E0,0E0,0E0,0E0,0E0,0E0,0E0,0E0,0E0,0E0,0E0,0E0,0E0,0E0,0E0,0E0,0E0,0E0,0E0,0E0,0E0,0E0,0E0,0E0,0E0,0E0,0E0,0E0,0E0,0E0,0E0,0E0,0E0,0E0,0E0,0E0,0E0,0E0,0E0,0E0,0E0,0E0,0E0,0E0,0E0,0E0,0E0,0E0,0E0,0E0,0E0,0E0,0E0,0E0,0E0,0E0,0E0,0E0,0E0,0E0,0E0,0E0,0E0,0E0,0E0,0E0,0E0,0E0,0E0,0E0,0E0,0E0,0E0,0E0,0E0,0E0,0E0,0E0,0E0,0E0,0E0,0E0,0E0,0E0,0E0,0E0,0E0,0E0,0E0,0E0,0E0,0E0,0E0,0E0,0E0,0E0,0E0,0E0,0E0,0E0,0E0,0E0,0E0,0E0,0E0,0E0,0E0,0E0,0E0,0E0,0E0,0E0,0E0,0E0,0E0,0E0,0E0,0E0,0E0,0E0,0E0,0E0,0E0,0E0,0E0,0E0,0E0,0E0,0E0,0E0,0E0,0E0,0E0,0E0,0E0,0E0,0E0,0E0,0E0,0E0,0E0,0E0,0E0,0E0,0E0,0E0,0E0,0E0,0E0,0E0,0E0,0E0,0E0,0E0,0E0,0E0,0E0,0E0,0E0,0E0,0E0,0E0,0E0,0E0,0E0,0E0,0E0,0E0,0E0,0E0,0E0,0E0,0E0,0E0,0E0,0E0,0E0,0E0,0E0,0E0,0E0,0E0,0E0,0E0,0E0,0E0,0E0,0E0,0E0,0E0,0E0,0E0,0E0,0E0,0E0,0E0,0E0,0E0,0E0,0E0,0E0,0E0,0E0,0E0,0E0,0E0,0E0,0E0,0E0,0E0,0E0,0E0,0E0,0E0,0E0,0E0,0E0,0E0,0E0,0E0,0E0,0E0,0E0,0E0,0E0,0E0,0E0,0E0,0E0,0E0,0E0,0E0,0E0,0E0,0E0,0E0,0E0,0E0],"parents":[2147483647,0,0,1,1,2,2,3,3,4,4,5,5,7,7,8,8,9,9,11,11,12,12,13,13,14,14,15,15,16,16,17,17,18,18,19,19,20,20,21,21,22,22,23,23,25,25,26,26,27,27,28,28,29,29,31,31,32,32,33,33,34,34,35,35,36,36,37,37,38,38,39,39,40,40,41,41,42,42,43,43,44,44,45,45,46,46,47,47,48,48,49,49,50,50,51,51,52,52,53,53,54,54,55,55,56,56,57,57,58,58,59,59,60,60,61,61,62,62,63,63,65,65,66,66,68,68,69,69,70,70,71,71,72,72,73,73,74,74,75,75,76,76,77,77,78,78,79,79,80,80,81,81,82,82,83,83,85,85,86,86,87,87,88,88,89,89,90,90,91,91,92,92,93,93,94,94,95,95,97,97,98,98,99,99,100,100,101,101,102,102,103,103,105,105,107,107,108,108,109,109,110,110,111,111,112,112,113,113,114,114,115,115,116,116,117,117,118,118,121,121,122,122,125,125,127,127,128,128,129,129,130,130,131,131,132,132,133,133,134,134,135,135,136,136,137,137,138,138,139,139,140,140,141,141,142,142,143,143,144,144,145,145,146,146,147,147,148,148,149,149,150,150,152,152,153,153,154,154,156,156,157,157,158,158,161,161,162,162,163,163,164,164,165,165,166,166,167,167,168,168,169,169,170,170,171,171,172,172,173,173,174,174,175,175,176,176,177,177,178,178,183,183,184,184,185,185,186,186,187,187,188,188,189,189,190,190,192,192,193,193,194,194,195,195,196,196,197,197,198,198,199,199,200,200,201,201,202,202,203,203,204,204,206,206,207,207,208,208,209,209,210,210,211,211,212,212,213,213,214,214,216,216,219,219,220,220,222,222,223,223,224,224,225,225,226,226,227,227,228,228,229,229,230,230,231,231,232,232,233,233,234,234,235,235,236,236,237,237,239,239,240,240,241,241,243,243,244,244,245,245,246,246,247,247,248,248,250,250,255,255,257,257,258,258,259,259,260,260,261,261,262,262,263,263,264,264,265,265,266,266,267,267,268,268,269,269,270,270,271,271,274,274,278,278,279,279,280,280,281,281,282,282,285,285,286,286,287,287,288,288,289,289,290,290,291,291,293,293,294,294,296,296,297,297,301,301,302,302,304,304,305,305,306,306,307,307,309,309,310,310,311,311,312,312,313,313,314,314,315,315,317,317,321,321,322,322,324,324,326,326,327,327,328,328,330,330,331,331,332,332,333,333,334,334,335,335,336,336,339,339,340,340,341,341,343,343,344,344,345,345,346,346,348,348,351,351,352,352,353,353,354,354,355,355,356,356,357,357,358,358,359,359,360,360,361,361,362,362,363,363,364,364,365,365,366,366,367,367,368,368,369,369,370,370,371,371,372,372,373,373,374,374,375,375,377,377,378,378,379,379,380,380,382,382,383,383,384,384,385,385,386,386,387,387,388,388,390,390,393,393,394,394,395,395,396,396,397,397,398,398,399,399,400,400,401,401,402,402,404,404,405,405,406,406,407,407,408,408,409,409,411,411,412,412,413,413,414,414,417,417,418,418,422,422,424,424,426,426,429,429,430,430,431,431,432,432,433,433,434,434,435,435,436,436,439,439,442,442,443,443,444,444,446,446,447,447,448,448,450,450,453,453,454,454,455,455,456,456],"right_children":[2,4,6,8,10,12,-1,14,16,18,-1,20,22,24,26,28,30,32,34,36,38,40,42,44,-1,46,48,50,52,54,-1,56,58,60,62,64,66,68,70,72,74,76,78,80,82,84,86,88,90,92,94,96,98,100,102,104,106,108,110,112,114,116,118,120,-1,122,124,-1,126,128,130,132,134,136,138,140,142,144,146,148,150,152,154,156,-1,158,160,162,164,166,168,170,172,174,176,178,-1,180,182,184,186,188,190,192,-1,194,-1,196,198,200,202,204,206,208,210,212,214,216,218,-1,-1,220,222,-1,-1,224,-1,226,228,230,232,234,236,238,240,242,244,246,248,250,252,254,256,258,260,262,264,266,268,270,272,-1,274,276,278,-1,280,282,284,-1,-1,286,288,290,292,294,296,298,300,302,304,306,308,310,312,314,316,318,320,-1,-1,-1,-1,322,324,326,328,330,332,334,336,-1,338,340,342,344,346,348,350,352,354,356,358,360,362,-1,364,366,368,370,372,374,376,378,380,-1,382,-1,-1,384,386,-1,388,390,392,394,396,398,400,402,404,406,408,410,412,414,416,418,-1,420,422,424,-1,426,428,430,432,434,436,-1,438,-1,-1,-1,-1,440,-1,442,444,446,448,450,452,454,456,458,460,462,464,466,468,470,-1,-1,472,-1,-1,-1,474,476,478,480,482,-1,-1,484,486,488,490,492,494,496,-1,498,500,-1,502,504,-1,-1,-1,506,508,-1,510,512,514,516,-1,518,520,522,524,526,528,530,-1,532,-1,-1,-1,534,536,-1,538,-1,540,542,544,-1,546,548,550,552,554,556,558,-1,-1,560,562,564,-1,566,568,570,572,-1,574,-1,-1,576,578,580,582,584,586,588,590,592,594,596,598,600,602,604,606,608,610,612,614,616,618,620,622,624,-1,626,628,630,632,-1,634,636,638,640,642,644,646,-1,648,-1,-1,650,652,654,656,658,660,662,664,666,668,-1,670,672,674,676,678,680,-1,682,684,686,688,-1,-1,690,692,-1,-1,-1,694,-1,696,-1,698,-1,-1,700,702,704,706,708,710,712,714,-1,-1,716,-1,-1,718,720,722,-1,724,726,728,-1,730,-1,-1,732,734,736,738,-1,-1,-1,-1,-1,-1,-1,-1,-1,-1,-1,-1,-1,-1,-1,-1,-1,-1,-1,-1,-1,-1,-1,-1,-1,-1,-1,-1,-1,-1,-1,-1,-1,-1,-1,-1,-1,-1,-1,-1,-1,-1,-1,-1,-1,-1,-1,-1,-1,-1,-1,-1,-1,-1,-1,-1,-1,-1,-1,-1,-1,-1,-1,-1,-1,-1,-1,-1,-1,-1,-1,-1,-1,-1,-1,-1,-1,-1,-1,-1,-1,-1,-1,-1,-1,-1,-1,-1,-1,-1,-1,-1,-1,-1,-1,-1,-1,-1,-1,-1,-1,-1,-1,-1,-1,-1,-1,-1,-1,-1,-1,-1,-1,-1,-1,-1,-1,-1,-1,-1,-1,-1,-1,-1,-1,-1,-1,-1,-1,-1,-1,-1,-1,-1,-1,-1,-1,-1,-1,-1,-1,-1,-1,-1,-1,-1,-1,-1,-1,-1,-1,-1,-1,-1,-1,-1,-1,-1,-1,-1,-1,-1,-1,-1,-1,-1,-1,-1,-1,-1,-1,-1,-1,-1,-1,-1,-1,-1,-1,-1,-1,-1,-1,-1,-1,-1,-1,-1,-1,-1,-1,-1,-1,-1,-1,-1,-1,-1,-1,-1,-1,-1,-1,-1,-1,-1,-1,-1,-1,-1,-1,-1,-1,-1,-1,-1,-1,-1,-1,-1,-1,-1,-1,-1,-1,-1,-1,-1,-1,-1,-1,-1,-1,-1,-1,-1,-1,-1,-1,-1,-1,-1,-1,-1,-1,-1,-1,-1,-1,-1,-1,-1,-1,-1,-1,-1,-1,-1,-1,-1,-1,-1,-1,-1,-1,-1,-1,-1,-1,-1,-1,-1,-1,-1,-1,-1,-1,-1,-1,-1,-1,-1],"split_conditions":[3.1392673E1,3.5E0,5E-1,2.5E0,5E-1,4.033608E1,6.7989916E-1,1.5E0,5E-1,-1.05E1,6.6968244E-1,1.5E0,1.4645306E2,5E-1,-8.5E0,4.8231846E1,5E-1,-2.15E1,6.5E0,-2.75E1,-2.85E1,1.5E0,2.5E0,2.0554771E1,3.7085524E-1,3.5E0,7.5E0,4.5E0,6.17164E1,5.743903E0,6.1082345E-1,1.5E0,1.5E0,-5.5E0,2.15E1,9.15E1,2.75E1,6.1E1,4.5E0,4.5E0,4.944187E1,1.5E0,2.0164623E1,1.899998E1,9.55E1,3.1272976E1,3.0471298E1,1.5E0,3.0878796E1,3.5E0,1.391528E2,9.5E0,-7.3E1,-1.5E0,-1.65E1,4.15E1,3.6595E3,5E-1,2.0180202E9,1.5294283E1,1.627987E1,1.5E0,3.802E3,-1.4409604E2,-1.5216464E-1,7.5E0,3.641E3,-1.1076271E-1,1.2496137E2,2.5E0,3.575611E1,-7.35E1,5.7170788E1,1.292483E2,4.5E0,2.0150203E9,-1.65E1,2.0155205E9,-7.85E1,2.8425E3,1.97104E1,2.35E1,2.0160206E9,3.5E1,-1.6292447E-1,2.0603394E1,1E0,1.965E2,5.393405E1,3.4545E3,2.0170205E9,1.2833774E2,1.8138021E1,5.743903E0,2.0180211E9,1.5278736E1,7.047202E-1,1.125E2,8E1,5.45E1,1.6235596E1,6.5E0,1.5E0,-9.15E1,-9.217463E-2,1.15E1,-1.7294703E-2,4.84701E0,9.05E1,2.5E0,1.4730134E0,5.5E0,1.5303511E1,5.5E0,6.75E1,5E-1,3.482E3,2.8542908E-2,-6E1,-1.6799697E-1,-6.5259784E-1,3.502E3,1.7071068E0,-6.514499E-1,-1.006161E-1,3.5E0,-1.5479398E-1,3.293931E1,2.5E0,4.05E1,3.5E0,2.0180205E9,3.657E3,1.34E2,5.95E1,1.1557083E2,3.5E0,-5.95E1,5.658176E1,-7.95E1,6.242944E0,1.4832101E2,1.75E1,8.4170135E1,3.5E0,2.5E0,1.885E2,1.435E2,1.0246835E1,1.5E2,2.045718E1,-1.4379174E-1,3.500714E1,-6E0,2.1505432E1,-1.15667194E-1,9.217474E0,1.9157173E1,8.35E1,-3.9511436E-1,6.8931746E-1,-7.55E1,-7.85E1,7.6683495E1,1.5E0,1.15E1,2.79E2,3.3E1,9.15E1,9.452768E1,1.3888258E2,1.6077868E1,2.0180207E9,-8.25E1,4.075784E1,2.0170213E9,-2.5E0,9.3397865E1,-7.5E0,-2.8163448E-1,6.5449375E-1,-6.405084E-1,-8.253312E-3,-5.5E0,-3.65E1,2.0160202E9,-4.1381264E1,8E0,2.8629078E1,4.6419827E1,2.5E0,-1.5859649E-1,1.4479323E2,2.0180211E9,3.5E0,3.6815E3,-8.85E1,1.5265034E-1,1.5E0,1.5792049E1,3.636E3,1.3793695E0,-1.35E1,1.5E0,6.0253925E0,5.829702E-1,1.7146328E1,9.460407E0,2.011818E1,4.5E0,9.460407E0,1.25E1,9.25E1,3.5E0,7.2758193E0,-3.506749E-2,-8.796212E0,-4.4763082E-1,4.185448E-1,4.0236794E1,4.5E0,1.3063072E-1,2.0170209E9,3.1487972E1,1.395E2,6.621288E1,-3.95E1,3.0555E3,3.3045E3,8.85E1,-1.25E1,3.834E3,4.3203936E0,-4E0,-6.25E1,6.8985504E1,5E-1,3.72E3,1.4882945E-1,2.761346E1,-2.45E1,-9.85E1,1.3232051E-1,2.9142137E0,5.5E0,7.6700455E1,5.770182E1,5.5E0,3.5E0,1.2681453E-1,6.565E2,-1.4799044E-1,-6.7577976E-1,-9.697992E-2,-6.812229E-1,9.538433E1,-6.332702E-1,-1.9448719E1,9.3555176E1,1.2071068E0,1.6651505E2,3.55E1,-8.05E1,2.0170202E9,3.0505E3,2.0180206E9,-9.75E1,7.7130117E0,5.4847786E1,6.205E2,2.7155E3,4.1446487E1,4.243004E-1,-6.750296E-1,3.758985E1,4.124034E-1,-3.235529E-1,-1.4116165E-1,2.9111822E1,2.677644E1,1.0246835E1,2.016021E9,2.0155205E9,-5.5816853E-1,-1.2626758E-1,1.1247025E1,3.0910984E1,-8.65E1,3.0609829E1,-9.35E1,1.0793491E1,-4E0,7.184031E-1,1.7545E3,3.5E0,4.4863456E-1,2.63664E1,1E0,7.8112054E-1,-1.2073429E-1,-4.9176905E-1,-6.85E1,1.48E2,6.116933E-1,-6.95E1,3.55E1,1.718996E1,8.705E2,9.197508E-2,-1.5430721E1,2.88E2,2.0170204E9,-4.5952267E1,2.045718E1,1.5803165E2,1.4534483E1,-6.151758E-1,8.25E1,-3.940576E-1,1.01315714E-1,-6.67139E-1,1.5E0,7.512756E1,2.3270628E-1,2.0160211E9,6.1261695E-2,5.6549664E0,3.3767616E1,0E0,5.1569767E-2,2.005E2,2.669403E1,5.5E0,-4.9708523E1,8.3538925E1,-3.6138763E1,4.5E0,-6.4238596E-1,-2.0175931E-1,-3.05E1,7.35E1,6.5E1,-1.8586794E-1,8.0081207E-1,2.0019927E0,2.2950932E1,1.405169E2,-1.6273428E-1,3.785E2,2.207906E-1,-4.0589347E-1,2.9308523E1,1.4773434E2,7.535246E-2,2.0150204E9,1.85E1,2.0180205E9,8.45E1,2.15E1,3.4915E3,2.2267919E0,2.5E0,2.83E2,1.5967952E1,3.95E1,3.5E0,1.45E1,1.4464194E1,-3.95E1,-7.95E1,3.6375E3,-8.05E1,1.15E1,9.870157E1,3.345E2,-1.1254156E1,6.382137E-2,2.2087952E1,3.0223835E1,-6.304538E1,5E-1,-1.1046949E-2,-2.807576E1,3.6881844E1,4.706906E1,1.3E1,3.75E1,3.2419117E1,1.6097866E1,-2.4882767E-1,-8.684459E1,-1.3009446E-2,-5.2439004E-1,1.65E2,4.5E0,1.75E1,3.85E1,2.0180211E9,3.1275E3,9.35E1,1.4177473E1,5.75E1,1.495E2,-4.966641E-1,6.5E0,1.9887146E1,3.8475E3,5.51625E-1,7.5E0,1.5E0,-6.236086E-1,4.85E1,4.85E1,2.5E0,1.0518663E2,-4.5333275E-1,3.2127917E-1,1.1414067E2,3.7335E3,-6.6477466E-1,-9.742956E-2,6.100087E-2,1.7961632E1,9.808072E-3,4.5E0,-1.15566686E-1,4.930507E1,1.7391092E-1,-4.549933E-1,2.9463184E1,5.5E0,-4.05E1,3.868E3,2.425E2,2.515E2,1.7818302E1,3.5112823E1,-1.2325485E-1,-4.9814585E-1,1.4693875E2,8.5351694E-1,-1.0201913E-1,1.8048541E2,8.1E1,4.35E1,-1.6813861E-1,1.9601421E1,4.135216E0,4.5E0,-4.8494244E-1,8.95E1,6.2286633E-1,6.2233966E-2,3.5E0,-7.5E1,7.85E1,-2.85E1,-4.7828785E-1,4.185365E-1,-1.454265E-1,-5.643855E-1,-4.3551013E-1,-7.224989E-3,-5.604795E-1,-2.9000416E-3,1.5946157E-1,-3.651459E-1,8.7245226E-1,-1.0834753E-1,-6.175853E-1,-1.4774857E-1,-1.965666E-1,-6.2633675E-1,-5.899438E-1,-1.5481809E-1,-4.5523977E-1,1.2518474E-1,-9.919172E-2,-6.0724926E-1,-6.314415E-3,-4.7553137E-1,-1.8914065E-1,5.0574565E-1,-4.1055888E-1,-7.061745E-2,-4.860778E-1,-3.1635206E-2,-1.903777E-1,5.9216017E-1,-3.5038015E-1,2.8752115E-1,2.5324312E-1,-3.9938125E-1,7.299306E-2,-2.3234966E-1,2.7325088E-1,-2.9869252E-1,-5.3351647E-1,-3.111057E-1,-5.794422E-1,-9.947996E-2,-4.9537614E-1,1.6387211E-1,3.3276817E-1,-4.22832E-1,3.232349E-1,-2.5421396E-1,-1.2709975E-1,-6.483106E-1,-4.752859E-1,2.1401317E-1,-4.3516925E-1,2.5726172E-1,4.6904147E-1,1.768779E-2,-3.847164E-1,-7.06441E-1,-3.2461763E-3,-6.851129E-1,-2.6798546E-1,1.6091782E-1,-3.9287586E-2,-4.5070288E-1,3.149099E-1,6.092329E-3,-1.826391E-1,-4.371045E-1,-1.0459024E-1,3.0069104E-1,1.8778805E-1,-5.1216877E-1,3.9206246E-1,-1.8592164E-1,-4.0828943E-1,5.537765E-2,-2.5717214E-1,4.5987314E-1,-2.5859872E-1,-5.4232067E-1,-1.3864082E-1,-5.863161E-1,-4.528636E-1,2.915448E-1,4.6431774E-1,5.3064685E-2,-6.2692636E-1,-4.3270364E-1,-2.4913317E-1,5.917244E-1,-6.647988E-1,-1.4380433E-1,-1.6573307E-1,-3.6776903E-1,-5.514799E-1,-1.2101161E-1,-3.0888265E-2,-2.32153E-1,-2.542607E-1,-3.984569E-1,-1.9698855E-1,-5.491581E-1,4.5696452E-1,-3.9370328E-1,-1.1144825E-1,-6.316055E-1,-4.836974E-1,-5.6654084E-1,-4.7289422E-1,-1.5214267E-2,-3.7700722E-1,5.5508655E-2,-4.823102E-1,-5.72391E-1,-6.4176506E-1,-1.02572754E-1,-3.7079912E-1,-5.7107824E-1,3.31604E-1,-3.4767917E-1,9.865475E-2,-5.0932527E-1,4.472922E-1,-3.473293E-1,-1.1069044E-1,-3.5548097E-1,-1.4872108E-1,7.223694E-1,-5.26106E-1,1.6851513E-1,-4.0118605E-1,-3.763109E-2,-5.027387E-1,-3.5672355E-1,-3.4914306E-1,-4.7377664E-1,-5.129546E-1,6.714794E-2,-6.4091283E-1,-4.1402435E-1,-3.541679E-1,3.8903255E-2,-5.088245E-1,4.4080276E-2,-3.756678E-1,-2.711691E-1,-4.329259E-1,-3.8390252E-1,3.0320302E-1,-4.9988508E-1,-1.7194495E-1,-6.008353E-1,2.7261913E-1,-1.4530337E-1,-2.8089583E-1,7.829873E-2,-3.0625468E-1,4.6018475E-1,-8.0250595E-3,-4.6728954E-1,-4.9246526E-1,-4.1846326E-1,-5.409623E-1,-3.4221888E-1,-1.4683839E-2,-6.087103E-1,-4.469103E-1,-2.208147E-1,-5.266937E-1,2.0198452E-1,2.1209545E-1,-4.4348893E-1,2.5520954E-1,-3.5271272E-1,-5.000051E-1,-6.222858E-1,-3.517739E-1,-5.3464633E-1,-9.730298E-2,-4.2621413E-1,1.298066E-1,-4.141744E-1,-5.3393906E-1,1.2883556E-1,-5.155449E-1,-6.017488E-1,-3.6370072E-1,-5.5445576E-1,-3.418767E-1,-6.602017E-1,-5.4588933E-2,-6.188533E-1,-3.8470373E-2,6.7855304E-1,3.9035553E-1,-3.2925895E-1,-4.5673877E-1,-4.15466E-2,-5.838286E-1,-2.4624182E-1,3.5281333E-1,-4.019318E-1,-4.4271094E-1,7.7419944E-2,1.9664304E-1,-4.0394297E-1,-5.474643E-1,-2.1322256E-1,-3.992176E-1,-4.938113E-1,-4.4260895E-1,2.96005E-1,-4.8475918E-1,-5.62962E-1,6.1025095E-1,-4.307199E-1,2.8283378E-1,-5.2852803E-1,4.21378E-1,-3.194289E-1,-4.3205374E-1,1.5555249E-1,-3.9280793E-1,4.177488E-1,-1.2372661E-1,-5.2377725E-1,-6.191617E-1,-5.803763E-1,-6.744521E-1,-6.933173E-2,-6.245568E-1,-6.5501726E-1,2.1310352E-2,-4.6989396E-1,-5.472805E-1,6.353602E-2,-5.232963E-1,-5.774913E-1,-6.5099955E-1,-1.5293752E-1,-1.0493185E-1,-5.258011E-1,8.780801E-1,-1.7753766E-1,-3.5001287E-1,-6.094532E-1,-6.36846E-1,-5.6193363E-2,7.524489E-1,-1.5653072E-1,-3.8533965E-1,3.339584E-1,3.1503808E-1,-4.678504E-1,-6.1264044E-1,6.6743776E-2,5.722016E-1,-2.332222E-1,-6.55664E-1,-1.0597218E-1,-4.62418E-1,1.6505428E-1,-6.140867E-1,-3.17393E-1,-6.5377164E-1,-2.3374985E-1,-3.8329822E-1,5.1846623E-1,4.087356E-2,-5.650028E-1,4.5100856E-1,-4.5275483E-1,-4.0531877E-1,-8.476939E-2,-3.813757E-1,8.422981E-1,-6.637582E-1,-1.9392791E-1,3.1514865E-1,-3.2211143E-1],"split_indices":[6,13,9,10,9,6,0,13,13,5,0,8,6,9,5,16,9,5,5,5,5,8,13,6,0,12,5,10,14,6,0,8,8,5,5,4,5,2,13,13,6,10,17,6,11,6,6,10,6,10,14,12,11,12,5,12,2,8,1,17,17,8,2,16,0,13,2,0,16,8,6,4,6,7,8,1,5,1,4,2,6,2,1,2,0,6,8,0,17,2,1,7,6,14,1,6,0,7,11,11,7,12,13,4,0,13,0,17,4,8,17,8,17,8,11,8,2,17,11,0,0,2,14,0,0,8,0,6,10,12,8,1,2,13,4,16,8,4,6,11,14,6,5,7,8,10,0,2,6,0,6,0,14,12,6,0,7,6,4,0,0,4,11,7,5,12,0,11,0,7,7,6,1,4,7,1,12,16,12,0,0,0,0,12,12,1,16,0,17,16,13,0,16,1,8,2,11,17,10,17,2,17,5,8,7,0,6,6,7,13,6,5,4,8,17,0,7,0,0,6,13,0,1,6,0,7,12,2,2,0,5,2,17,5,11,6,15,2,0,17,5,11,0,14,13,6,14,13,13,0,2,0,0,0,0,7,0,16,7,14,6,11,4,1,2,1,11,6,14,2,2,14,0,0,14,0,0,0,6,6,6,1,1,0,0,6,6,11,6,11,6,5,0,2,8,0,6,8,0,0,0,11,0,0,11,12,6,2,0,16,0,1,16,6,14,6,0,11,0,0,0,13,7,0,1,0,7,14,5,0,0,17,10,16,7,16,10,0,0,12,4,2,0,17,17,17,14,0,0,0,0,6,14,17,1,13,1,4,12,2,17,12,0,6,12,8,13,14,12,4,2,4,0,14,0,7,0,17,6,16,15,0,16,7,14,5,12,6,7,0,16,0,0,0,10,5,12,1,2,11,17,13,0,0,13,14,2,17,13,10,0,0,0,10,17,0,0,7,2,0,0,0,17,0,13,0,6,0,0,14,13,12,2,0,0,17,16,0,0,6,0,0,6,13,13,0,17,17,13,0,11,0,0,10,11,4,12,0,0,0,0,0,0,0,0,0,0,0,0,0,0,0,0,0,0,0,0,0,0,0,0,0,0,0,0,0,0,0,0,0,0,0,0,0,0,0,0,0,0,0,0,0,0,0,0,0,0,0,0,0,0,0,0,0,0,0,0,0,0,0,0,0,0,0,0,0,0,0,0,0,0,0,0,0,0,0,0,0,0,0,0,0,0,0,0,0,0,0,0,0,0,0,0,0,0,0,0,0,0,0,0,0,0,0,0,0,0,0,0,0,0,0,0,0,0,0,0,0,0,0,0,0,0,0,0,0,0,0,0,0,0,0,0,0,0,0,0,0,0,0,0,0,0,0,0,0,0,0,0,0,0,0,0,0,0,0,0,0,0,0,0,0,0,0,0,0,0,0,0,0,0,0,0,0,0,0,0,0,0,0,0,0,0,0,0,0,0,0,0,0,0,0,0,0,0,0,0,0,0,0,0,0,0,0,0,0,0,0,0,0,0,0,0,0,0,0,0,0,0,0,0,0,0,0,0,0,0,0,0,0,0,0,0,0,0,0,0,0,0,0,0,0,0,0,0,0,0,0,0,0,0,0,0,0,0,0,0,0,0,0,0,0,0,0,0,0,0,0,0,0,0,0,0,0,0,0,0,0,0],"split_type":[0,0,0,0,0,0,0,0,0,0,0,0,0,0,0,0,0,0,0,0,0,0,0,0,0,0,0,0,0,0,0,0,0,0,0,0,0,0,0,0,0,0,0,0,0,0,0,0,0,0,0,0,0,0,0,0,0,0,0,0,0,0,0,0,0,0,0,0,0,0,0,0,0,0,0,0,0,0,0,0,0,0,0,0,0,0,0,0,0,0,0,0,0,0,0,0,0,0,0,0,0,0,0,0,0,0,0,0,0,0,0,0,0,0,0,0,0,0,0,0,0,0,0,0,0,0,0,0,0,0,0,0,0,0,0,0,0,0,0,0,0,0,0,0,0,0,0,0,0,0,0,0,0,0,0,0,0,0,0,0,0,0,0,0,0,0,0,0,0,0,0,0,0,0,0,0,0,0,0,0,0,0,0,0,0,0,0,0,0,0,0,0,0,0,0,0,0,0,0,0,0,0,0,0,0,0,0,0,0,0,0,0,0,0,0,0,0,0,0,0,0,0,0,0,0,0,0,0,0,0,0,0,0,0,0,0,0,0,0,0,0,0,0,0,0,0,0,0,0,0,0,0,0,0,0,0,0,0,0,0,0,0,0,0,0,0,0,0,0,0,0,0,0,0,0,0,0,0,0,0,0,0,0,0,0,0,0,0,0,0,0,0,0,0,0,0,0,0,0,0,0,0,0,0,0,0,0,0,0,0,0,0,0,0,0,0,0,0,0,0,0,0,0,0,0,0,0,0,0,0,0,0,0,0,0,0,0,0,0,0,0,0,0,0,0,0,0,0,0,0,0,0,0,0,0,0,0,0,0,0,0,0,0,0,0,0,0,0,0,0,0,0,0,0,0,0,0,0,0,0,0,0,0,0,0,0,0,0,0,0,0,0,0,0,0,0,0,0,0,0,0,0,0,0,0,0,0,0,0,0,0,0,0,0,0,0,0,0,0,0,0,0,0,0,0,0,0,0,0,0,0,0,0,0,0,0,0,0,0,0,0,0,0,0,0,0,0,0,0,0,0,0,0,0,0,0,0,0,0,0,0,0,0,0,0,0,0,0,0,0,0,0,0,0,0,0,0,0,0,0,0,0,0,0,0,0,0,0,0,0,0,0,0,0,0,0,0,0,0,0,0,0,0,0,0,0,0,0,0,0,0,0,0,0,0,0,0,0,0,0,0,0,0,0,0,0,0,0,0,0,0,0,0,0,0,0,0,0,0,0,0,0,0,0,0,0,0,0,0,0,0,0,0,0,0,0,0,0,0,0,0,0,0,0,0,0,0,0,0,0,0,0,0,0,0,0,0,0,0,0,0,0,0,0,0,0,0,0,0,0,0,0,0,0,0,0,0,0,0,0,0,0,0,0,0,0,0,0,0,0,0,0,0,0,0,0,0,0,0,0,0,0,0,0,0,0,0,0,0,0,0,0,0,0,0,0,0,0,0,0,0,0,0,0,0,0,0,0,0,0,0,0,0,0,0,0,0,0,0,0,0,0,0,0,0,0,0,0,0,0,0,0,0,0,0,0,0,0,0,0,0,0,0,0,0,0,0,0,0,0,0,0,0,0,0,0,0,0,0,0,0,0,0,0,0,0,0,0,0,0,0,0,0,0,0,0,0,0,0,0,0,0,0,0,0,0,0,0,0,0,0,0,0,0,0,0,0,0,0],"sum_hessian":[4.7710918E4,2.262705E4,2.508387E4,5.527874E3,1.7099176E4,2.4941066E4,1.4280101E2,1.2763644E3,4.25151E3,1.7054465E4,4.4711487E1,6.7922715E3,1.8148797E4,4.0156476E2,8.747997E2,6.275303E2,3.6239792E3,3.339618E3,1.3714847E4,4.274414E3,2.5178572E3,1.7003107E4,1.1456879E3,4.0038297E2,1.1818014E0,1.8995009E2,6.8484955E2,5.9119275E2,3.6337498E1,3.6157068E3,8.27261E0,6.957002E2,2.6439177E3,8.856939E3,4.857907E3,6.1378955E2,3.6606248E3,1.7329323E2,2.3445637E3,8.476661E3,8.526447E3,1.8234111E2,9.6334674E2,2.4159172E2,1.5879124E2,1.4413866E2,4.581143E1,4.6804187E2,2.1680772E2,7.789467E1,5.132981E2,2.7014477E1,9.32302E0,1.23911224E2,3.4917954E3,5.3066614E2,1.6503406E2,1.9024836E3,7.414342E2,2.267776E3,6.5891636E3,4.194747E3,6.6316E2,6.1258386E2,1.2057236E0,3.096492E3,5.641327E2,1.0286928E0,1.7226453E2,3.9166364E2,1.9529003E3,1.4866407E3,6.9900205E3,2.701807E3,5.8246406E3,2.6267736E1,1.5607336E2,9.167388E2,4.6607956E1,2.1791571E2,2.3676008E1,1.4876779E2,1.00234585E1,1.423319E2,1.8067588E0,4.2316E1,3.4954295E0,2.6226013E2,2.0578172E2,2.0950523E2,7.302489E0,3.611858E1,4.177609E1,2.577E2,2.5559805E2,1.9853142E1,7.1613345E0,4.0757413E0,5.247278E0,6.3599358E1,6.031187E1,1.22898315E2,3.3688972E3,5.288523E2,1.8138407E0,1.6303104E2,2.003015E0,1.5972024E3,3.0528116E2,5.728375E2,1.6859671E2,2.055118E3,2.1265808E2,6.0521646E3,5.3699915E2,2.9794512E3,1.2152961E3,6.602477E2,2.9122634E0,1.0954301E0,6.114884E2,9.966245E2,2.0998674E3,5.631229E2,1.0097944E0,1.7105287E2,1.211659E0,1.5428764E2,2.3737598E2,9.0953687E2,1.0433633E3,1.7132212E1,1.4695085E3,4.629622E3,2.3603982E3,2.3498555E3,3.5195123E2,5.755272E3,6.936835E1,4.388722E0,2.1879015E1,1.0761964E1,1.453114E2,5.9035E2,3.2638876E2,6.619734E0,3.998822E1,1.7892723E2,3.898848E1,1.0149034E1,1.3526975E1,1.0796356E0,1.4768816E2,3.3994677E0,6.623991E0,1.0379752E0,1.4129391E2,1.9761915E1,2.2554087E1,1.2504498E0,2.2449799E0,1.6113437E2,1.0112578E2,2.0134457E2,4.4371448E0,2.027589E2,6.7463303E0,4.127817E0,3.1746716E0,2.9466303E1,6.6522775E0,2.0468311E1,2.1307775E1,5.6730007E1,2.0097002E2,2.4120442E2,1.4393627E1,1.6574186E1,3.2789557E0,2.1592977E0,1.9164437E0,3.551041E0,1.6962373E0,3.1150501E1,3.2448856E1,6.133795E0,5.4178074E1,8.762664E1,3.527167E1,1.3209534E3,2.0479438E3,1.2200375E0,5.2763226E2,6.573684E1,9.7294205E1,9.173378E2,6.798646E2,3.024117E2,2.8694296E0,1.1601952E2,4.56818E2,4.0056644E1,1.2854007E2,1.9542183E3,1.0089961E2,1.0789598E0,2.1157913E2,5.877898E3,1.7426639E2,4.1116263E2,1.2583648E2,2.4285479E3,5.5090326E2,1.152082E3,6.3214092E1,1.4991417E0,6.5874854E2,1.157743E0,1.7545204E0,9.635913E2,3.3033222E1,1.0363802E0,2.098831E3,1.6745985E2,3.5930176E0,2.1879623E1,1.3240802E2,1.2547875E2,1.1189723E2,8.99625E2,9.911868E0,1.0273975E3,1.5965889E1,9.254344E0,7.877867E0,1.4649703E3,4.5381446E0,4.6286133E3,1.0087485E0,2.3414192E3,1.897902E1,2.3488213E3,1.0343559E0,3.4965094E2,2.3003027E0,7.3426504E0,5.747929E3,1.0305198E1,5.906315E1,1.0414264E0,3.3472955E0,1.0649303E0,2.0814083E1,1.0028841E0,9.759079E0,1.3627432E2,9.037087E0,9.492669E1,4.954233E2,3.1455582E2,1.1832956E1,4.309749E0,2.309985E0,2.572708E1,1.4261143E1,1.00687275E1,1.688585E2,1.5350389E1,2.363809E1,6.1068587E0,4.0421753E0,1.2200635E1,1.3263397E0,8.624204E1,6.1446114E1,1.3091794E0,2.0902882E0,1.0764563E0,5.5475345E0,1.0158265E1,1.3113565E2,1.7050262E1,2.7116523E0,2.1499834E1,1.0542529E0,4.559445E1,1.1553992E2,1.9638906E1,8.148687E1,5.900251E1,1.4234206E2,2.299941E0,2.137204E0,8.78839E1,1.14875E2,1.5254661E0,5.2208643E0,2.648793E0,1.4790242E0,1.0475065E0,2.1271653E0,2.0570744E1,8.895559E0,2.0465767E0,4.605701E0,1.81221E1,2.3462107E0,1.996584E1,1.341936E0,1.0753474E1,4.5976536E1,2.0667238E1,1.8030278E2,1.962418E2,4.4962624E1,5.082232E0,9.311396E0,1.4430392E1,2.143795E0,1.6295694E0,1.6493863E0,2.0166216E1,1.0984285E1,1.125019E0,3.132384E1,1.1337256E0,5.000069E0,7.6380973E0,4.6539978E1,1.1343734E0,8.649227E1,2.2033335E1,1.3238336E1,1.2062811E3,1.1467216E2,1.2836091E3,7.643348E2,5.262143E2,1.417972E0,6.277234E1,2.9645004E0,9.5313E1,1.9811977E0,8.994937E2,1.7844107E1,3.992935E1,6.3993524E2,1.8025765E0,3.0060913E2,1.7379032E0,1.1315264E0,1.096692E2,6.3503304E0,4.4798373E2,8.8342705E0,3.7411377E1,2.6452658E0,8.394042E1,4.4599636E1,1.3772786E3,5.7693964E2,4.533903E0,9.636571E1,1.3684805E2,7.473108E1,1.4116616E3,4.4662363E3,2.4468191E1,1.497982E2,8.763888E1,3.2352377E2,2.8288568E1,9.754791E1,1.2996946E3,1.1288533E3,5.4967804E2,1.2251827E0,8.503672E2,3.017148E2,4.703885E1,1.6175245E1,1.1235176E0,6.5762506E2,9.4483905E2,1.8752266E1,1.767058E1,1.5362644E1,1.3568854E3,7.419456E2,1.6435485E0,1.658163E2,1.8072647E0,1.7857528E0,8.252807E0,1.3626817E1,4.8997307E0,1.2750829E2,1.08057396E2,1.742136E1,1.040901E2,7.8071284E0,2.2242735E2,6.7719763E2,3.8906717E0,6.0211964E0,1.02301843E3,4.3790345E0,9.524518E0,6.441371E0,3.1292655E0,6.125078E0,4.599232E0,3.2786348E0,1.3080975E3,1.5687282E2,3.0102773E0,1.5278673E0,4.6035273E3,2.5085901E1,2.3404153E3,1.003692E0,1.8649541E0,1.7114065E1,1.9180993E0,2.346903E3,1.0376621E0,3.4861328E2,1.1677155E0,1.1325873E0,4.0671377E0,3.2755127E0,3.439828E3,2.3081016E3,3.45337E0,6.8518276E0,4.112965E0,5.4950184E1,1.0493299E0,2.2979658E0,1.3494693E2,1.3273907E0,1.0122643E0,9.391443E1,3.5866693E2,1.367564E2,1.1044962E0,3.1345132E2,2.8435087E0,8.989448E0,1.7604759E0,2.5492733E0,1.1900705E0,1.1199143E0,2.2839712E1,2.8873672E0,1.1400596E1,2.8605475E0,8.296228E0,1.7724991E0,2.2740898E0,1.6658441E2,4.5802875E0,1.0770102E1,2.1642168E1,1.9959227E0,2.4284732E0,3.6783855E0,1.5902966E0,2.4518785E0,8.536424E0,3.6642108E0,9.540569E0,5.1905544E1,4.4599624E0,1.087572E0,9.114969E0,1.043295E0,1.730786E0,1.2940488E2,6.1022186E0,1.0948044E1,1.142933E0,1.5687191E0,2.915483E1,1.6439621E1,1.1340089E2,2.139025E0,1.7278131E1,2.3607762E0,7.978799E1,1.6988804E0,3.0609274E0,5.5941586E1,3.7138084E1,1.0520398E2,1.1531057E0,1.1468353E0,4.8856167E1,3.9027733E1,1.0889547E2,5.979528E0,4.108847E0,1.1120173E0,1.5210272E0,1.1277657E0,5.6173463E0,1.4953396E1,3.8641348E0,5.0314245E0,1.5940284E0,3.0116723E0,1.6674831E1,1.4472697E0,1.1712735E0,1.1749374E0,5.5062284E0,1.4459612E1,1.4288263E0,9.324648E0,3.9421158E1,6.5553765E0,1.0884388E1,9.78285E0,1.8884598E1,1.6141818E2,1.7654803E2,1.9693775E1,3.5969105E1,8.993521E0,2.661035E0,2.421197E0,1.2352921E1,2.077471E0,8.277898E0,1.1888317E1,3.6363943E0,7.347891E0,1.4500449E1,1.682339E1,1.8125917E0,3.1874776E0,5.4046025E0,2.233495E0,1.635335E1,3.0186626E1,5.6847878E1,2.9644392E1,2.0675184E1,1.3581505E0,1.0561381E1,2.6769545E0,9.6505066E1,1.1097761E3,9.907066E0,1.0476509E2,1.4780185E2,1.1358073E3,3.518873E2,4.124475E2,6.8545194E0,5.591782E1,1.7208356E0,1.2436649E0,1.0296239E0,9.428338E1,1.7280336E2,7.2669037E2,9.624406E0,8.2197E0,3.484165E1,5.0877037E0,4.280516E2,2.1188362E2,2.995954E2,1.0137283E0,8.270908E1,2.6960112E1,4.362846E0,1.9874846E0,1.0836946E0,4.4690002E2,1.1565183E0,7.6777525E0,1.3596369E1,2.381501E1,1.0958881E0,1.5493777E0,8.194643E1,1.9940023E0,3.0341667E1,1.425797E1,1.302129E3,7.5149506E1,2.0961728E2,3.6732236E2,2.6780877E0,1.8558153E0,8.4895256E1,1.1470452E1,1.2759344E2,9.254607E0,7.1643196E1,3.0878813E0,9.366542E2,4.7500742E2,2.3447153E3,2.1215212E3,2.9873188E0,2.1480873E1,3.1127505E0,1.4668546E2,9.227124E0,7.841175E1,3.1066095E2,1.2862807E1,2.5486506E1,2.8020618E0,2.551935E0,9.499598E1,8.4384717E2,4.5584738E2,1.1039084E3,2.4944826E1,1.6445954E0,5.4803345E2,8.207201E2,2.9647095E1,2.9978122E2,1.933614E0,2.037551E0,4.5001297E1,1.2851988E1,3.323258E0,4.3511444E1,6.141136E2,2.9758875E1,9.150802E2,9.945082E0,8.807184E0,1.11517315E1,6.5188484E0,1.4323178E1,1.0394661E0,1.6579118E2,1.1910942E3,2.121482E1,7.2073083E2,3.5214567E0,1.6229485E2,4.718211E0,3.5345953E0,1.1499534E1,2.1272826E0,2.7831926E0,2.116538E0,1.2235634E2,5.1519585E0,1.0292809E2,5.1293015E0,1.066303E0,1.6355057E1,1.0108251E2,3.0075905E0,5.0163193E0,2.7908092E0,2.1639313E2,6.034225E0,1.7036368E2,5.0683395E2,1.509055E0,4.512141E0,1.7334631E2,8.496721E2,1.0490828E0,3.329952E0,1.1032933E0,8.421225E0,3.571708E0,2.869663E0,1.620653E0,1.5086125E0,1.0977955E0,3.501437E0,1.0464492E0,2.2321854E0,7.433347E2,5.647628E2,1.5550227E2,1.3705482E0,3.0736484E3,1.5298792E3,2.7037501E0,2.238215E1,1.588834E1,1.2257257E0,3.7687268E2,1.9700304E3,3.474058E2,1.2074852E0,1.0181417E0,3.0489962E0,1.0260777E0,2.249435E0,1.6839226E1,3.4229885E3,2.3065623E3,1.5392417E0,2.237949E0,1.2154212E0,5.3855305E0,1.4662969E0,2.0810678E0,2.0318975E0,5.3730377E1,1.2198071E0,1.1952819E0,1.3375165E2,9.289459E1,1.0198348E0,3.5716855E2,1.4983765E0,1.2669266E2,1.0063737E1,3.1197318E2,1.4781417E0,1.2165236E0,1.6269851E0,1.26531E0,7.7241373E0,1.1717548E0,1.3775184E0,1.5920355E1,6.9193563E0,1.2119867E0,1.6753806E0,1.0305874E1,1.0947219E0,1.0901563E0,1.7703912E0],"tree_param":{"num_deleted":"0","num_feature":"18","num_nodes":"739","size_leaf_vector":"0"}},{"base_weights":[-7.441929E-1,-5.657759E-1,-9.3665075E-1,-3.6925974E-1,-6.3522923E-1,-9.481989E-1,1.1748847E0,-6.979212E-1,-3.2190254E-1,-6.3916814E-1,1.1512713E0,-8.521137E-1,-9.8427546E-1,-9.1538274E-1,-6.225914E-1,-2.9761526E-1,-6.037794E-1,-8.297983E-1,-6.059523E-1,-9.139187E-1,-7.529484E-1,-1.0013416E0,-7.541959E-1,-6.394146E-1,-1.011839E0,-4.898854E-1,-8.477696E-1,-6.300038E-1,-2.754508E-1,-4.2461637E-1,-8.49036E-1,-7.461689E-1,-9.039615E-1,-5.726723E-1,-8.671961E-1,-1.0816553E0,-8.85502E-1,-9.7239965E-1,-7.246773E-1,-1.0464847E0,-9.5776916E-1,-4.8094723E-1,-8.588905E-1,-7.1792716E-1,1.2712108E-1,-1.0222176E0,7.588452E-2,-5.192838E-1,1.5995039E-1,-1.0031807E0,-7.5758266E-1,-8.182976E-1,-3.9863864E-1,-4.2464754E-1,-2.3929246E-1,-2.955144E-1,-8.0251795E-1,6.7388964E-1,-8.658404E-1,-7.959599E-1,-6.181058E-1,-1.02599E0,-8.652248E-1,-5.185522E-1,-6.6132337E-1,-7.737756E-1,-1.003517E0,-1.0835932E0,-1.5295604E-1,-8.423661E-1,-1.0660247E0,-9.865374E-1,-1.9457641E-1,-6.90063E-1,-9.116842E-1,-1.0277344E0,-1.1253967E0,-8.892364E-1,-9.9068564E-1,-8.957784E-1,-3.7447986E-1,-7.6567084E-1,-1.0729446E0,-1.0216452E0,-3.949601E-1,-4.5577726E-1,1.0128242E0,-6.154825E-1,-1.04741E0,-4.6868917E-1,-8.177917E-1,-3.7676224E-1,6.5473133E-1,-6.674361E-1,-1.1002673E0,-6.011184E-1,-9.6232325E-1,4.0162614E-1,-8.34604E-1,-8.4719414E-1,-2.141005E-1,-3.5058752E-1,-6.5504545E-1,-3.9262494E-1,-1.888279E-1,-6.391062E-1,-1.3760555E-1,-1.0057265E0,-1.2812189E-2,-8.916069E-1,-7.2648134E-3,-8.197627E-1,-5.8383334E-1,-4.2710778E-1,-8.370101E-1,-1.0321602E0,6.647809E-2,5.2704036E-1,-8.6808944E-1,-4.1480362E-1,-5.495467E-1,-7.0606625E-1,-5.8427066E-1,-7.82444E-1,6.440298E-2,-8.789566E-1,-1.063557E0,-7.523369E-1,-1.0920807E0,-7.0094705E-1,-8.7405086E-1,-1.0733837E0,-6.6394085E-1,-5.974809E-1,-1.0134448E0,6.767773E-1,-6.555591E-1,-5.8465236E-1,-7.313418E-1,-1.4040232E-1,-9.300645E-1,-9.504634E-1,-1.0447332E0,-1.1279364E0,-7.216616E-2,-8.661554E-1,-1.0499266E0,-9.758402E-1,-1.1090635E0,-9.352661E-1,-1.3009104E-1,-3.1063095E-1,-1.0340707E0,-1.0110568E0,-6.9774866E-1,-7.0441157E-1,-1.1123838E0,-6.0480207E-2,-1.159193E0,-6.575976E-1,6.577195E-1,2.093016E-1,-8.124596E-1,-8.547406E-1,3.8853586E-1,-3.7038937E-1,-1.0604249E0,-4.9363562E-1,5.4872465E-1,-9.420426E-1,-3.4207022E-1,7.5471896E-1,-7.7915406E-1,1.0580238E0,2.38846E-1,-7.859279E-1,2.2782251E-1,-1.1266822E0,-2.2897917E-1,1.8723081E-1,-6.77677E-1,-1.0207129E0,-2.7035037E-1,-1.3542226E-1,-8.553475E-1,-8.878415E-2,-8.833697E-1,-4.1892573E-1,2.8312218E-1,-5.793359E-1,-1.3595578E-1,9.455838E-1,-6.719491E-1,-5.80268E-1,-1.8343756E-2,-1.1896828E-1,-3.7797183E-1,-2.0726535E-1,-8.820265E-1,1.0637656E-1,-4.478925E-1,-1.0429373E0,1.1662515E-2,5.1824296E-1,-9.416281E-1,-1.2985758E-1,-9.209633E-1,-6.561715E-1,7.4099725E-1,-8.284352E-1,-1.2059727E-1,7.7842164E-1,-6.1461663E-1,2.0805871E-1,-5.355604E-1,-8.768846E-1,-2.2337243E-1,-1.0517713E0,-6.932019E-1,-9.0065503E-1,-7.088189E-1,-3.918893E-1,-1.0017438E0,-5.913171E-1,-4.7769886E-1,-6.8277264E-1,-9.861929E-1,-5.912219E-1,-4.0170383E-2,-8.000666E-1,-3.3841804E-1,8.498508E-1,-6.8035835E-1,-9.8141253E-1,-7.3966897E-1,-1.1161109E0,-9.6163845E-1,-9.311056E-1,2.1981436E-1,-2.5799185E-1,-1.0935544E0,-7.184001E-1,3.411481E-1,-8.7628686E-1,2.3682305E-1,-1.0751808E0,-1.1712038E-1,-9.698095E-1,4.4001672E-1,3.8859156E-1,-8.386681E-1,-1.1635314E0,-9.356509E-1,-1.20413125E-1,-8.107015E-1,-5.242176E-1,-8.171539E-1,-5.651913E-1,-7.6405525E-1,4.1481885E-1,-8.931171E-1,-9.4767106E-1,-3.9425924E-1,4.190052E-1,-9.529957E-1,-1.0243337E0,-1.1218327E0,-1.1298094E0,-1.9283631E-1,-7.8080386E-1,6.372284E-1,-8.7216353E-1,-4.3511215E-1,-2.4930406E-1,-1.0564269E0,-1.0613289E0,-9.5499194E-1,-1.1132747E0,2.9684195E-1,-1.9098262E-1,-9.633491E-1,-7.955763E-1,7.4964607E-1,-9.951932E-1,-2.5978634E-1,-5.5504733E-1,-1.1701936E0,-1.0283797E0,-9.346021E-2,-6.0784835E-1,-9.1246843E-1,-1.536064E-1,-9.016475E-1,-1.134158E0,-4.3428802E-1,-7.448302E-1,7.6378417E-1,-3.2293078E-1,-1.1972306E0,-8.359988E-1,5.1630795E-1,1.5340791E0,-4.8990652E-1,1.3916E-1,-1.0803562E0,3.0250043E-1,-7.715704E-1,-1.1476378E0,-8.6116475E-1,-7.4307656E-1,-4.0780538E-1,-5.1734424E-1,1.1232995E0,-5.028892E-1,-1.0745051E0,7.430466E-1,-7.247899E-1,-1.0449126E0,5.3012047E-2,-5.306117E-1,7.0850706E-1,-1.8886597E-1,-1.0576128E0,-2.09941E-1,-1.1462235E0,-5.989739E-1,7.049123E-1,-7.176776E-1,2.891081E-1,-1.5331891E-1,-1.0379236E0,7.159249E-1,-7.385588E-1,7.2858155E-1,-7.129222E-1,-8.899955E-1,-4.4097608E-1,-4.4671535E-1,-9.8665893E-1,1.7681485E-1,-5.4641664E-1,-3.913897E-1,7.212845E-1,-1.8418531E-1,-6.4137554E-1,6.65752E-2,-4.4841293E-1,1.7308916E-1,-7.055545E-1,-7.630023E-1,-4.6111548E-1,-3.8329938E-1,9.123135E-2,-1.053073E-1,-7.8413695E-1,-2.0724416E-1,-6.291482E-1,-7.3757297E-1,9.3647087E-1,-1.9680203E-1,-1.0301937E0,-4.3540707E-1,2.9072848E-1,-6.173542E-1,2.0469923E-1,-4.5705125E-1,-1.1279366E0,-4.1717747E-1,1.0569059E0,-5.7354933E-1,9.2101675E-1,-9.328905E-1,2.5290492E-1,-8.580526E-1,-6.6849536E-1,1.7918475E-1,-8.557711E-1,-6.5635556E-1,4.6287602E-1,-2.7910453E-1,7.07427E-1,-6.576802E-1,-2.8721893E-1,-5.065833E-1,-9.213145E-1,8.185402E-1,-4.7546268E-1,-5.9549546E-1,-1.0604168E0,7.723637E-2,-8.145159E-1,-8.7128043E-1,-1.0236955E0,-7.281722E-1,3.7297013E-1,-4.6428886E-1,-2.3655263E-1,-1.0380069E0,-2.55928E-1,-5.480114E-1,-7.2112477E-1,-3.723189E-1,-5.3487885E-1,-6.474224E-1,-8.052517E-1,-1.0271622E0,-7.2435194E-1,-5.965853E-1,1.232645E-2,1.3477844E0,-2.1390475E-1,-3.6808228E-1,-8.167184E-1,-5.907474E-1,3.4863207E-1,-1.2514563E-1,1.3630419E0,1.5482102E-1,-9.728672E-1,-4.6628672E-1,-1.0400947E0,-8.689217E-1,-3.0966792E-1,-1.1199563E0,-1.7030287E-1,-1.2320976E-1,-9.728547E-1,-1.5762548E-1,-9.9633443E-1,-6.59351E-1,-9.539132E-1,7.729392E-1,-3.9979532E-1,-9.078423E-1,-8.000018E-1,9.3389004E-1,-7.1940947E-1,-1.7181145E-1,-1.0767919E0,-1.6543926E-1,-1.0609392E0,-1.7460215E-1,8.7257713E-1,-4.444047E-1,1.2778908E0,-4.5758092E-1,-1.0646716E0,-1.1949644E0,-5.046682E-1,3.101978E-1,-9.79693E-1,-4.4531277E-1,-7.8584766E-1,4.561867E-1,-8.455115E-1,-6.4517E-1,-2.2202386E-1,-6.1946267E-1,-8.114651E-1,1.1799822E0,-1.4327471E-1,-8.1782335E-1,-1.0291758E0,7.5709957E-1,-7.2037077E-1,-1.0084271E0,-8.78738E-1,-1.0828465E0,-9.833597E-1,-1.1229705E0,-1.6364723E-1,-8.8134813E-1,-1.13964E0,4.6420112E-1,-7.13752E-1,-2.1536702E-1,-8.773054E-1,-7.2302836E-1,4.0632528E-1,-6.665683E-1,3.1017733E-1,-1.0607444E0,-1.4995888E-1,-1.0685573E0,-6.4886403E-1,-5.761405E-1,-9.592228E-1,-1.1151618E0,-1.6722094E-1,-6.9722193E-1,-1.071809E0,-1.0559582E0,-2.1237998E-1,-2.9077345E-1,1.1578102E0,-1.019313E0,6.82157E-1,-4.2807654E-1,-1.0492791E0,-6.228566E-1,4.8068282E-1,-1.0697227E0,-7.23004E-1,-6.0809666E-1,8.6431915E-1,2.48716E-1,-1.0108949E0,-1.139504E0,-1.5315665E-1,1.6952565E-1,-9.612285E-1,-9.277025E-1,2.3709774E-1,-4.4376335E-1,-1.0932089E0,3.5809007E-1,-7.780683E-1,-5.4005146E-1,-2.2750032E-1,1.6186434E0,-2.7278417E-1,-7.6104575E-1,7.117253E-1,-5.52325E-1,-1.1787283E0,-9.103453E-1,1.2943363E-1,1.2135221E-1,9.941986E-1,-5.811578E-1,8.093503E-1,-1.1374222E0,-1.9421174E-1,-3.2719818E-1,-1.1587473E0,-2.8884476E-1,1.1437414E0,-8.043867E-1,-1.2741713E-1,-3.408408E-1,8.000961E-1,-1.0529042E0,-2.2294924E-1,-1.6574201E-1,-8.779333E-1,-8.626723E-1,-1.7383736E-1,-6.046493E-1,-9.700574E-1,8.045718E-1,-6.3055074E-1,2.470575E-2,-1.0170636E0,-1.1069562E0,-5.1719904E-1,8.4102243E-1,-3.908105E-1,-7.483943E-1,-2.5223348E-1,3.0051985E-1,-7.937804E-1,1.3624526E0,1.1919579E-2,-3.3550996E-1,3.8601604E-1,-5.37657E-1,-8.558027E-1,1.88792E-2,9.331674E-1,1.3127973E0,-4.8029628E-1,1.4781075E0,-7.532489E-1,-7.831246E-1,-3.326377E-1,-8.8991964E-1,-4.641526E-1,-5.2004266E-1,2.525327E-1,-5.831029E-1,2.3439297E-1,2.097831E-1,-1.8146715E-1,-7.321961E-2,-3.3791488E-1,-1.3463739E-1,-9.450663E-1,-1.21777765E-1,-5.5272406E-1,-7.5425136E-1,-4.0000486E-1,-1.2163734E-1,-1.0466243E0,1.2457324E0,-3.043175E-1,-8.796741E-1,2.3052686E-1,-1.0822625E0,-1.346432E-1,-6.6741514E-1,4.17539E-1,6.0926986E-1,-1.5346904E-1,-3.605431E-1,-1.1250211E0,1.2358917E0,-2.950761E-1,-9.4387674E-1,6.802125E-1,-1.154183E0,-1.4139763E-1,-8.093943E-1,2.4377939E-1,-3.211728E-2,1.4598333E0,-1.0162702E0,3.9737827E-1,-8.3986545E-1,-1.1511252E0,3.2863626E-1,-8.6670876E-1,-5.0222975E-1,-8.264921E-1,7.1680987E-1,-6.082581E-1,-4.9583304E-1,-9.050551E-1,8.631644E-1,-1.9749135E-1,-8.954525E-1,5.439926E-1,-1.14581315E-2,1.6728059E0,4.4218326E-1,-6.8843067E-1,-5.1429915E-1,2.5713924E-1,-6.9997597E-1,7.533349E-1,-4.4708606E-2,-9.4053733E-1,1.0540723E-1,-8.5585284E-1,1.7841132E-1,-9.6134216E-1,-8.479675E-1,-1.0895998E0,8.135379E-1,-6.5857095E-1,1.12500704E-4,-9.150812E-1,-7.196088E-1,-8.9744544E-1,-3.648717E-2,-1.0433834E0,-5.38011E-1,-8.6644286E-1,-6.2320966E-1,1.1179588E0,-4.0110588E-1,-6.6711974E-1,-2.5714177E-1,5.102125E-1,-4.0609038E-1,-1.0658904E0,-8.280481E-1,6.1355424E-1,-6.0405904E-1,-4.3249986E-1,-9.0969884E-1,-6.7357665E-1,-7.777081E-1,-3.4693694E-1,-2.831935E-1,-5.6954163E-1,-6.7527E-1,-4.6757153E-1,-1.1022459E0,-7.83438E-1,-1.0506089E0,-6.53E-1,-8.229505E-1,2.1294835E-1,-6.3120556E-1,-5.004213E-1,6.3183695E-1,-7.9388857E-1,1.0988328E0,-4.3146294E-1,-6.7186624E-1,3.6800408E-1,-8.645606E-1,-6.725598E-1,3.436132E-1,-7.6460505E-1,-8.941134E-1,9.203159E-1,-7.414719E-1,4.065904E-1,-1.0629841E0,-5.347355E-1,-4.14227E-1,-9.600999E-1,8.426845E-2,-8.755572E-1,-1.1232103E0,-2.0710848E-1,-1.0681443E0,-8.350145E-1,-1.074655E0,-2.2363214E-1,-7.098539E-1,5.2572227E-1,-9.9528736E-1,-1.7967615E-1,1.240864E0,-2.0375904E-1,-7.8887844E-1,1.5712693E-1,3.287255E-1,-9.098572E-1,-8.146343E-1,-4.3878055E-1,-6.8566513E-1,-1.0828995E0,1.8952072E-1,-7.6756126E-1,-2.8305195E-2,-7.876107E-1,7.690749E-1,-6.869227E-1,-1.1788368E0,-8.832807E-1,-5.547706E-1,-6.940738E-2,-8.390544E-1,5.282072E-1,-9.843165E-1,-6.4854425E-1,-5.0503707E-1,-8.3573294E-1,-3.0779812E-1,1.1449574E0,-8.9364463E-1,-5.4897326E-1,-7.03513E-1,-8.867368E-1,-7.2039354E-1,4.4259903E-1,-9.4209146E-1,-4.0310898E-1,-1.0398153E0,-2.9370236E-1,-1.0714036E0,7.8107774E-1,-1.0975877E0,-9.576567E-1,-3.1362975E-1,-8.982139E-1,-1.0843048E0,2.5202006E-1,-9.8956114E-1,-7.0824885E-1,-4.4977766E-1,-9.963826E-1,-4.7910544E-1,-1.1404718E0,1.3048801E0,-4.8005703E-1,-1.0370486E0,-8.519851E-1,-8.8281375E-1,6.497237E-1,1.3901844E0,-1.0460707E-1,-1.0670937E0,-4.6218276E-1,-1.0781095E0,-7.8362334E-1,8.1017815E-2,-9.120115E-1,9.6536946E-1,-7.242995E-1,1.824676E-1,-9.603592E-1,-1.1171038E0,-2.986676E-1,-1.4302187E-1,-9.9719447E-1,-6.967505E-1,-1.142487E0,-3.1295645E-1,-1.1252335E0,-3.3373594E-1,3.135422E-1,1.2429571E-1,1.5287395E0,-9.1866064E-1,4.133503E-1,-6.216369E-1,-1.0823559E0,-6.3145345E-1,6.0872304E-1,1.2443472E0,-4.2180067E-1,-1.1009041E0,-3.0318066E-1,-8.7237555E-1,-1.1949853E-1,2.2703883E-1,-9.1964906E-1,-1.9341505E-1,-1.0626355E0,-2.2066571E-1,-1.1451557E0,7.272288E-1,-4.0123978E-1],"categories":[],"categories_nodes":[],"categories_segments":[],"categories_sizes":[],"default_left":[true,true,true,true,true,true,false,true,true,true,false,true,true,true,true,true,true,true,true,true,true,true,true,true,true,true,true,true,true,true,true,true,true,true,true,true,true,true,true,true,true,true,true,true,true,true,false,true,true,true,true,true,true,true,true,true,true,false,true,true,true,true,true,true,true,true,true,true,false,true,true,true,true,true,true,true,true,true,true,true,true,true,true,true,true,true,false,true,true,true,true,true,true,true,true,true,true,false,true,true,true,true,true,true,true,true,true,true,true,true,true,true,true,true,true,true,false,false,true,true,true,true,true,true,true,true,true,true,true,true,true,true,true,true,true,false,true,true,true,true,true,true,true,true,true,true,true,true,true,true,true,true,true,true,true,true,true,true,true,true,true,false,false,true,false,true,true,true,true,true,true,false,true,false,true,true,false,true,false,true,true,true,true,true,true,false,true,true,true,true,true,false,true,true,true,true,true,true,true,true,true,true,false,true,false,true,true,false,false,true,true,false,true,true,true,true,true,true,true,true,true,true,true,true,true,true,true,true,true,true,true,true,true,true,true,true,true,true,false,false,false,true,true,true,true,true,false,true,true,true,true,true,true,false,false,true,true,true,true,true,false,true,true,false,true,true,true,true,true,false,false,true,true,true,true,true,true,true,false,false,true,false,false,true,true,true,false,true,false,true,true,true,true,true,true,false,false,false,false,true,false,false,false,false,false,false,false,false,true,true,true,false,true,true,true,false,true,false,false,false,true,true,true,false,true,false,true,true,true,false,true,false,true,false,true,true,true,true,true,true,true,true,true,true,true,true,true,true,true,true,true,true,true,true,true,true,true,true,true,true,true,true,true,true,true,true,true,true,true,true,false,true,false,true,true,true,false,true,true,true,true,true,true,true,true,false,true,true,true,true,true,true,true,true,true,true,true,true,true,true,true,true,true,true,true,true,true,true,true,false,true,true,true,true,true,false,false,false,false,true,true,true,true,true,false,false,true,false,true,true,true,true,true,true,true,false,false,false,true,false,false,false,false,false,false,true,false,false,true,true,true,true,true,false,true,true,true,true,true,false,true,true,true,false,true,true,true,true,true,false,false,true,true,false,false,true,true,true,true,false,false,true,false,true,true,true,true,true,false,true,true,true,false,true,true,false,false,true,true,true,true,true,true,true,false,false,true,true,false,true,false,false,false,false,false,false,false,false,false,false,false,false,false,false,false,false,false,false,false,false,false,false,false,false,false,false,false,false,false,false,false,false,false,false,false,false,false,false,false,false,false,false,false,false,false,false,false,false,false,false,false,false,false,false,false,false,false,false,false,false,false,false,false,false,false,false,false,false,false,false,false,false,false,false,false,false,false,false,false,false,false,false,false,false,false,false,false,false,false,false,false,false,false,false,false,false,false,false,false,false,false,false,false,false,false,false,false,false,false,false,false,false,false,false,false,false,false,false,false,false,false,false,false,false,false,false,false,false,false,false,false,false,false,false,false,false,false,false,false,false,false,false,false,false,false,false,false,false,false,false,false,false,false,false,false,false,false,false,false,false,false,false,false,false,false,false,false,false,false,false,false,false,false,false,false,false,false,false,false,false,false,false,false,false,false,false,false,false,false,false,false,false,false,false,false,false,false,false,false,false,false,false,false,false,false,false,false,false,false,false,false,false,false,false,false,false,false,false,false,false,false,false,false,false,false,false,false,false,false,false,false,false,false,false,false,false,false,