{"learner":{"attributes":{"best_iteration":"99","best_ntree_limit":"100","scikit_learn":"{\"use_label_encoder\": true, \"n_estimators\": 100, \"objective\": \"binary:logistic\", \"max_depth\": null, \"learning_rate\": null, \"verbosity\": null, \"booster\": null, \"tree_method\": null, \"gamma\": null, \"min_child_weight\": null, \"max_delta_step\": null, \"subsample\": null, \"colsample_bytree\": null, \"colsample_bylevel\": null, \"colsample_bynode\": null, \"reg_alpha\": null, \"reg_lambda\": null, \"scale_pos_weight\": null, \"base_score\": null, \"missing\": NaN, \"num_parallel_tree\": null, \"random_state\": null, \"n_jobs\": null, \"monotone_constraints\": null, \"interaction_constraints\": null, \"importance_type\": null, \"gpu_id\": null, \"validate_parameters\": null, \"predictor\": null, \"enable_categorical\": false, \"classes_\": [0, 1], \"n_classes_\": 2, \"_le\": {\"classes_\": [0, 1]}, \"_estimator_type\": \"classifier\"}"},"feature_names":[],"feature_types":[],"gradient_booster":{"model":{"gbtree_model_param":{"num_trees":"100","size_leaf_vector":"0"},"tree_info":[0,0,0,0,0,0,0,0,0,0,0,0,0,0,0,0,0,0,0,0,0,0,0,0,0,0,0,0,0,0,0,0,0,0,0,0,0,0,0,0,0,0,0,0,0,0,0,0,0,0,0,0,0,0,0,0,0,0,0,0,0,0,0,0,0,0,0,0,0,0,0,0,0,0,0,0,0,0,0,0,0,0,0,0,0,0,0,0,0,0,0,0,0,0,0,0,0,0,0,0],"trees":[{"base_weights":[-1.6311666E0,-1.6476028E0,1.9921799E0,-1.3862679E0,-1.8046844E0,-1.2625391E0,-1.467435E0,-1.6676304E0,-1.8517371E0,-1.4016893E0,-1.2016112E0,-1.4794978E0,-5.7764876E-1,-1.6695807E0,-3.448276E-1,-1.862025E0,-1.5950739E0,-3.3333334E-1,-1.4036607E0,-1.2165275E0,-6.1928934E-1,-1.5665141E0,-1.4284275E0,-1.136E0,-4.5070422E-1,-1.6304053E0,-1.7321324E0,-9.4736844E-1,-4.6511628E-2,-1.8156475E0,-1.8902687E0,-1.6150376E0,-4.3243244E-1,-6E-1,5E-1,-0E0,-1.4042134E0,-7.2817135E-1,-1.2296925E0,-4.5783132E-1,-7.283237E-1,-1.5269159E0,-1.6273053E0,-1.3758942E0,-1.5007885E0,-6.666667E-1,-1.2E0,1.0169491E-1,-5.1072127E-1,-1.6891553E0,-1.5883849E0,-1.7376468E0,-1.3819742E0,6.666667E-1,-3.75E-1,-1.784447E0,-1.8358903E0,-1.8905734E0,1.5384616E-1,-1.6764514E0,-1.4051725E0,3.3333334E-1,-5.4545456E-1],"categories":[],"categories_nodes":[],"categories_segments":[],"categories_sizes":[],"default_left":[true,true,false,true,true,true,true,true,true,true,true,true,true,true,true,true,true,true,true,true,true,true,true,true,true,true,true,false,true,true,true,true,true,false,false,false,false,false,false,false,false,false,false,false,false,false,false,false,false,false,false,false,false,false,false,false,false,false,false,false,false,false,false],"id":0,"left_children":[1,3,-1,5,7,9,11,13,15,17,19,21,23,25,27,29,31,33,35,37,39,41,43,45,47,49,51,-1,53,55,57,59,61,-1,-1,-1,-1,-1,-1,-1,-1,-1,-1,-1,-1,-1,-1,-1,-1,-1,-1,-1,-1,-1,-1,-1,-1,-1,-1,-1,-1,-1,-1],"loss_changes":[3.3701875E3,2.3078594E3,0E0,2.103789E2,2.2357031E2,6.935254E1,1.3605078E2,2.2625E1,6.609375E1,4.8935547E0,4.992285E1,5.3685547E1,1.1697014E1,1.918164E1,2.562276E0,2.95E1,2.2860596E1,1.6333332E0,1.9711914E0,3.56709E1,2.2676125E0,8.693359E0,2.8123047E1,1.3866806E-1,4.759712E0,1.0990234E1,4.245117E0,0E0,2.7684107E0,2.7519531E0,1.0011719E1,1.0500488E1,1.782965E0,0E0,0E0,0E0,0E0,0E0,0E0,0E0,0E0,0E0,0E0,0E0,0E0,0E0,0E0,0E0,0E0,0E0,0E0,0E0,0E0,0E0,0E0,0E0,0E0,0E0,0E0,0E0,0E0,0E0,0E0],"parents":[2147483647,0,0,1,1,3,3,4,4,5,5,6,6,7,7,8,8,9,9,10,10,11,11,12,12,13,13,14,14,15,15,16,16,17,17,18,18,19,19,20,20,21,21,22,22,23,23,24,24,25,25,26,26,28,28,29,29,30,30,31,31,32,32],"right_children":[2,4,-1,6,8,10,12,14,16,18,20,22,24,26,28,30,32,34,36,38,40,42,44,46,48,50,52,-1,54,56,58,60,62,-1,-1,-1,-1,-1,-1,-1,-1,-1,-1,-1,-1,-1,-1,-1,-1,-1,-1,-1,-1,-1,-1,-1,-1,-1,-1,-1,-1,-1,-1],"split_conditions":[5E-1,1.3172731E-1,5.97654E-1,5.7223678E-2,1.8531132E-1,1.875E-1,9.061131E-1,9.060087E-1,8.250016E-1,1.0463733E-2,7.996036E-1,1.875E-1,6.638415E-2,1.6536304E-1,1.357727E-1,2.4315453E-1,8.0575836E-1,4.884206E-1,1.1475068E-3,1.9311953E-2,4.20342E-2,1.0168128E-1,9.719567E-2,5.862401E-2,6.882569E-2,1.875E-1,7.5067806E-1,-2.8421053E-1,1.4316446E-1,2.0676644E-1,9.061131E-1,5E-1,8.4859943E-1,-1.8E-1,1.5E-1,-0E0,-4.2126405E-1,-2.1845141E-1,-3.6890775E-1,-1.373494E-1,-2.1849711E-1,-4.5807478E-1,-4.881916E-1,-4.1276827E-1,-4.5023656E-1,-2.0000002E-1,-3.6E-1,3.0508475E-2,-1.5321639E-1,-5.0674665E-1,-4.7651547E-1,-5.2129406E-1,-4.145923E-1,2.0000002E-1,-1.12500004E-1,-5.353341E-1,-5.507671E-1,-5.6717205E-1,4.615385E-2,-5.0293547E-1,-4.2155176E-1,1.0000001E-1,-1.6363637E-1],"split_indices":[3,2,0,2,2,4,0,0,2,2,0,4,2,2,2,2,0,0,0,2,2,2,2,2,2,4,0,0,2,2,0,5,2,0,0,0,0,0,0,0,0,0,0,0,0,0,0,0,0,0,0,0,0,0,0,0,0,0,0,0,0,0,0],"split_type":[0,0,0,0,0,0,0,0,0,0,0,0,0,0,0,0,0,0,0,0,0,0,0,0,0,0,0,0,0,0,0,0,0,0,0,0,0,0,0,0,0,0,0,0,0,0,0,0,0,0,0,0,0,0,0,0,0,0,0,0,0,0,0],"sum_hessian":[5.6534E4,5.627925E4,2.5475E2,2.1132E4,3.514725E4,8.37775E3,1.275425E4,8.992E3,2.615525E4,2.5445E3,5.83325E3,1.2583E4,1.7125E2,8.9785E3,1.35E1,2.514125E4,1.014E3,5E0,2.5395E3,5.6865E3,1.4675E2,4.64275E3,7.94025E3,3.025E1,1.41E2,5.5375E3,3.441E3,3.75E0,9.75E0,9.5405E3,1.560075E4,9.965E2,1.75E1,4E0,1E0,1E0,2.5385E3,1.5075E2,5.53575E3,6.125E1,8.55E1,2.82725E3,1.8155E3,4.612E3,3.32825E3,5E0,2.525E1,1.375E1,1.2725E2,2.29275E3,3.24475E3,3.38375E3,5.725E1,2.75E0,7E0,3.78925E3,5.75125E3,1.55985E4,2.25E0,7.655E2,2.31E2,2E0,1.55E1],"tree_param":{"num_deleted":"0","num_feature":"6","num_nodes":"63","size_leaf_vector":"0"}},{"base_weights":[-1.2255683E0,-1.2378047E0,1.5434846E0,-1.0217313E0,-1.3735807E0,-9.1114444E-1,-1.0826772E0,-1.2469438E0,-1.4116182E0,-9.924052E-1,-8.399679E-1,-1.0924947E0,-4.0094373E-1,-1.2536571E0,-9.244279E-1,-1.4202754E0,-1.1931553E0,-6.4813775E-1,-9.978253E-1,-8.522276E-1,-4.173702E-1,-1.1416605E0,-1.02689E0,-4.210343E-1,8.786527E-1,-1.2996448E0,-1.2197018E0,-9.847246E-1,-2.5757274E-1,-1.3720645E0,-1.44564E0,-1.2140768E0,-4.1659638E-1,-6.77158E-1,3.5069188E-1,-1.0272352E0,-9.441824E-1,-2.8165227E-1,-8.618916E-1,-3.1919056E-1,-6.384384E-1,-1.1064183E0,-1.2003021E0,-9.488151E-1,-1.0661868E0,-3.647347E-1,-7.523769E-1,-1.2787858E0,-1.3693453E0,-1.3269866E0,-1.199334E0,2.6549262E-1,-1.0183371E0,-7.3606867E-1,-2.4438139E-2,-1.3745915E0,-1.123307E0,-1.4468493E0,-1.0331877E0,-1.1549819E0,-1.4315417E0,7.7767193E-1,-5.77715E-1],"categories":[],"categories_nodes":[],"categories_segments":[],"categories_sizes":[],"default_left":[true,true,false,true,true,true,true,true,true,true,true,true,true,true,true,true,true,true,true,true,true,true,true,true,false,true,true,true,true,true,true,true,true,false,false,false,false,false,false,false,false,false,false,false,false,false,false,false,false,false,false,false,false,false,false,false,false,false,false,false,false,false,false],"id":1,"left_children":[1,3,-1,5,7,9,11,13,15,17,19,21,23,25,27,29,31,33,35,37,39,41,43,45,-1,47,49,51,53,55,57,59,61,-1,-1,-1,-1,-1,-1,-1,-1,-1,-1,-1,-1,-1,-1,-1,-1,-1,-1,-1,-1,-1,-1,-1,-1,-1,-1,-1,-1,-1,-1],"loss_changes":[1.802875E3,1.5511094E3,0E0,1.3667383E2,1.5476953E2,4.1176758E1,8.765723E1,1.5111328E1,4.555078E1,5.6713867E0,1.9738037E1,4.0679688E1,5.214308E0,9.905273E0,6.060623E0,2.7394531E1,1.506665E1,1.8414326E0,4.286133E0,2.0534912E1,2.2119637E0,1.3981445E1,1.6072266E1,3.1990852E0,0E0,2.770996E0,7.6933594E0,6.307358E0,1.585696E0,3.6748047E0,6.3515625E0,1.0334351E1,5.580669E0,0E0,0E0,0E0,0E0,0E0,0E0,0E0,0E0,0E0,0E0,0E0,0E0,0E0,0E0,0E0,0E0,0E0,0E0,0E0,0E0,0E0,0E0,0E0,0E0,0E0,0E0,0E0,0E0,0E0,0E0],"parents":[2147483647,0,0,1,1,3,3,4,4,5,5,6,6,7,7,8,8,9,9,10,10,11,11,12,12,13,13,14,14,15,15,16,16,17,17,18,18,19,19,20,20,21,21,22,22,23,23,25,25,26,26,27,27,28,28,29,29,30,30,31,31,32,32],"right_children":[2,4,-1,6,8,10,12,14,16,18,20,22,24,26,28,30,32,34,36,38,40,42,44,46,-1,48,50,52,54,56,58,60,62,-1,-1,-1,-1,-1,-1,-1,-1,-1,-1,-1,-1,-1,-1,-1,-1,-1,-1,-1,-1,-1,-1,-1,-1,-1,-1,-1,-1,-1,-1],"split_conditions":[5E-1,1.3278747E-1,4.630454E-1,5.374828E-2,1.8083216E-1,4.375E-1,9.061131E-1,7.5067806E-1,8.250016E-1,1.7646842E-2,8.1066144E-1,4.375E-1,1.284966E-1,1.875E-1,9.060087E-1,2.3354131E-1,7.779053E-1,7.299186E-1,1.875E-1,1.5635164E-2,8.125E-1,1.0168128E-1,7.366357E-2,1.0966013E-1,2.6359582E-1,1.7062911E-1,1.2674734E-1,7.551638E-1,1.357727E-1,7.660129E-1,7.806176E-1,9.1730094E-1,7.847903E-1,-2.0314741E-1,1.0520757E-1,-3.0817056E-1,-2.8325474E-1,-8.4495686E-2,-2.585675E-1,-9.575717E-2,-1.9153152E-1,-3.3192548E-1,-3.6009064E-1,-2.8464454E-1,-3.1985605E-1,-1.0942042E-1,-2.2571309E-1,-3.8363576E-1,-4.1080362E-1,-3.98096E-1,-3.5980022E-1,7.964779E-2,-3.0550116E-1,-2.208206E-1,-7.331442E-3,-4.1237745E-1,-3.369921E-1,-4.3405482E-1,-3.0995634E-1,-3.4649456E-1,-4.2946252E-1,2.333016E-1,-1.733145E-1],"split_indices":[3,2,0,2,2,4,0,0,2,2,0,4,2,4,0,2,0,0,4,2,4,2,2,2,0,2,0,0,2,0,0,2,0,0,0,0,0,0,0,0,0,0,0,0,0,0,0,0,0,0,0,0,0,0,0,0,0,0,0,0,0,0,0],"split_type":[0,0,0,0,0,0,0,0,0,0,0,0,0,0,0,0,0,0,0,0,0,0,0,0,0,0,0,0,0,0,0,0,0,0,0,0,0,0,0,0,0,0,0,0,0,0,0,0,0,0,0,0,0,0,0,0,0,0,0,0,0,0,0],"sum_hessian":[5.315126E4,5.2917973E4,2.3329024E2,2.0423926E4,3.2494049E4,7.2623345E3,1.316159E4,7.5134966E3,2.498055E4,3.384911E3,3.8774238E3,1.2974151E4,1.8743936E2,7.3574614E3,1.5603537E2,2.4023062E4,9.574884E2,5.43351E1,3.3305757E3,3.7671216E3,1.1030217E2,7.4068594E3,5.5672915E3,1.8520251E2,2.2368467E0,3.10921E3,4.2482515E3,1.426595E2,1.3375861E1,8.300715E3,1.5722349E4,9.3182056E2,2.566785E1,5.311396E1,1.221138E0,2.1394639E3,1.1911118E3,6.3244278E1,3.7038774E3,7.807277E1,3.22294E1,4.6388726E3,2.7679866E3,1.8723779E3,3.6949136E3,1.6010011E2,2.510239E1,2.4079407E3,7.012693E2,6.675969E2,3.5806545E3,3.554414E0,1.3910509E2,3.6752808E0,9.700581E0,8.212761E3,8.79543E1,1.567388E4,4.8469074E1,7.376732E2,1.9414734E2,2.5963173E0,2.3071533E1],"tree_param":{"num_deleted":"0","num_feature":"6","num_nodes":"63","size_leaf_vector":"0"}},{"base_weights":[-9.940569E-1,-8.1699675E-1,-1.1562369E0,-8.2241774E-1,1.3226639E0,-1.1704502E0,1.3365635E0,-7.5573635E-1,-9.4515795E-1,-1.0885233E0,-1.2012691E0,-8.246718E-1,-6.853352E-1,-9.5460385E-1,-6.2131375E-1,-1.0301787E0,-1.1062452E0,-1.2158026E0,-9.8714465E-1,-7.466995E-1,-8.6260974E-1,-7.0098454E-1,-2.9417205E-1,-1.016277E0,-9.1383415E-1,-6.412326E-1,3.313825E-1,-1.0340871E0,-5.778576E-1,-1.106655E0,2.1977937E-1,-1.1950569E0,-1.268971E0,-1.0828717E0,-8.4119415E-1,-7.8540033E-1,-6.7633325E-1,-8.6881137E-1,-4.9786648E-1,-6.251426E-1,-7.507616E-1,-3.5930607E-1,3.454755E-1,-1.1302681E0,-1.0073549E0,-9.155099E-1,3.1790298E-1,-7.173463E-1,-3.6246508E-1,-1.6023865E-1,1.1703414E0,-9.9423635E-1,-1.0534136E0,4.245934E-1,-7.9089123E-1,-1.1498616E0,-1.0953153E0,-1.1966339E0,-8.4666973E-1,-1.2696496E0,-3.962439E-1,-1.0397383E0,-1.2567654E0,-8.7718594E-1,-1.7981663E-1],"categories":[],"categories_nodes":[],"categories_segments":[],"categories_sizes":[],"default_left":[true,true,true,true,false,true,false,true,true,true,true,true,true,true,true,true,true,true,true,true,true,true,true,true,true,true,true,true,true,true,false,true,true,true,true,false,false,false,false,false,false,false,false,false,false,false,false,false,false,false,false,false,false,false,false,false,false,false,false,false,false,false,false,false,false],"id":2,"left_children":[1,3,5,7,-1,9,-1,11,13,15,17,19,21,23,25,27,29,31,33,35,37,39,41,43,45,47,49,51,53,55,-1,57,59,61,63,-1,-1,-1,-1,-1,-1,-1,-1,-1,-1,-1,-1,-1,-1,-1,-1,-1,-1,-1,-1,-1,-1,-1,-1,-1,-1,-1,-1,-1,-1],"loss_changes":[1.3484219E3,2.6169922E2,8.7046094E2,1.827168E2,0E0,6.026172E1,0E0,6.993848E1,2.3529297E1,5.763672E0,5.391211E1,2.10542E1,4.3826416E1,1.8332031E1,4.50795E0,2.1779785E0,3.0185547E0,1.6771484E1,1.4890015E1,6.0270996E0,1.07146E1,2.563916E1,1.172444E1,1.9528809E0,9.830078E0,4.4516525E0,2.3714433E0,1.5039062E-1,3.6921277E0,1.2421875E0,0E0,5.548828E0,2.243164E0,3.789978E0,1.0612244E1,0E0,0E0,0E0,0E0,0E0,0E0,0E0,0E0,0E0,0E0,0E0,0E0,0E0,0E0,0E0,0E0,0E0,0E0,0E0,0E0,0E0,0E0,0E0,0E0,0E0,0E0,0E0,0E0,0E0,0E0],"parents":[2147483647,0,0,1,1,2,2,3,3,5,5,7,7,8,8,9,9,10,10,11,11,12,12,13,13,14,14,15,15,16,16,17,17,18,18,19,19,20,20,21,21,22,22,23,23,24,24,25,25,26,26,27,27,28,28,29,29,31,31,32,32,33,33,34,34],"right_children":[2,4,6,8,-1,10,-1,12,14,16,18,20,22,24,26,28,30,32,34,36,38,40,42,44,46,48,50,52,54,56,-1,58,60,62,64,-1,-1,-1,-1,-1,-1,-1,-1,-1,-1,-1,-1,-1,-1,-1,-1,-1,-1,-1,-1,-1,-1,-1,-1,-1,-1,-1,-1,-1,-1],"split_conditions":[1.5925597E-1,5E-1,5E-1,1.0168128E-1,3.9679918E-1,2.0676644E-1,4.0096906E-1,4.375E-1,7.48696E-1,1.7082697E-1,7.704966E-1,4.845398E-2,8.029418E-1,1.875E-1,1.5819475E-1,7.824953E-1,9.061131E-1,3.0616313E-1,4.375E-1,1.875E-1,7.551638E-1,4.7565445E-2,9.2789516E-2,5.455873E-2,9.375E-1,9.061131E-1,7.9511786E-1,1.6339284E-1,7.8625077E-1,6.25E-2,6.5933816E-2,7.768621E-1,8.021072E-1,9.123212E-1,7.779053E-1,-2.3562011E-1,-2.0289998E-1,-2.6064342E-1,-1.4935996E-1,-1.8754278E-1,-2.252285E-1,-1.07791826E-1,1.0364265E-1,-3.3908045E-1,-3.0220646E-1,-2.74653E-1,9.5370896E-2,-2.152039E-1,-1.0873953E-1,-4.8071597E-2,3.511024E-1,-2.982709E-1,-3.160241E-1,1.2737802E-1,-2.3726737E-1,-3.4495848E-1,-3.2859462E-1,-3.589902E-1,-2.5400093E-1,-3.808949E-1,-1.1887317E-1,-3.119215E-1,-3.7702963E-1,-2.631558E-1,-5.3944994E-2],"split_indices":[2,3,3,2,0,2,0,4,0,2,2,2,0,4,2,0,0,2,4,4,0,2,2,0,4,0,0,2,0,4,0,0,0,2,0,0,0,0,0,0,0,0,0,0,0,0,0,0,0,0,0,0,0,0,0,0,0,0,0,0,0,0,0,0,0],"split_type":[0,0,0,0,0,0,0,0,0,0,0,0,0,0,0,0,0,0,0,0,0,0,0,0,0,0,0,0,0,0,0,0,0,0,0,0,0,0,0,0,0,0,0,0,0,0,0,0,0,0,0,0,0,0,0,0,0,0,0,0,0,0,0,0,0],"sum_hessian":[4.6989742E4,2.2467201E4,2.4522543E4,2.2411035E4,5.6164703E1,2.4384041E4,1.3850139E2,1.4526396E4,7.8846396E3,6.675264E3,1.7708777E4,7.334186E3,7.1922104E3,7.6592847E3,2.2535452E2,1.5689742E3,5.1062896E3,1.6578834E4,1.1299432E3,2.4072803E3,4.926906E3,6.9147773E3,2.7743314E2,3.0386838E3,4.620601E3,2.2105956E2,4.294969E0,1.5542579E3,1.4716365E1,5.1048774E3,1.4121804E0,1.1942507E4,4.636327E3,6.785027E2,4.514406E2,1.5465369E3,8.6074335E2,4.8431763E3,8.372929E1,2.7453826E3,4.169395E3,2.5219128E2,2.5241856E1,2.1144899E2,2.8272349E3,4.61458E3,6.0211616E0,1.7241164E2,4.8647915E1,3.2181623E0,1.0768068E0,5.247282E2,1.0295297E3,2.40523E0,1.2311135E1,1.0403823E3,4.064495E3,1.1886265E4,5.6241875E1,4.6322705E3,4.0566297E0,5.492446E2,1.2925803E2,4.2783194E2,2.3608688E1],"tree_param":{"num_deleted":"0","num_feature":"6","num_nodes":"65","size_leaf_vector":"0"}},{"base_weights":[-8.264452E-1,-6.505921E-1,-1.0088761E0,-5.8428884E-1,-7.6970375E-1,-1.0213231E0,1.2207979E0,-5.881592E-1,1.1907986E0,-7.7430505E-1,1.1643223E0,-9.325276E-1,-1.0528753E0,-6.8341076E-1,-5.441634E-1,-8.1743556E-1,-7.09765E-1,-9.372529E-1,-6.5485746E-1,-1.0674523E0,-7.7972245E-1,-6.1989665E-1,-7.330428E-1,-5.577041E-1,-2.8304082E-1,-7.8238434E-1,-8.470126E-1,-7.2336173E-1,-4.2905688E-1,-9.1034883E-1,-9.642841E-1,-6.871153E-1,5.542936E-1,-1.0351893E0,-1.1027077E0,-9.4863915E-1,-6.628819E-1,1.0830466E-1,-6.217816E-1,-7.3884743E-1,-3.299568E-1,-5.136897E-1,-6.3255125E-1,-3.9165074E-1,-1.9581412E-1,-8.5439986E-1,-7.4930644E-1,-8.6835504E-1,-7.833166E-1,-7.25874E-1,3.3784303E-1,-2.9326287E-1,-7.339155E-1,-9.799402E-1,-8.9189184E-1,-9.569296E-1,-1.0372295E0,-3.4582284E-1,-7.995536E-1,-1.0906516E0,-1.0211724E0,-1.1044184E0,-4.3235636E-1,-8.703392E-1,-1.1483437E0,-7.0915306E-1,-1.6674925E-1],"categories":[],"categories_nodes":[],"categories_segments":[],"categories_sizes":[],"default_left":[true,true,true,true,true,true,false,true,false,true,false,true,true,true,true,true,true,true,true,true,true,true,true,true,true,true,true,true,true,true,true,true,false,true,true,true,true,false,false,false,false,false,false,false,false,false,false,false,false,false,false,false,false,false,false,false,false,false,false,false,false,false,false,false,false,false,false],"id":3,"left_children":[1,3,5,7,9,11,-1,13,-1,15,-1,17,19,21,23,25,27,29,31,33,35,37,39,41,43,45,47,49,51,53,55,57,-1,59,61,63,65,-1,-1,-1,-1,-1,-1,-1,-1,-1,-1,-1,-1,-1,-1,-1,-1,-1,-1,-1,-1,-1,-1,-1,-1,-1,-1,-1,-1,-1,-1],"loss_changes":[1.3064824E3,1.6341797E2,5.56209E2,9.23042E1,6.690234E1,5.4734375E1,0E0,5.538623E1,0E0,2.0018066E1,0E0,6.2382812E0,5.755957E1,1.2785156E1,3.204004E1,3.928955E0,1.1031982E1,2.8549805E0,3.9187622E0,1.469043E1,1.4107452E1,2.6050415E0,5.2597656E0,2.8192139E1,4.195606E0,4.2192383E0,2.5687256E0,7.7979736E0,5.570158E0,2.453125E0,3.7182617E-1,3.1309128E0,0E0,4.548828E0,7.131836E0,3.7380981E0,1.0090195E1,0E0,0E0,0E0,0E0,0E0,0E0,0E0,0E0,0E0,0E0,0E0,0E0,0E0,0E0,0E0,0E0,0E0,0E0,0E0,0E0,0E0,0E0,0E0,0E0,0E0,0E0,0E0,0E0,0E0,0E0],"parents":[2147483647,0,0,1,1,2,2,3,3,4,4,5,5,7,7,9,9,11,11,12,12,13,13,14,14,15,15,16,16,17,17,18,18,19,19,20,20,21,21,22,22,23,23,24,24,25,25,26,26,27,27,28,28,29,29,30,30,31,31,33,33,34,34,35,35,36,36],"right_children":[2,4,6,8,10,12,-1,14,-1,16,-1,18,20,22,24,26,28,30,32,34,36,38,40,42,44,46,48,50,52,54,56,58,-1,60,62,64,66,-1,-1,-1,-1,-1,-1,-1,-1,-1,-1,-1,-1,-1,-1,-1,-1,-1,-1,-1,-1,-1,-1,-1,-1,-1,-1,-1,-1,-1,-1],"split_conditions":[1.6339284E-1,1.0168128E-1,5E-1,5E-1,5E-1,2.0676644E-1,3.6623937E-1,1.875E-1,3.572396E-1,4.375E-1,3.492967E-1,7.5067806E-1,8.250016E-1,5.4552954E-2,7.55581E-1,1.3127044E-1,7.470269E-1,1.8531132E-1,9.061131E-1,2.7989447E-1,1.875E-1,1.0463733E-2,7.5985813E-1,6.3858666E-2,9.061131E-1,2.4233258E-1,1.5527391E-1,9.375E-1,1.3961127E-1,6.25E-2,6.771333E-1,7.676821E-1,1.6628808E-1,6.25E-2,7.8124344E-1,9.121754E-1,7.2741497E-1,3.2491397E-2,-1.8653448E-1,-2.2165424E-1,-9.898704E-2,-1.5410691E-1,-1.8976538E-1,-1.17495224E-1,-5.8744237E-2,-2.5631997E-1,-2.2479194E-1,-2.605065E-1,-2.34995E-1,-2.1776222E-1,1.01352915E-1,-8.797886E-2,-2.2017466E-1,-2.9398206E-1,-2.6756757E-1,-2.870789E-1,-3.1116888E-1,-1.03746854E-1,-2.3986608E-1,-3.271955E-1,-3.0635172E-1,-3.3132553E-1,-1.2970692E-1,-2.6110178E-1,-3.445031E-1,-2.1274592E-1,-5.0024778E-2],"split_indices":[2,2,3,3,3,2,0,4,0,4,0,0,2,2,0,2,0,2,0,2,4,2,0,2,0,0,2,4,2,4,0,0,0,4,0,2,0,0,0,0,0,0,0,0,0,0,0,0,0,0,0,0,0,0,0,0,0,0,0,0,0,0,0,0,0,0,0],"split_type":[0,0,0,0,0,0,0,0,0,0,0,0,0,0,0,0,0,0,0,0,0,0,0,0,0,0,0,0,0,0,0,0,0,0,0,0,0,0,0,0,0,0,0,0,0,0,0,0,0,0,0,0,0,0,0,0,0,0,0,0,0,0,0,0,0,0,0],"sum_hessian":[4.0743914E4,2.0748287E4,1.9995625E4,1.3332616E4,7.415671E3,1.988516E4,1.1046605E2,1.3304276E4,2.833937E1,7.398668E3,1.7002827E1,5.2214014E3,1.4663758E4,4.198948E3,9.105328E3,4.4279272E3,2.9707407E3,5.131697E3,8.970463E1,1.3918099E4,7.4565936E2,1.8478043E3,2.351144E3,8.655363E3,4.499648E2,2.0390001E3,2.388927E3,2.8319902E3,1.3875047E2,2.5892815E3,2.5424153E3,8.779418E1,1.9104447E0,7.283329E3,6.6347695E3,3.0197458E2,4.4368475E2,4.6248527E0,1.8431796E3,2.3169456E3,3.4198414E1,5.455238E3,3.2001255E3,1.9886229E2,2.5110252E2,6.3395526E2,1.4050449E3,1.7799062E3,6.090208E2,2.825617E3,6.3732104E0,9.73497E1,4.140078E1,5.3185376E2,2.0574277E3,2.3223865E3,2.2002863E2,2.276611E1,6.5028076E1,1.4538583E3,5.829471E3,6.617236E3,1.7533945E1,2.2077248E2,8.1202095E1,4.054424E2,3.8242367E1],"tree_param":{"num_deleted":"0","num_feature":"6","num_nodes":"67","size_leaf_vector":"0"}},{"base_weights":[-6.8890506E-1,-5.154282E-1,-8.9105946E-1,-4.5470083E-1,-6.3542587E-1,-9.0193176E-1,1.1473926E0,-4.5767212E-1,1.1147355E0,-6.3908726E-1,1.0806589E0,-8.050577E-1,-9.374155E-1,-5.189146E-1,-3.976383E-1,-7.0688546E-1,-5.9652096E-1,-8.0934787E-1,-5.6455314E-1,-9.5766956E-1,-6.7357945E-1,-4.2368156E-1,-5.4582006E-1,-7.361993E-2,-4.0839177E-1,-7.104475E-1,-2.5404222E-2,-6.071819E-1,-3.381423E-1,-7.836261E-1,-8.4267277E-1,1.9115895E-1,-6.211478E-1,-9.293979E-1,-1.0309725E0,-7.7808297E-1,-5.2776897E-1,-1.46068E-1,-4.331011E-1,-6.054225E-1,-5.18883E-1,4.1260466E-1,-1.17595196E-1,-4.2596203E-1,-2.3932798E-1,-6.730549E-1,-7.401578E-1,-4.1045833E-1,3.4961402E-1,-7.4322253E-1,-5.907568E-1,-3.59577E-1,6.582627E-1,-8.4036535E-1,-7.627647E-1,-9.492422E-1,-8.360113E-1,7.4038404E-1,-2.458791E-1,-8.45399E-3,-6.6191334E-1,-9.3155736E-1,-5.0509185E-1,-1.0413983E0,-9.206272E-1,-7.276943E-1,-9.974618E-1,-6.917679E-1,-4.142747E-1],"categories":[],"categories_nodes":[],"categories_segments":[],"categories_sizes":[],"default_left":[true,true,true,true,true,true,false,true,false,true,false,true,true,true,true,true,true,true,true,true,true,true,true,true,true,true,true,true,true,true,true,true,true,true,true,true,true,false,false,false,false,false,false,false,false,false,false,false,false,false,false,false,false,false,false,false,false,false,false,false,false,false,false,false,false,false,false,false,false],"id":4,"left_children":[1,3,5,7,9,11,-1,13,-1,15,-1,17,19,21,23,25,27,29,31,33,35,37,39,41,43,45,47,49,51,53,55,57,59,61,63,65,67,-1,-1,-1,-1,-1,-1,-1,-1,-1,-1,-1,-1,-1,-1,-1,-1,-1,-1,-1,-1,-1,-1,-1,-1,-1,-1,-1,-1,-1,-1,-1,-1],"loss_changes":[1.2371895E3,1.381333E2,3.6222656E2,5.9341797E1,4.0779785E1,5.4970703E1,0E0,4.6093018E1,0E0,1.7954102E1,0E0,4.034912E0,6.2728516E1,1.5733032E1,2.2142456E1,5.930298E0,1.0586914E1,3.003662E0,3.5231209E0,2.1861328E1,1.252417E1,3.5374603E0,7.4797363E0,4.4452157E0,1.8192993E1,2.209961E0,2.1331666E0,7.9656982E0,3.600727E0,2.2314453E0,5.1904297E-1,1.6967546E0,1.8498917E0,6.819824E0,2.5566406E0,4.716858E0,6.367592E0,0E0,0E0,0E0,0E0,0E0,0E0,0E0,0E0,0E0,0E0,0E0,0E0,0E0,0E0,0E0,0E0,0E0,0E0,0E0,0E0,0E0,0E0,0E0,0E0,0E0,0E0,0E0,0E0,0E0,0E0,0E0,0E0],"parents":[2147483647,0,0,1,1,2,2,3,3,4,4,5,5,7,7,9,9,11,11,12,12,13,13,14,14,15,15,16,16,17,17,18,18,19,19,20,20,21,21,22,22,23,23,24,24,25,25,26,26,27,27,28,28,29,29,30,30,31,31,32,32,33,33,34,34,35,35,36,36],"right_children":[2,4,6,8,10,12,-1,14,-1,16,-1,18,20,22,24,26,28,30,32,34,36,38,40,42,44,46,48,50,52,54,56,58,60,62,64,66,68,-1,-1,-1,-1,-1,-1,-1,-1,-1,-1,-1,-1,-1,-1,-1,-1,-1,-1,-1,-1,-1,-1,-1,-1,-1,-1,-1,-1,-1,-1,-1,-1],"split_conditions":[1.6536304E-1,1.0480255E-1,5E-1,5E-1,5E-1,2.0847166E-1,3.442178E-1,4.375E-1,3.3442065E-1,1.875E-1,3.2419768E-1,7.5067806E-1,7.704966E-1,4.20342E-2,2.300081E-2,7.859378E-1,7.48696E-1,1.8979633E-1,6.25E-2,3.0616313E-1,4.375E-1,1.7646842E-2,6.25E-2,1.0463733E-2,7.2637177E-1,1.329884E-1,1.3318847E-1,8.814938E-2,1.6318598E-1,2.0018777E-1,4.5587316E-2,1.8028775E-1,7.5829333E-1,7.768621E-1,6.738875E-1,9.123212E-1,8.637525E-1,-4.3820404E-2,-1.2993033E-1,-1.8162675E-1,-1.556649E-1,1.23781405E-1,-3.527856E-2,-1.2778862E-1,-7.17984E-2,-2.0191647E-1,-2.2204734E-1,-1.23137504E-1,1.04884215E-1,-2.2296678E-1,-1.7722704E-1,-1.07873105E-1,1.9747883E-1,-2.5210962E-1,-2.2882941E-1,-2.8477266E-1,-2.508034E-1,2.2211522E-1,-7.3763736E-2,-2.5361972E-3,-1.98574E-1,-2.7946723E-1,-1.5152755E-1,-3.124195E-1,-2.7618816E-1,-2.1830828E-1,-2.9923856E-1,-2.0753036E-1,-1.2428241E-1],"split_indices":[2,2,3,3,3,2,0,4,0,4,0,0,2,2,2,0,0,2,4,2,4,2,4,2,0,2,2,0,2,0,0,2,0,0,2,2,2,0,0,0,0,0,0,0,0,0,0,0,0,0,0,0,0,0,0,0,0,0,0,0,0,0,0,0,0,0,0,0,0],"split_type":[0,0,0,0,0,0,0,0,0,0,0,0,0,0,0,0,0,0,0,0,0,0,0,0,0,0,0,0,0,0,0,0,0,0,0,0,0,0,0,0,0,0,0,0,0,0,0,0,0,0,0,0,0,0,0,0,0,0,0,0,0,0,0,0,0,0,0,0,0],"sum_hessian":[3.5290734E4,1.899441E4,1.6296324E4,1.2615076E4,6.379333E3,1.6210422E4,8.5902374E1,1.2591945E4,2.3130814E1,6.3663774E3,1.2955512E1,4.352193E3,1.1858229E4,6.229443E3,6.362503E3,2.44942E3,3.9169573E3,4.273594E3,7.859882E1,1.101036E4,8.4786865E2,1.375952E3,4.8534907E3,2.046274E2,6.1578755E3,2.4366414E3,1.2778619E1,3.7604478E3,1.5650945E2,2.425776E3,1.8478181E3,5.3104424E0,7.328838E1,7.9556797E3,3.0546804E3,4.9136618E2,3.5650244E2,4.5696194E1,1.3302559E3,1.5040569E3,3.349434E3,1.627672E1,1.8835068E2,5.5767793E3,5.8109607E2,1.0893141E3,1.3473273E3,6.258319E0,6.5203E0,4.0034525E2,3.3601025E3,1.5383917E2,2.6702683E0,6.415617E2,1.7842142E3,1.0038437E2,1.7474338E3,2.04562E0,3.2648225E0,4.64736E0,6.864102E1,7.9142065E3,4.1473503E1,2.7832708E3,2.7140952E2,4.0309668E2,8.8269485E1,1.4372507E2,2.1277739E2],"tree_param":{"num_deleted":"0","num_feature":"6","num_nodes":"69","size_leaf_vector":"0"}},{"base_weights":[-5.6882316E-1,-4.0181392E-1,-7.8456926E-1,-3.3247045E-1,-4.902774E-1,-7.9394144E-1,1.0973366E0,-4.157409E-1,-2.9734722E-1,-4.9324664E-1,1.0439454E0,-6.837827E-1,-8.3400714E-1,-4.1797504E-1,9.021796E-1,-2.993733E-1,1.0133705E0,-4.9891004E-1,2.8119495E-2,-6.8804926E-1,-4.1552722E-1,-8.570873E-1,-5.5240446E-1,-3.7131158E-1,-4.7239503E-1,-1.3469964E-1,-3.1413057E-1,-5.590166E-1,-4.6286467E-1,-3.413404E-1,1.0124061E-1,-6.4703417E-1,-7.126557E-1,2.4064304E-1,-5.1319987E-1,-8.3315605E-1,-9.7872263E-1,-7.0221734E-1,-4.5514712E-1,-4.0607575E-1,-3.1721345E-1,-4.9441692E-1,-2.7205887E-1,2.2189577E-1,-1.6079785E-1,-3.238137E-1,-1.4413033E-1,-5.6552887E-1,-1.4638816E-1,-4.090782E-1,-5.1081336E-1,-5.859348E-1,2.9625314E-1,5.37789E-1,-8.830755E-2,-6.9753784E-1,-6.0887533E-1,-8.477749E-1,-7.0607495E-1,1.5860626E0,-2.0966011E-1,2.3014188E-1,-5.7732266E-1,-7.818786E-1,-8.593854E-1,-1.0083903E0,-8.267604E-1,-6.421323E-1,-9.556056E-1,-4.9809304E-1,-1.717414E-2],"categories":[],"categories_nodes":[],"categories_segments":[],"categories_sizes":[],"default_left":[true,true,true,true,true,true,false,true,true,true,false,true,true,true,false,true,false,true,true,true,true,true,true,true,true,true,true,true,true,true,true,true,true,true,true,true,true,true,true,false,false,false,false,false,false,false,false,false,false,false,false,false,false,false,false,false,false,false,false,false,false,false,false,false,false,false,false,false,false,false,false],"id":5,"left_children":[1,3,5,7,9,11,-1,13,15,17,-1,19,21,23,-1,25,-1,27,29,31,33,35,37,39,41,43,45,47,49,51,53,55,57,59,61,63,65,67,69,-1,-1,-1,-1,-1,-1,-1,-1,-1,-1,-1,-1,-1,-1,-1,-1,-1,-1,-1,-1,-1,-1,-1,-1,-1,-1,-1,-1,-1,-1,-1,-1],"loss_changes":[1.1111123E3,1.0650635E2,2.382373E2,2.8395264E1,3.53136E1,5.8536133E1,0E0,8.8871765E0,1.8525513E1,2.2527954E1,0E0,3.8084717E0,6.3322754E1,7.153473E0,0E0,1.6608643E1,0E0,1.6083496E1,2.2736428E0,3.0910645E0,3.8746576E0,2.5587402E1,1.0555267E1,2.8020782E0,5.727051E0,5.29648E0,1.0303528E1,7.5026855E0,1.1966553E1,2.3447661E0,5.836461E0,2.1397095E0,1.3487549E0,5.3394036E0,2.576439E0,9.530762E0,5.863159E0,3.831421E0,8.557274E0,0E0,0E0,0E0,0E0,0E0,0E0,0E0,0E0,0E0,0E0,0E0,0E0,0E0,0E0,0E0,0E0,0E0,0E0,0E0,0E0,0E0,0E0,0E0,0E0,0E0,0E0,0E0,0E0,0E0,0E0,0E0,0E0],"parents":[2147483647,0,0,1,1,2,2,3,3,4,4,5,5,7,7,8,8,9,9,11,11,12,12,13,13,15,15,17,17,18,18,19,19,20,20,21,21,22,22,23,23,24,24,25,25,26,26,27,27,28,28,29,29,30,30,31,31,32,32,33,33,34,34,35,35,36,36,37,37,38,38],"right_children":[2,4,6,8,10,12,-1,14,16,18,-1,20,22,24,-1,26,-1,28,30,32,34,36,38,40,42,44,46,48,50,52,54,56,58,60,62,64,66,68,70,-1,-1,-1,-1,-1,-1,-1,-1,-1,-1,-1,-1,-1,-1,-1,-1,-1,-1,-1,-1,-1,-1,-1,-1,-1,-1,-1,-1,-1,-1,-1,-1],"split_conditions":[1.6536304E-1,8.533934E-2,5E-1,1.875E-1,5E-1,2.0676644E-1,3.29201E-1,5E-1,5E-1,9.061131E-1,3.1318364E-1,7.637179E-1,7.704966E-1,5.4552954E-2,2.706539E-1,2.889857E-2,3.0401117E-1,1.875E-1,9.2789516E-2,1.8083216E-1,7.676821E-1,3.281123E-1,1.875E-1,4.4742334E-1,8.287515E-2,1.268887E-2,7.55581E-1,7.533904E-1,1.21413834E-1,8.125E-1,1.00380495E-1,1.875E-1,3.7659086E-2,1.7271534E-1,6.25E-2,2.4315453E-1,6.6534364E-1,9.121754E-1,7.2741497E-1,-1.2182273E-1,-9.516404E-2,-1.4832509E-1,-8.161767E-2,6.656873E-2,-4.8239358E-2,-9.714412E-2,-4.32391E-2,-1.6965866E-1,-4.391645E-2,-1.2272347E-1,-1.5324402E-1,-1.7578045E-1,8.887595E-2,1.613367E-1,-2.6492266E-2,-2.0926136E-1,-1.826626E-1,-2.5433248E-1,-2.118225E-1,4.7581878E-1,-6.289804E-2,6.904256E-2,-1.7319681E-1,-2.3456359E-1,-2.5781563E-1,-3.0251712E-1,-2.4802813E-1,-1.926397E-1,-2.866817E-1,-1.4942792E-1,-5.1522423E-3],"split_indices":[2,2,3,4,3,2,0,3,3,0,0,0,2,2,0,2,0,4,2,2,0,2,4,0,2,2,0,0,2,4,2,4,0,2,4,2,2,2,0,0,0,0,0,0,0,0,0,0,0,0,0,0,0,0,0,0,0,0,0,0,0,0,0,0,0,0,0,0,0,0,0],"split_type":[0,0,0,0,0,0,0,0,0,0,0,0,0,0,0,0,0,0,0,0,0,0,0,0,0,0,0,0,0,0,0,0,0,0,0,0,0,0,0,0,0,0,0,0,0,0,0,0,0,0,0,0,0,0,0,0,0,0,0,0,0,0,0,0,0,0,0,0,0,0,0],"sum_hessian":[3.08449E4,1.738783E4,1.3457071E4,9.749943E3,7.637886E3,1.339096E4,6.611054E1,2.8892507E3,6.860693E3,7.62381E3,1.40760765E1,3.5762644E3,9.814696E3,2.885043E3,4.207878E0,6.8508745E3,9.818383E0,7.541928E3,8.188206E1,3.5187349E3,5.752966E1,9.069329E3,7.453672E2,1.5574236E3,1.3276193E3,5.642823E2,6.286592E3,2.8218752E3,4.7200527E3,1.2922128E1,6.895993E1,1.3296736E3,2.1890613E3,7.2642517E0,5.0265408E1,7.584882E3,1.4844469E3,2.909597E2,4.544075E2,9.44177E2,6.132465E2,1.194812E3,1.3280728E2,3.7970215E1,5.263121E2,5.9469517E3,3.3964053E2,2.7776663E3,4.420892E1,2.2290955E3,2.4909573E3,9.397911E0,3.5242167E0,2.0321127E1,4.86388E1,5.648315E2,7.6484204E2,9.572676E1,2.0933345E3,1.1891348E0,6.075117E0,3.786096E0,4.6479313E1,2.577254E3,5.007628E3,1.2372605E3,2.4718642E2,2.3804668E2,5.2913002E1,4.1370404E2,4.070347E1],"tree_param":{"num_deleted":"0","num_feature":"6","num_nodes":"71","size_leaf_vector":"0"}},{"base_weights":[-4.6222827E-1,-3.082365E-1,-6.8375677E-1,-2.3006336E-1,-3.6983678E-1,-6.917305E-1,1.0609335E0,-3.0272415E-1,-2.0144726E-1,-3.7210885E-1,1.014262E0,-5.7613575E-1,-7.3757833E-1,-3.0459782E-1,7.946409E-1,-2.0275398E-1,9.102397E-1,-3.8278043E-1,-1.1010704E-1,-5.5354196E-1,-6.391103E-1,-7.6067173E-1,-4.0308878E-1,-2.9707915E-1,-6.1749107E-1,-9.674067E-2,-2.1562059E-1,-3.49417E-1,-4.5312443E-1,-1.883048E-1,1.7517855E-2,-6.02746E-1,-4.829415E-1,-6.430137E-1,7.106049E-1,-7.0914257E-1,-8.185769E-1,-3.4782282E-1,-8.7078935E-1,-2.98987E-1,1.4158429E0,-7.8645813E-1,-3.1078276E-1,1.5349872E-1,-1.1583473E-1,-3.0616033E-1,-1.9892229E-1,-3.8458893E-1,-3.0482498E-1,-5.676665E-1,-4.319858E-1,9.563905E-1,-2.0203254E-1,6.476883E-1,-1.0806971E-2,-4.6706134E-1,-6.214442E-1,-6.034667E-1,-4.390623E-1,-6.22727E-1,-7.4429953E-1,-8.0346864E-1,-6.858201E-1,-8.217079E-1,5.476295E-2,-5.234932E-1,-2.5180408E-1,-8.963109E-1,1.2733983E-1],"categories":[],"categories_nodes":[],"categories_segments":[],"categories_sizes":[],"default_left":[true,true,true,true,true,true,false,true,true,true,false,true,true,true,false,true,false,true,true,true,true,true,true,true,true,true,true,true,true,true,true,true,true,true,false,true,true,true,true,false,false,false,false,false,false,false,false,false,false,false,false,false,false,false,false,false,false,false,false,false,false,false,false,false,false,false,false,false,false],"id":6,"left_children":[1,3,5,7,9,11,-1,13,15,17,-1,19,21,23,-1,25,-1,27,29,31,33,35,37,39,41,43,45,47,49,51,53,55,57,59,-1,61,63,65,67,-1,-1,-1,-1,-1,-1,-1,-1,-1,-1,-1,-1,-1,-1,-1,-1,-1,-1,-1,-1,-1,-1,-1,-1,-1,-1,-1,-1,-1,-1],"loss_changes":[9.3282715E2,7.762146E1,1.5675537E2,1.47317505E1,2.8753906E1,5.8745605E1,0E0,4.3711243E0,7.6035156E0,2.5147827E1,0E0,4.1640625E0,6.1416016E1,4.5345917E0,0E0,6.938431E0,0E0,2.015747E1,3.5362387E0,7.852539E0,4.839966E0,2.1718262E1,1.3090698E1,6.8298645E0,2.1463795E0,2.664906E0,6.8165436E0,9.09845E0,6.48938E0,3.6439152E0,2.4240031E0,3.2044373E0,4.853485E0,1.2420654E0,0E0,8.164795E0,9.649658E0,7.712906E0,1.4921188E0,0E0,0E0,0E0,0E0,0E0,0E0,0E0,0E0,0E0,0E0,0E0,0E0,0E0,0E0,0E0,0E0,0E0,0E0,0E0,0E0,0E0,0E0,0E0,0E0,0E0,0E0,0E0,0E0,0E0,0E0],"parents":[2147483647,0,0,1,1,2,2,3,3,4,4,5,5,7,7,8,8,9,9,11,11,12,12,13,13,15,15,17,17,18,18,19,19,20,20,21,21,22,22,23,23,24,24,25,25,26,26,27,27,28,28,29,29,30,30,31,31,32,32,33,33,35,35,36,36,37,37,38,38],"right_children":[2,4,6,8,10,12,-1,14,16,18,-1,20,22,24,-1,26,-1,28,30,32,34,36,38,40,42,44,46,48,50,52,54,56,58,60,-1,62,64,66,68,-1,-1,-1,-1,-1,-1,-1,-1,-1,-1,-1,-1,-1,-1,-1,-1,-1,-1,-1,-1,-1,-1,-1,-1,-1,-1,-1,-1,-1,-1],"split_conditions":[1.6536304E-1,6.7332335E-2,5E-1,1.875E-1,5E-1,2.0847166E-1,3.1828004E-1,5E-1,5E-1,7.520342E-1,3.042786E-1,5.625E-1,8.250016E-1,7.403505E-1,2.3839228E-1,2.889857E-2,2.7307191E-1,1.3127044E-1,9.061131E-1,1.875E-1,8.114959E-1,2.7989447E-1,9.3362E-1,7.3972464E-1,7.7279365E-1,1.268887E-2,1.2737325E-1,4.375E-1,1.2695599E-1,7.5370336E-1,6.882569E-2,1.7062911E-1,2.0018777E-1,6.381181E-1,2.1318148E-1,6.25E-2,7.8124344E-1,1.875E-1,7.468183E-1,-8.96961E-2,4.247529E-1,-2.3593745E-1,-9.323483E-2,4.6049617E-2,-3.475042E-2,-9.1848105E-2,-5.967669E-2,-1.1537668E-1,-9.1447495E-2,-1.7029995E-1,-1.2959574E-1,2.8691715E-1,-6.060976E-2,1.9430651E-1,-3.2420915E-3,-1.401184E-1,-1.8643327E-1,-1.8104002E-1,-1.317187E-1,-1.868181E-1,-2.2328986E-1,-2.410406E-1,-2.0574604E-1,-2.4651238E-1,1.6428886E-2,-1.5704796E-1,-7.554123E-2,-2.688933E-1,3.820195E-2],"split_indices":[2,2,3,4,3,2,0,3,3,0,0,4,2,0,0,2,0,2,0,4,0,2,2,0,0,2,0,4,0,0,2,2,0,0,0,4,0,4,0,0,0,0,0,0,0,0,0,0,0,0,0,0,0,0,0,0,0,0,0,0,0,0,0,0,0,0,0,0,0],"split_type":[0,0,0,0,0,0,0,0,0,0,0,0,0,0,0,0,0,0,0,0,0,0,0,0,0,0,0,0,0,0,0,0,0,0,0,0,0,0,0,0,0,0,0,0,0,0,0,0,0,0,0,0,0,0,0,0,0,0,0,0,0,0,0,0,0,0,0,0,0],"sum_hessian":[2.7349941E4,1.6135805E4,1.1214137E4,7.1133804E3,9.022425E3,1.1163719E4,5.041791E1,2.007201E3,5.106179E3,9.008368E3,1.4056498E1,3.174221E3,7.9894976E3,2.0045009E3,2.700129E0,5.101001E3,5.1782646E0,8.655365E3,3.5300272E2,2.3432932E3,8.3092773E2,7.472329E3,5.1716876E2,1.9593676E3,4.513334E1,5.530138E2,4.5479873E3,5.874919E3,2.7804465E3,2.1859235E2,1.3441039E2,1.3764541E3,9.668391E2,8.2905365E2,1.8740625E0,3.9608535E3,3.5114753E3,4.6407495E2,5.3093838E1,1.9580121E3,1.3553985E0,2.8092728E1,1.7040611E1,3.87062E1,5.143076E2,7.0547943E2,3.8425078E3,3.2801094E3,2.5948096E3,4.2915726E2,2.3512893E3,1.7766541E0,2.1681569E2,4.8410172E0,1.2956937E2,1.6985655E2,1.2065977E3,2.5464377E2,7.121954E2,6.966651E2,1.3238852E2,7.785629E2,3.1822905E3,3.4989902E3,1.2485075E1,1.6243721E2,3.0163773E2,5.1869568E1,1.2242676E0],"tree_param":{"num_deleted":"0","num_feature":"6","num_nodes":"69","size_leaf_vector":"0"}},{"base_weights":[-3.6831903E-1,-2.365471E-1,-5.933686E-1,-1.9579804E-1,-3.3549452E-1,-6.002474E-1,1.0322907E0,-1.4194554E-1,-2.2620623E-1,-5.425769E-1,-3.2187232E-1,-5.124805E-1,-6.5996367E-1,-2.0190468E-1,-1.2021177E-1,-2.2776732E-1,9.528388E-1,2.0289211E-1,-5.695946E-1,-3.8752934E-1,-2.8222194E-1,-7.3266554E-1,-5.026637E-1,-6.9920146E-1,-3.4385797E-1,-2.1986367E-1,-3.4141514E-2,2.8163454E-2,-1.2723629E-1,-2.2915706E-1,6.229426E-1,3.7913606E-1,-6.344785E-1,-6.487319E-1,-4.881037E-1,1.529096E0,-3.9139453E-1,-2.3601374E-1,-3.4352213E-1,-6.476985E-1,-8.500878E-1,-5.9317553E-1,-4.8066443E-1,-6.641937E-1,-8.388213E-1,-3.084311E-1,-7.7906966E-1,-1.8370333E-1,-4.7551942E-1,1.9852565E-1,-1.5007736E-1,-4.3365598E-1,8.182501E-2,-1.3089248E-2,-1.3746716E-1,-2.1584924E-1,-3.2897958E-1,-6.0519896E-2,1.0056542E0,6.183552E-1,-3.811552E-1,-5.4573786E-1,-8.30845E-1,-5.6727445E-1,-2.1102652E-1,-3.9594185E-1,1.7182463E-1,-2.4062206E-1,3.62447E-1,-4.7870356E-1,-3.0234745E-1,-7.091219E-1,-2.4961868E-1,-5.98047E-1,4.3651372E-1,-3.914874E-1,-5.1213986E-1,-6.7224324E-1,-3.8422394E-1,-8.911291E-1,-6.5252656E-1,-4.5630825E-1,-1.8730666E-1,-8.070552E-1,1.0514139E-1],"categories":[],"categories_nodes":[],"categories_segments":[],"categories_sizes":[],"default_left":[true,true,true,true,true,true,false,true,true,true,true,true,true,true,true,true,false,true,true,true,true,true,true,true,true,true,true,true,true,true,true,true,false,true,true,false,true,true,true,true,false,true,true,true,true,true,true,false,false,false,false,false,false,false,false,false,false,false,false,false,false,false,false,false,false,false,false,false,false,false,false,false,false,false,false,false,false,false,false,false,false,false,false,false,false],"id":7,"left_children":[1,3,5,7,9,11,-1,13,15,17,19,21,23,25,27,29,-1,31,33,35,37,39,41,43,45,47,49,51,53,55,57,59,-1,61,63,-1,65,67,69,71,-1,73,75,77,79,81,83,-1,-1,-1,-1,-1,-1,-1,-1,-1,-1,-1,-1,-1,-1,-1,-1,-1,-1,-1,-1,-1,-1,-1,-1,-1,-1,-1,-1,-1,-1,-1,-1,-1,-1,-1,-1,-1,-1],"loss_changes":[7.315803E2,6.268805E1,1.0250879E2,1.802417E1,1.2628204E1,4.7217773E1,0E0,5.164688E0,1.3184784E1,5.728157E0,1.0983093E1,7.5826416E0,6.669043E1,3.179737E0,3.0522194E0,8.462372E0,0E0,1.7877561E0,1.4193039E0,1.246347E1,7.4542694E0,9.9399567E-1,6.732971E0,2.2901367E1,8.9771805E0,8.744953E0,2.8210828E0,3.33242E0,3.2599106E0,9.262726E0,3.1332507E0,1.9247369E0,0E0,2.0510445E0,2.8780785E0,0E0,4.1638184E0,4.2793274E0,6.2072754E0,2.1219292E0,0E0,3.6965485E0,7.7730713E0,8.400269E0,8.757202E0,9.846203E0,1.1821957E0,0E0,0E0,0E0,0E0,0E0,0E0,0E0,0E0,0E0,0E0,0E0,0E0,0E0,0E0,0E0,0E0,0E0,0E0,0E0,0E0,0E0,0E0,0E0,0E0,0E0,0E0,0E0,0E0,0E0,0E0,0E0,0E0,0E0,0E0,0E0,0E0,0E0,0E0],"parents":[2147483647,0,0,1,1,2,2,3,3,4,4,5,5,7,7,8,8,9,9,10,10,11,11,12,12,13,13,14,14,15,15,17,17,18,18,19,19,20,20,21,21,22,22,23,23,24,24,25,25,26,26,27,27,28,28,29,29,30,30,31,31,33,33,34,34,36,36,37,37,38,38,39,39,41,41,42,42,43,43,44,44,45,45,46,46],"right_children":[2,4,6,8,10,12,-1,14,16,18,20,22,24,26,28,30,-1,32,34,36,38,40,42,44,46,48,50,52,54,56,58,60,-1,62,64,-1,66,68,70,72,-1,74,76,78,80,82,84,-1,-1,-1,-1,-1,-1,-1,-1,-1,-1,-1,-1,-1,-1,-1,-1,-1,-1,-1,-1,-1,-1,-1,-1,-1,-1,-1,-1,-1,-1,-1,-1,-1,-1,-1,-1,-1,-1],"split_conditions":[1.7082697E-1,1.1157112E-1,5E-1,4.845398E-2,5.497601E-2,2.3310189E-1,3.0968723E-1,1.875E-1,5E-1,4.0684333E-3,1.875E-1,3.6824536E-2,7.704966E-1,4.626918E-2,1.9311953E-2,9.375E-1,2.8585166E-1,5E-1,3.125E-1,5.6227833E-2,1.4405164E-1,2.0739114E-1,6.25E-2,3.281123E-1,9.3362E-1,4.4942252E-2,4.6921946E-2,9.0965986E-2,3.125E-1,6.875E-1,4.1644064E-1,1.5544397E-1,-1.9034356E-1,3.8076364E-2,4.4752765E-2,4.5872882E-1,7.859378E-1,8.125E-1,2.3711663E-1,5E-1,-2.5502637E-1,7.7435845E-1,1.8531132E-1,7.336741E-1,6.038226E-1,8.637201E-1,7.468183E-1,-5.5111002E-2,-1.4265583E-1,5.95577E-2,-4.502321E-2,-1.300968E-1,2.4547504E-2,-3.9267745E-3,-4.124015E-2,-6.475478E-2,-9.869388E-2,-1.815597E-2,3.0169627E-1,1.8550657E-1,-1.14346564E-1,-1.6372137E-1,-2.4925351E-1,-1.7018235E-1,-6.3307956E-2,-1.1878256E-1,5.1547393E-2,-7.218662E-2,1.087341E-1,-1.4361107E-1,-9.070424E-2,-2.1273658E-1,-7.488561E-2,-1.7941411E-1,1.3095412E-1,-1.1744622E-1,-1.5364197E-1,-2.0167299E-1,-1.1526719E-1,-2.6733872E-1,-1.9575797E-1,-1.3689248E-1,-5.6192E-2,-2.4211656E-1,3.1542417E-2],"split_indices":[2,2,3,2,0,2,0,4,3,0,4,0,2,2,2,4,0,5,4,0,2,2,4,2,2,2,2,0,4,4,0,2,0,0,0,0,0,4,0,5,0,0,2,0,2,2,0,0,0,0,0,0,0,0,0,0,0,0,0,0,0,0,0,0,0,0,0,0,0,0,0,0,0,0,0,0,0,0,0,0,0,0,0,0,0],"split_type":[0,0,0,0,0,0,0,0,0,0,0,0,0,0,0,0,0,0,0,0,0,0,0,0,0,0,0,0,0,0,0,0,0,0,0,0,0,0,0,0,0,0,0,0,0,0,0,0,0,0,0,0,0,0,0,0,0,0,0,0,0,0,0,0,0,0,0,0,0,0,0,0,0,0,0,0,0,0,0,0,0,0,0,0,0],"sum_hessian":[2.4673266E4,1.5562877E4,9.110389E3,1.102534E4,4.537537E3,9.07263E3,3.7759167E1,3.9808958E3,7.044444E3,2.7766672E2,4.25987E3,3.6774072E3,5.3952227E3,1.0568809E3,2.924015E3,7.035935E3,8.508951E0,9.483714E0,2.68183E2,1.6006241E3,2.659246E3,1.5381491E2,3.5235923E3,4.798392E3,5.9683057E2,9.544019E2,1.0247893E2,1.3203781E2,2.7919773E3,7.025189E3,1.0745996E1,8.286798E0,1.196917E0,1.3252498E2,1.3565804E2,2.4272285E0,1.5981969E3,1.5190405E3,1.1402056E3,9.302081E1,6.0794094E1,6.8388916E2,2.8397031E3,3.841056E3,9.57336E2,5.5348474E2,4.3345806E1,8.3764294E2,1.1675894E2,3.3844776E1,6.8634155E1,1.3007967E1,1.1902984E2,2.2984544E2,2.5621318E3,6.201587E3,8.236018E2,4.1595545E0,6.586442E0,6.445471E0,1.8413261E0,8.7203674E1,4.5321304E1,1.0469547E2,3.0962564E1,1.5856913E3,1.2505613E1,1.5080262E3,1.1014289E1,2.6372815E2,8.764775E2,7.990949E1,1.3111318E1,6.810861E2,2.8030505E0,7.4431866E2,2.0953845E3,3.7323442E3,1.08711815E2,7.4450934E2,2.1282664E2,2.4797379E2,3.0551096E2,4.210057E1,1.2452348E0],"tree_param":{"num_deleted":"0","num_feature":"6","num_nodes":"85","size_leaf_vector":"0"}},{"base_weights":[-2.8752488E-1,-1.7928904E-1,-5.0623006E-1,-1.4348069E-1,-2.6299316E-1,-5.1211584E-1,1.0082371E0,-1.8292646E-1,-1.07174486E-1,-4.7906563E-1,-2.5182116E-1,-5.3172606E-1,-2.659857E-1,-1.8440458E-1,9.0746915E-1,-8.4086105E-2,-1.8937092E-1,5.6760315E-2,-5.062779E-1,-2.5374734E-1,9.223259E-1,-4.3665943E-1,-6.188283E-1,8.373564E-1,-2.7916226E-1,-1.8762818E-1,1.5461928E-1,-1.5873228E-1,-5.712319E-2,-2.2475179E-1,-3.8807883E-3,2.5253433E-1,-4.9100828E-1,-4.5834425E-1,-7.5265956E-1,-2.6287848E-1,-8.1052916E-4,-5.259651E-1,-4.1518715E-1,-5.794421E-1,-7.6335657E-1,-4.8918787E-1,1.7098111E0,-3.920192E-1,-1.4842902E-1,-1.4278829E-1,-2.0924532E-1,6.0450476E-1,-1.4420961E-1,-1.6861588E-1,3.661292E-1,4.0513508E-2,-8.601059E-2,-6.139621E-2,-2.5799152E-1,3.3253282E-1,-5.2573845E-2,-2.816508E-1,6.496452E-1,-6.4014524E-1,-8.555685E-2,-5.7002133E-1,-2.9642758E-1,2.0327486E-2,-8.430514E-1,-3.2049096E-1,-2.2781594E-1,1.106729E0,-3.9087962E-2,-4.4588694E-1,-6.148115E-1,-3.5382617E-1,-4.4762623E-1,-5.8126163E-1,7.672892E-1,-8.245606E-1,-5.59372E-1,-6.397454E-1,-7.1546584E-2,2.0409002E0,3.837704E-1,-3.3722308E-1,-6.8606687E-1,-1.8016641E-1,3.10094E-1],"categories":[],"categories_nodes":[],"categories_segments":[],"categories_sizes":[],"default_left":[true,true,true,true,true,true,false,true,true,true,true,true,true,true,false,true,true,true,true,true,false,true,true,true,true,true,true,true,true,true,true,true,true,true,true,true,true,true,true,true,true,true,true,true,true,false,false,false,false,false,false,false,false,false,false,false,false,false,false,false,false,false,false,false,false,false,false,false,false,false,false,false,false,false,false,false,false,false,false,false,false,false,false,false,false],"id":8,"left_children":[1,3,5,7,9,11,-1,13,15,17,19,21,23,25,-1,27,29,31,33,35,-1,37,39,41,43,45,47,49,51,53,55,57,59,61,63,65,67,69,71,73,75,77,79,81,83,-1,-1,-1,-1,-1,-1,-1,-1,-1,-1,-1,-1,-1,-1,-1,-1,-1,-1,-1,-1,-1,-1,-1,-1,-1,-1,-1,-1,-1,-1,-1,-1,-1,-1,-1,-1,-1,-1,-1,-1],"loss_changes":[5.365957E2,4.542505E1,6.741614E1,1.5197403E1,1.0846924E1,3.5946533E1,0E0,8.372925E0,1.0488934E1,3.269497E0,1.0009155E1,5.706433E1,8.284271E0,5.5863647E0,0E0,8.692272E0,7.9602623E0,1.3723842E0,2.1542168E0,9.967651E0,0E0,6.1365967E0,2.0112915E1,8.689104E0,8.026531E0,4.853134E0,6.5999317E0,6.0100307E0,8.965836E0,5.5157776E0,3.2172935E0,2.1423054E0,1.5110892E-1,3.0806046E0,2.316454E0,8.3414E0,6.460761E0,4.2694244E0,5.169037E0,7.409729E0,9.153931E0,1.7238837E-1,1.1114483E0,4.497364E0,3.7737536E0,0E0,0E0,0E0,0E0,0E0,0E0,0E0,0E0,0E0,0E0,0E0,0E0,0E0,0E0,0E0,0E0,0E0,0E0,0E0,0E0,0E0,0E0,0E0,0E0,0E0,0E0,0E0,0E0,0E0,0E0,0E0,0E0,0E0,0E0,0E0,0E0,0E0,0E0,0E0,0E0],"parents":[2147483647,0,0,1,1,2,2,3,3,4,4,5,5,7,7,8,8,9,9,10,10,11,11,12,12,13,13,15,15,16,16,17,17,18,18,19,19,21,21,22,22,23,23,24,24,25,25,26,26,27,27,28,28,29,29,30,30,31,31,32,32,33,33,34,34,35,35,36,36,37,37,38,38,39,39,40,40,41,41,42,42,43,43,44,44],"right_children":[2,4,6,8,10,12,-1,14,16,18,20,22,24,26,-1,28,30,32,34,36,-1,38,40,42,44,46,48,50,52,54,56,58,60,62,64,66,68,70,72,74,76,78,80,82,84,-1,-1,-1,-1,-1,-1,-1,-1,-1,-1,-1,-1,-1,-1,-1,-1,-1,-1,-1,-1,-1,-1,-1,-1,-1,-1,-1,-1,-1,-1,-1,-1,-1,-1,-1,-1,-1,-1,-1,-1],"split_conditions":[1.7662726E-1,1.1157112E-1,5E-1,4.375E-1,4.66305E-2,7.704966E-1,3.0247116E-1,5E-1,6.875E-1,4.0684333E-3,5E-1,2.4396935E-1,7.727785E-1,7.799916E-1,2.7224076E-1,2.1520968E-1,7.219904E-1,1.5544397E-1,4.099729E-2,7.5067806E-1,2.7669778E-1,6.25E-2,3.281123E-1,3.545796E-1,4.375E-1,4.845398E-2,7.925099E-1,1.0941917E-1,5.625E-1,3.771994E-2,7.3722094E-1,1.2911807E-1,1.6564502E-1,2.6392657E-2,1.16675615E-1,1.875E-1,7.553724E-1,2.0739114E-1,1.9671908E-1,8.0607134E-1,6.038226E-1,4.375E-1,7.710134E-1,9.123212E-1,9.055915E-1,-4.2836487E-2,-6.27736E-2,1.8135144E-1,-4.3262884E-2,-5.0584767E-2,1.0983876E-1,1.2154053E-2,-2.5803179E-2,-1.8418863E-2,-7.739746E-2,9.9759854E-2,-1.5772155E-2,-8.449525E-2,1.9489357E-1,-1.9204359E-1,-2.5667056E-2,-1.7100641E-1,-8.8928275E-2,6.098246E-3,-2.529154E-1,-9.614729E-2,-6.834479E-2,3.3201873E-1,-1.172639E-2,-1.3376608E-1,-1.8444344E-1,-1.06147856E-1,-1.3428788E-1,-1.743785E-1,2.3018678E-1,-2.4736819E-1,-1.678116E-1,-1.9192363E-1,-2.1463975E-2,6.122701E-1,1.15131125E-1,-1.0116693E-1,-2.0582007E-1,-5.4049924E-2,9.30282E-2],"split_indices":[2,2,3,4,0,2,0,3,4,0,3,2,2,0,0,0,0,2,0,0,0,4,2,0,4,2,0,2,4,2,0,2,2,0,2,4,0,2,2,0,2,4,2,2,0,0,0,0,0,0,0,0,0,0,0,0,0,0,0,0,0,0,0,0,0,0,0,0,0,0,0,0,0,0,0,0,0,0,0,0,0,0,0,0,0],"split_type":[0,0,0,0,0,0,0,0,0,0,0,0,0,0,0,0,0,0,0,0,0,0,0,0,0,0,0,0,0,0,0,0,0,0,0,0,0,0,0,0,0,0,0,0,0,0,0,0,0,0,0,0,0,0,0,0,0,0,0,0,0,0,0,0,0,0,0,0,0,0,0,0,0,0,0,0,0,0,0,0,0,0,0,0,0],"sum_hessian":[2.2671031E4,1.5166864E4,7.504168E3,1.0624466E4,4.5423984E3,7.475776E3,2.83918E1,5.090131E3,5.5343345E3,2.212584E2,4.32114E3,6.923029E3,5.527473E2,5.0840703E3,6.0610056E0,4.322265E3,1.2120695E3,1.0641189E1,2.1061722E2,4.314845E3,6.294636E0,3.3130522E3,3.6099763E3,5.785057E0,5.469623E2,5.036626E3,4.744403E1,1.1456562E3,3.1766086E3,1.01773285E3,1.9433667E2,8.236439E0,2.4047496E0,1.787095E2,3.1907711E1,4.164467E3,1.503784E2,6.3761975E2,2.6754326E3,2.8408179E3,7.691585E2,2.469518E0,3.3155391E0,2.9247833E2,2.5448392E2,1.6407878E3,3.3958381E3,1.8527721E1,2.8916311E1,1.1251476E3,2.0508738E1,7.251767E2,2.451432E3,1.7255661E2,8.451762E2,2.3834972E1,1.705017E2,3.6360507E0,4.600388E0,1.3348916E0,1.0698581E0,1.0427118E2,7.4438324E1,3.421742E0,2.848597E1,1.5724994E3,2.5919675E3,4.0910964E0,1.4628731E2,3.385235E2,2.9909625E2,9.293684E2,1.7460641E3,2.8375525E3,3.2653801E0,5.8930096E2,1.7985756E2,1.42427E0,1.0452479E0,2.2217212E0,1.0938181E0,2.4834566E2,4.4132675E1,2.3857747E2,1.5906442E1],"tree_param":{"num_deleted":"0","num_feature":"6","num_nodes":"85","size_leaf_vector":"0"}},{"base_weights":[-2.2016886E-1,-1.2870544E-1,-4.1018784E-1,-8.665411E-2,-1.6960588E-1,-4.147249E-1,9.865999E-1,-1.7603618E-1,-7.276159E-2,-1.8165839E-1,-3.6814842E-2,-3.3527887E-1,-4.7682965E-1,-1.9120748E-1,6.672297E-2,-7.562838E-2,2.638779E-1,-1.5951236E-1,-2.2790414E-1,-5.0279748E-2,9.235518E-1,-3.4164548E-1,1.05145685E-1,-5.20204E-1,-2.039759E-1,-1.7534895E-1,-4.191131E-1,9.787274E-1,-4.270417E-2,-7.648366E-2,8.6452895E-1,4.621906E-1,-1.4401303E-1,-2.110295E-1,-1.1403884E-1,-2.3007444E-1,9.991529E-1,1.5930154E0,-5.7383977E-2,-5.576018E-1,-3.3238366E-1,1.3759503E0,2.9230867E-2,-4.8125386E-1,-6.894946E-1,-1.6379246E-1,-5.069327E-1,-1.7985936E-1,1.6050982E0,-2.5492767E-2,-6.336412E-1,1.3576262E0,-2.2703305E-1,-1.6094755E-1,4.624737E-1,2.5714811E-2,-8.256037E-2,2.1830378E-1,2.2316074E0,-6.7451674E-1,2.083716E-2,-1.6946456E-1,-2.645789E-1,6.531058E-2,-1.2782079E-1,-5.175324E-1,-2.2151591E-1,-3.311248E-1,1.8408352E0,-1.00720264E-1,1.20689504E-1,-5.6921667E-1,3.2387206E-1,-4.155234E-1,-3.1311622E-1,1.817304E-1,-3.9211118E-1,-5.957684E-1,-4.534962E-1,-7.4316317E-1,-4.3781143E-1,-3.1254518E-1,-3.0787043E-2,-5.5849284E-1,5.5043674E-1],"categories":[],"categories_nodes":[],"categories_segments":[],"categories_sizes":[],"default_left":[true,true,true,true,true,true,false,true,true,true,true,true,true,true,true,true,true,true,true,true,false,true,true,true,true,true,true,true,true,true,false,true,true,true,true,true,true,false,true,true,true,false,true,true,true,true,true,false,false,false,false,false,false,false,false,false,false,false,false,false,false,false,false,false,false,false,false,false,false,false,false,false,false,false,false,false,false,false,false,false,false,false,false,false,false],"id":9,"left_children":[1,3,5,7,9,11,-1,13,15,17,19,21,23,25,27,29,31,33,35,37,-1,39,41,43,45,47,49,51,53,55,-1,57,59,61,63,65,67,-1,69,71,73,-1,75,77,79,81,83,-1,-1,-1,-1,-1,-1,-1,-1,-1,-1,-1,-1,-1,-1,-1,-1,-1,-1,-1,-1,-1,-1,-1,-1,-1,-1,-1,-1,-1,-1,-1,-1,-1,-1,-1,-1,-1,-1],"loss_changes":[3.679784E2,2.4574158E1,4.401172E1,8.742882E0,1.1590912E1,3.368103E1,0E0,3.5035362E0,5.911087E0,6.7673035E0,7.859886E0,8.483276E0,4.5424072E1,3.1515923E0,5.679509E0,4.933754E0,4.2540455E0,1.0507065E1,5.9523087E0,7.0589414E0,0E0,5.754944E0,4.174982E0,2.1552063E1,6.3608685E0,7.002163E0,4.8251543E0,3.0922375E0,3.1446059E0,3.7587166E0,0E0,1.4646858E1,1.5617783E0,4.643654E0,5.915697E0,5.164543E0,5.067014E0,0E0,4.605496E0,1.4196777E0,4.435669E0,0E0,2.7861276E0,8.316528E0,8.028351E0,9.265828E0,3.6607761E0,0E0,0E0,0E0,0E0,0E0,0E0,0E0,0E0,0E0,0E0,0E0,0E0,0E0,0E0,0E0,0E0,0E0,0E0,0E0,0E0,0E0,0E0,0E0,0E0,0E0,0E0,0E0,0E0,0E0,0E0,0E0,0E0,0E0,0E0,0E0,0E0,0E0,0E0],"parents":[2147483647,0,0,1,1,2,2,3,3,4,4,5,5,7,7,8,8,9,9,10,10,11,11,12,12,13,13,14,14,15,15,16,16,17,17,18,18,19,19,21,21,22,22,23,23,24,24,25,25,26,26,27,27,28,28,29,29,31,31,32,32,33,33,34,34,35,35,36,36,38,38,39,39,40,40,42,42,43,43,44,44,45,45,46,46],"right_children":[2,4,6,8,10,12,-1,14,16,18,20,22,24,26,28,30,32,34,36,38,-1,40,42,44,46,48,50,52,54,56,-1,58,60,62,64,66,68,-1,70,72,74,-1,76,78,80,82,84,-1,-1,-1,-1,-1,-1,-1,-1,-1,-1,-1,-1,-1,-1,-1,-1,-1,-1,-1,-1,-1,-1,-1,-1,-1,-1,-1,-1,-1,-1,-1,-1,-1,-1,-1,-1,-1,-1],"split_conditions":[1.7082697E-1,7.261344E-2,5E-1,6.25E-2,7.163572E-1,2.3624808E-1,2.9597998E-1,7.0175254E-1,7.226084E-2,4.7955352E-1,5E-1,7.660129E-1,7.6289654E-1,6.4729816E-1,7.0717716E-1,5E-1,5.731275E-1,2.4066347E-1,8.75E-1,7.1656585E-1,2.7706555E-1,3.6824536E-2,7.670561E-1,3.281123E-1,9.1730094E-1,6.4667225E-1,4.20342E-2,5.7764985E-2,6.286148E-2,2.3912266E-2,2.593587E-1,5.082412E-1,6.1819315E-1,1.220147E-1,2.625704E-1,4.8539537E-1,9.377047E-2,4.7790465E-1,9.061131E-1,2.3552331E-1,6.25E-2,4.127851E-1,8.01064E-1,6.25E-2,6.6719705E-1,8.637201E-1,7.443146E-1,-5.395781E-2,4.815295E-1,-7.6478305E-3,-1.9009237E-1,4.0728787E-1,-6.8109915E-2,-4.8284266E-2,1.3874212E-1,7.7144434E-3,-2.4768112E-2,6.549114E-2,6.6948223E-1,-2.0235503E-1,6.2511484E-3,-5.083937E-2,-7.937367E-2,1.9593176E-2,-3.834624E-2,-1.5525973E-1,-6.6454776E-2,-9.933745E-2,5.5225056E-1,-3.0216081E-2,3.6206853E-2,-1.7076501E-1,9.716162E-2,-1.2465703E-1,-9.393487E-2,5.4519124E-2,-1.1763336E-1,-1.7873052E-1,-1.3604887E-1,-2.2294895E-1,-1.3134344E-1,-9.376356E-2,-9.236113E-3,-1.6754785E-1,1.6513103E-1],"split_indices":[2,2,3,4,0,2,0,0,2,0,3,0,2,0,0,3,0,0,4,0,0,0,0,2,2,0,2,2,2,2,0,0,0,2,0,0,2,0,0,2,4,0,0,4,2,2,0,0,0,0,0,0,0,0,0,0,0,0,0,0,0,0,0,0,0,0,0,0,0,0,0,0,0,0,0,0,0,0,0,0,0,0,0,0,0],"split_type":[0,0,0,0,0,0,0,0,0,0,0,0,0,0,0,0,0,0,0,0,0,0,0,0,0,0,0,0,0,0,0,0,0,0,0,0,0,0,0,0,0,0,0,0,0,0,0,0,0,0,0,0,0,0,0,0,0,0,0,0,0,0,0,0,0,0,0,0,0,0,0,0,0,0,0,0,0,0,0,0,0,0,0,0,0],"sum_hessian":[2.1174824E4,1.42955205E4,6.8793037E3,7.0501284E3,7.2453926E3,6.8577314E3,2.1572231E1,9.468154E2,6.103313E3,6.6421626E3,6.0323016E2,3.0116055E3,3.846126E3,8.9132416E2,5.5491226E1,6.0525454E3,5.0767666E1,4.4943633E3,2.147799E3,5.95824E2,7.4061594E0,2.9689124E3,4.269312E1,3.3178027E3,5.2832336E2,8.349917E2,5.6332504E1,5.093778E0,5.039745E1,6.047962E3,4.583294E0,3.4070023E1,1.6697645E1,2.10545E3,2.3889136E3,2.1448179E3,2.9810503E0,1.6038287E0,5.9422015E2,1.1965819E2,2.8492542E3,1.441284E0,4.1251835E1,2.7003516E3,6.17451E2,4.6781427E2,6.050909E1,8.3377844E2,1.213232E0,2.0266314E1,3.6066193E1,3.779999E0,1.3137791E0,4.13908E1,9.006646E0,3.392474E2,5.7087144E3,3.0930153E1,3.139868E0,3.2256143E0,1.3472031E1,1.1877137E3,9.1773615E2,1.7020717E2,2.2187063E3,6.0292343E1,2.0845256E3,1.3902903E0,1.59076E0,4.782635E2,1.1595669E2,1.1845164E2,1.2065508E0,5.3220435E2,2.3170498E3,3.0706636E1,1.05452E1,5.228527E2,2.177499E3,5.073184E2,1.1013261E2,2.2019698E2,2.476173E2,5.814557E1,2.3635244E0],"tree_param":{"num_deleted":"0","num_feature":"6","num_nodes":"85","size_leaf_vector":"0"}},{"base_weights":[-1.6558203E-1,-1.0018681E-1,-3.5088244E-1,-7.812997E-2,-1.7412964E-1,-3.549896E-1,9.623315E-1,-7.897541E-2,9.317901E-1,-2.186897E-1,-1.460626E-1,-3.7652722E-1,-1.5287949E-1,-1.4601603E-1,-6.775063E-2,-3.462035E-1,-1.8591754E-1,-2.932336E-1,-1.2279969E-1,-3.3490336E-1,-5.4980224E-1,1.2580872E0,-1.5992625E-1,-3.307005E-1,-1.2941484E-1,-5.768059E-2,-1.3331757E-1,-8.927378E-2,-3.9662582E-1,-1.17974006E-1,-2.3220268E-1,-5.6728345E-1,-2.4288955E-1,-7.264506E-2,-1.9361542E-1,-3.3951893E-1,1.8549944E-1,-7.281421E-1,-4.9976417E-1,-2.5916222E-1,-5.225365E-2,-2.6688772E-1,-1.0471917E0,1.1378704E0,-1.32681E-1,-9.0113126E-2,-3.0474821E-2,-4.5828547E-2,-1.8145543E-1,2.1089274E-3,-8.691648E-1,3.8130614E-1,-4.1176593E-1,-1.4395331E-1,1.7187557E-1,-6.3181144E-1,-2.2066015E-1,-7.0973825E-1,-4.433838E-1,-8.943096E-2,-3.8699976E-1,-1.4174763E-2,-1.4264764E-1,-3.7359273E-1,-1.5920529E-1,-2.989026E-1,-3.865325E-1,1.0801936E0,7.359699E-2,-6.479343E-1,-8.45363E-1,-5.340131E-1,-2.9030046E-1,-2.1826318E-1,-5.283211E-1,-5.404228E-1,-1.5982047E-2],"categories":[],"categories_nodes":[],"categories_segments":[],"categories_sizes":[],"default_left":[true,true,true,true,true,true,false,true,false,true,true,true,true,true,true,true,true,true,true,true,true,false,true,true,true,true,true,true,true,true,true,true,true,true,true,true,true,true,true,true,true,false,false,false,false,false,false,false,false,false,false,false,false,false,false,false,false,false,false,false,false,false,false,false,false,false,false,false,false,false,false,false,false,false,false,false,false],"id":10,"left_children":[1,3,5,7,9,11,-1,13,-1,15,17,19,21,23,25,27,29,31,33,35,37,-1,39,41,43,45,47,49,51,53,55,57,59,61,63,65,67,69,71,73,75,-1,-1,-1,-1,-1,-1,-1,-1,-1,-1,-1,-1,-1,-1,-1,-1,-1,-1,-1,-1,-1,-1,-1,-1,-1,-1,-1,-1,-1,-1,-1,-1,-1,-1,-1,-1],"loss_changes":[2.431972E2,2.4186035E1,2.858014E1,9.833244E0,4.230728E0,2.2664917E1,0E0,8.585236E0,0E0,5.4315033E0,7.1336327E0,3.3833923E1,5.216093E0,4.9769783E0,6.453369E0,3.4331017E0,3.2696228E0,3.79591E0,6.4147587E0,9.203888E0,7.774658E0,0E0,5.3584223E0,5.8650236E0,6.3756733E0,7.4836082E0,5.4753456E0,3.224135E0,2.7896461E0,3.2389274E0,2.7321548E0,4.530878E-1,5.330859E0,4.3415422E0,4.584381E0,7.0881653E0,3.3348203E0,1.3104172E0,4.9769745E0,2.7620068E0,4.2831345E0,0E0,0E0,0E0,0E0,0E0,0E0,0E0,0E0,0E0,0E0,0E0,0E0,0E0,0E0,0E0,0E0,0E0,0E0,0E0,0E0,0E0,0E0,0E0,0E0,0E0,0E0,0E0,0E0,0E0,0E0,0E0,0E0,0E0,0E0,0E0,0E0],"parents":[2147483647,0,0,1,1,2,2,3,3,4,4,5,5,7,7,9,9,10,10,11,11,12,12,13,13,14,14,15,15,16,16,17,17,18,18,19,19,20,20,22,22,23,23,24,24,25,25,26,26,27,27,28,28,29,29,30,30,31,31,32,32,33,33,34,34,35,35,36,36,37,37,38,38,39,39,40,40],"right_children":[2,4,6,8,10,12,-1,14,-1,16,18,20,22,24,26,28,30,32,34,36,38,-1,40,42,44,46,48,50,52,54,56,58,60,62,64,66,68,70,72,74,76,-1,-1,-1,-1,-1,-1,-1,-1,-1,-1,-1,-1,-1,-1,-1,-1,-1,-1,-1,-1,-1,-1,-1,-1,-1,-1,-1,-1,-1,-1,-1,-1,-1,-1,-1,-1],"split_conditions":[1.8979633E-1,1.3127044E-1,5E-1,5E-1,1.875E-1,7.6289654E-1,2.8869945E-1,6.25E-2,2.7953705E-1,1.4288384E-1,1.2674734E-1,3.0616313E-1,7.647076E-1,5.476737E-2,6.875E-1,1.329884E-1,1.6085549E-1,3.125E-1,4.9645317E-1,7.7435845E-1,6.25E-2,3.7742618E-1,4.375E-1,5.101189E-2,5.6019194E-2,4.375E-1,5.1522516E-2,6.969539E-1,1.9716252E-2,6.979971E-1,1.6144149E-1,5.779261E-2,5.625E-1,5.625E-1,5.442312E-1,2.4315453E-1,7.77488E-1,3.668663E-1,6.037649E-1,9.123212E-1,5.7792615E-2,-8.006632E-2,-3.1415755E-1,3.4136114E-1,-3.9804302E-2,-2.7033938E-2,-9.142446E-3,-1.3748565E-2,-5.443663E-2,6.326782E-4,-2.6074946E-1,1.1439185E-1,-1.23529784E-1,-4.3185994E-2,5.156267E-2,-1.8954344E-1,-6.619805E-2,-2.1292149E-1,-1.3301516E-1,-2.682929E-2,-1.1609993E-1,-4.252429E-3,-4.2794295E-2,-1.12077825E-1,-4.776159E-2,-8.9670785E-2,-1.1595975E-1,3.2405812E-1,2.2079099E-2,-1.943803E-1,-2.536089E-1,-1.6020393E-1,-8.709014E-2,-6.547896E-2,-1.5849634E-1,-1.6212684E-1,-4.7946144E-3],"split_indices":[2,2,3,3,4,2,0,4,0,2,0,2,2,0,4,2,2,4,0,0,4,0,4,0,0,4,2,0,0,0,2,0,4,4,0,2,0,2,2,2,0,0,0,0,0,0,0,0,0,0,0,0,0,0,0,0,0,0,0,0,0,0,0,0,0,0,0,0,0,0,0,0,0,0,0,0,0],"split_type":[0,0,0,0,0,0,0,0,0,0,0,0,0,0,0,0,0,0,0,0,0,0,0,0,0,0,0,0,0,0,0,0,0,0,0,0,0,0,0,0,0,0,0,0,0,0,0,0,0,0,0,0,0,0,0,0,0,0,0,0,0,0,0,0,0,0,0,0,0,0,0,0,0,0,0,0,0],"sum_hessian":[2.0071387E4,1.4836803E4,5.234584E3,1.142949E4,3.407313E3,5.218991E3,1.5593015E1,1.1420851E4,8.639004E0,1.3141456E3,2.0931675E3,4.7156143E3,5.0337704E2,1.6362499E3,9.784601E3,2.6673547E2,1.04741E3,2.8411707E2,1.8090503E3,3.8046091E3,9.110048E2,1.6192636E0,5.0175778E2,1.3339044E2,1.5028594E3,8.483543E3,1.301058E3,4.4213512E1,2.2252197E2,4.2584567E2,6.215644E2,4.249976E1,2.416173E2,1.0601992E3,7.488511E2,3.7715063E3,3.310279E1,1.966338E2,7.1437103E2,2.6037625E2,2.4138155E2,1.2374211E2,9.648335E0,2.9703393E0,1.499889E3,3.8689626E3,4.6145806E3,4.624754E2,8.385826E2,4.0468918E1,3.744596E0,3.7863388E0,2.1873564E2,3.9127863E2,3.4567055E1,1.5940977E1,6.056235E2,1.7570065E1,2.4929695E1,1.17798164E2,1.2381913E2,5.7833887E2,4.818604E2,1.186118E2,6.3023926E2,2.0273661E3,1.7441403E3,2.7180617E0,3.038473E1,1.2062454E2,7.600926E1,6.126488E2,1.0172221E2,2.2760265E2,3.27736E1,1.5733226E1,2.2564832E2],"tree_param":{"num_deleted":"0","num_feature":"6","num_nodes":"77","size_leaf_vector":"0"}},{"base_weights":[-1.2276026E-1,-7.382705E-2,-2.820898E-1,-5.707604E-2,-1.399126E-1,-2.854377E-1,9.374167E-1,-5.7758417E-2,9.081436E-1,-4.1117504E-1,-1.3448177E-1,-3.0159375E-1,-4.7860816E-2,-6.305391E-2,5.140478E-2,-2.7806428E-1,-8.873473E-1,-1.1728218E-1,-2.1783444E-1,-5.001651E-1,-2.8052023E-1,-8.1098E-4,-5.145671E-1,-3.4484856E-2,-8.4020644E-2,1.2227846E0,4.593985E-2,-3.7863255E-1,1.4614731E0,-9.340183E-1,-2.0076126E-1,-1.4771461E-1,-3.435211E-2,-2.2707617E-1,3.9782786E-1,-4.5697564E-1,-8.1813824E-1,-2.2801614E-1,-3.4572524E-1,-1.0554813E-1,1.9796453E-1,2.1353406E-1,-6.157828E-1,-2.4345187E-2,-9.696547E-2,-1.2897909E-1,-6.1961684E-2,1.8242249E-1,1.9117702E-2,-1.09024815E-1,-5.732401E-1,-1.6459602E-1,-2.947227E-2,6.682456E-2,-1.4724517E-1,-1.6333678E-1,-3.1586993E-1,6.777164E-1,-7.07464E-1,-4.0078482E-1,-5.5918866E-1,-6.6678095E-1,-9.298135E-1,8.667198E-1,-2.3412518E-1,-3.4980974E-1,9.7005147E-1,-1.300018E-1,1.4059415E0,2.5703928E-1,-1.9515738E-1,-2.7650544E-1,6.6819423E-1,-7.963912E-1,-2.544445E-1],"categories":[],"categories_nodes":[],"categories_segments":[],"categories_sizes":[],"default_left":[true,true,true,true,true,true,false,true,false,true,true,true,true,true,true,true,true,true,true,true,true,true,true,true,true,false,true,true,false,false,false,true,true,true,true,true,true,true,true,true,true,true,true,false,false,false,false,false,false,false,false,false,false,false,false,false,false,false,false,false,false,false,false,false,false,false,false,false,false,false,false,false,false,false,false],"id":11,"left_children":[1,3,5,7,9,11,-1,13,-1,15,17,19,21,23,25,27,29,31,33,35,37,39,41,43,45,-1,47,49,-1,-1,-1,51,53,55,57,59,61,63,65,67,69,71,73,-1,-1,-1,-1,-1,-1,-1,-1,-1,-1,-1,-1,-1,-1,-1,-1,-1,-1,-1,-1,-1,-1,-1,-1,-1,-1,-1,-1,-1,-1,-1,-1],"loss_changes":[1.5024524E2,1.6316261E1,1.8755005E1,7.8021355E0,4.3366814E0,1.7321259E1,0E0,6.80064E0,0E0,3.431388E0,4.1667595E0,1.7555206E1,6.340519E0,6.7149734E0,3.429923E0,8.74209E0,2.0410442E-1,6.1181526E0,2.9297218E0,5.180374E0,1.3017151E1,5.503121E0,2.080287E0,3.006075E0,6.406044E0,0E0,1.9846147E0,2.3008666E0,0E0,0E0,0E0,3.5374146E0,7.464269E0,2.7345905E0,2.8750033E0,1.8339996E0,1.7613792E-1,1.4394112E1,9.498962E0,6.5811253E0,2.16855E0,1.0692652E0,1.3292961E0,0E0,0E0,0E0,0E0,0E0,0E0,0E0,0E0,0E0,0E0,0E0,0E0,0E0,0E0,0E0,0E0,0E0,0E0,0E0,0E0,0E0,0E0,0E0,0E0,0E0,0E0,0E0,0E0,0E0,0E0,0E0,0E0],"parents":[2147483647,0,0,1,1,2,2,3,3,4,4,5,5,7,7,9,9,10,10,11,11,12,12,13,13,14,14,15,15,16,16,17,17,18,18,19,19,20,20,21,21,22,22,23,23,24,24,26,26,27,27,31,31,32,32,33,33,34,34,35,35,36,36,37,37,38,38,39,39,40,40,41,41,42,42],"right_children":[2,4,6,8,10,12,-1,14,-1,16,18,20,22,24,26,28,30,32,34,36,38,40,42,44,46,-1,48,50,-1,-1,-1,52,54,56,58,60,62,64,66,68,70,72,74,-1,-1,-1,-1,-1,-1,-1,-1,-1,-1,-1,-1,-1,-1,-1,-1,-1,-1,-1,-1,-1,-1,-1,-1,-1,-1,-1,-1,-1,-1,-1,-1],"split_conditions":[1.9540215E-1,1.3994661E-1,5E-1,5E-1,1.4128032E-1,8.637201E-1,2.8122503E-1,7.524515E-1,2.724431E-1,6.285207E-1,5E-1,7.0415184E-2,9.3362E-1,5.6566432E-2,7.5370336E-1,5.994158E-1,7.8614646E-1,4.375E-1,8.084707E-1,3.565089E-1,2.702319E-1,5E-1,1.0515335E-1,6.404131E-1,1.875E-1,3.6683542E-1,4.20342E-2,2.6559567E-1,4.3844196E-1,-2.8020552E-1,-6.022838E-2,6.6837054E-1,6.25E-1,4.5764655E-1,1.753538E-1,2.7947685E-1,3.557271E-2,7.375339E-2,9.061131E-1,9.319618E-1,7.3805547E-1,9.659157E-1,5.204465E-1,-7.3035564E-3,-2.9089643E-2,-3.8693726E-2,-1.8588506E-2,5.472675E-2,5.7353107E-3,-3.2707445E-2,-1.7197204E-1,-4.937881E-2,-8.841681E-3,2.004737E-2,-4.4173554E-2,-4.9001038E-2,-9.4760984E-2,2.0331492E-1,-2.122392E-1,-1.2023545E-1,-1.677566E-1,-2.0003429E-1,-2.7894408E-1,2.6001593E-1,-7.0237555E-2,-1.04942925E-1,2.9101545E-1,-3.900054E-2,4.2178246E-1,7.711179E-2,-5.8547217E-2,-8.2951635E-2,2.0045827E-1,-2.3891737E-1,-7.633336E-2],"split_indices":[2,2,3,3,2,2,0,0,0,0,5,0,2,2,0,0,0,4,0,2,2,5,0,0,4,0,2,0,0,0,0,0,4,0,2,2,0,0,0,2,0,2,0,0,0,0,0,0,0,0,0,0,0,0,0,0,0,0,0,0,0,0,0,0,0,0,0,0,0,0,0,0,0,0,0],"split_type":[0,0,0,0,0,0,0,0,0,0,0,0,0,0,0,0,0,0,0,0,0,0,0,0,0,0,0,0,0,0,0,0,0,0,0,0,0,0,0,0,0,0,0,0,0,0,0,0,0,0,0,0,0,0,0,0,0,0,0,0,0,0,0,0,0,0,0,0,0,0,0,0,0,0,0],"sum_hessian":[1.9272514E4,1.4745383E4,4.5271313E3,1.1765094E4,2.980289E3,4.515501E3,1.163045E1,1.1757722E4,7.3721633E0,5.702959E1,2.9232595E3,4.2277314E3,2.877697E2,1.1214147E4,5.4357465E2,4.5808174E1,1.1221414E1,2.4252275E3,4.980319E2,4.034423E2,3.824289E3,2.6232574E2,2.5443981E1,4.7476675E3,6.4664795E3,1.489811E0,5.4208484E2,4.4044178E1,1.7639991E0,1.016974E1,1.051674E0,1.773598E3,6.5162964E2,4.912883E2,6.743584E0,3.5734253E2,4.609976E1,2.120957E3,1.7033319E3,1.7210867E2,9.0217064E1,2.9699287E0,2.2474052E1,4.085966E3,6.617015E2,2.1268638E3,4.3396157E3,8.808242E1,4.540024E2,1.9118204E1,2.4925974E1,1.5516742E3,2.2192377E2,3.4386237E2,3.0776724E2,2.8764545E2,2.0364285E2,5.689659E0,1.053925E0,2.3375731E2,1.2358523E2,2.2532038E1,2.3567722E1,1.0988281E1,2.1099688E3,1.6987926E3,4.539358E0,1.7026797E2,1.8406938E0,7.8732086E1,1.1484978E1,1.6179354E0,1.3519932E0,1.4181622E1,8.292431E0],"tree_param":{"num_deleted":"0","num_feature":"6","num_nodes":"75","size_leaf_vector":"0"}},{"base_weights":[-8.984797E-2,-5.4951098E-2,-2.2610162E-1,-4.3621697E-2,-1.24479055E-1,-3.8013485E-1,-1.9183423E-1,-4.420237E-2,8.982003E-1,-1.2839325E-1,5.9024817E-1,-3.165507E-1,-5.0079924E-1,-3.7194058E-1,-1.6744184E-1,-6.5372065E-2,-2.3785476E-2,-9.973179E-2,-2.0906815E-1,8.474175E-1,-6.4649564E-1,-3.3002186E-1,6.6930085E-1,-6.0759026E-1,-2.4037798E-1,-4.0140566E-1,2.9697427E-1,-1.8439911E-1,6.740749E-2,-4.7253937E-2,-1.026915E-1,4.938388E-2,-4.314822E-2,-1.19770855E-1,1.9225504E-3,-2.1365094E-1,5.301262E-1,-6.0403985E-1,1.1404486E0,-3.3624953E-1,8.923111E-1,-2.8055412E-1,1.0632414E0,-5.2685714E-1,-7.7853405E-1,3.1713304E-1,-2.9395637E-1,2.7401105E-1,-4.0759534E-1,1.3136219E0,3.3485077E-2,-2.0726945E-1,-5.4290377E-2,3.2244623E-2,8.8125145E-1,-5.8232136E-2,7.190933E-2,-1.17063835E-1,7.3139034E-2,-5.5349946E-2,9.306884E-2,-5.7777934E-2,2.4666494E-2,-1.3302965E-1,4.992468E-2,4.7543976E-2,-3.1181434E-1,-6.5225594E-2,-2.337217E-1,2.3136733E-2,7.7751964E-1,1.3370878E0,-9.2493646E-2,-3.6962062E-1,-2.0863898E-1,1.9728193E0,3.0015293E-1,-5.4629755E-1,5.7521E-1,-9.3075234E-1,-6.0361004E-1,-7.3109883E-1,1.0566782E0,-7.322847E-4,-4.5525444E-1,-5.954254E-1,9.7316325E-1,-3.600044E-1,-5.286278E-1,8.628486E-1,-2.3868208E-1,-1.8167035E-1,-6.539995E-1,-8.818824E-3,-5.22732E-1,-4.548087E-1,8.6001076E-2],"categories":[],"categories_nodes":[],"categories_segments":[],"categories_sizes":[],"default_left":[true,true,true,true,true,true,true,true,false,true,true,true,true,true,true,true,true,true,true,true,false,true,true,true,true,true,true,true,true,true,true,true,true,true,true,true,true,false,true,true,false,false,true,true,true,true,true,true,true,false,true,true,true,true,false,false,false,false,false,false,false,false,false,false,false,false,false,false,false,false,false,false,false,false,false,false,false,false,false,false,false,false,false,false,false,false,false,false,false,false,false,false,false,false,false,false,false],"id":12,"left_children":[1,3,5,7,9,11,13,15,-1,17,19,21,23,25,27,29,31,33,35,37,-1,39,41,43,45,47,49,51,53,55,57,59,61,63,65,67,69,-1,71,73,-1,-1,75,77,79,81,83,85,87,-1,89,91,93,95,-1,-1,-1,-1,-1,-1,-1,-1,-1,-1,-1,-1,-1,-1,-1,-1,-1,-1,-1,-1,-1,-1,-1,-1,-1,-1,-1,-1,-1,-1,-1,-1,-1,-1,-1,-1,-1,-1,-1,-1,-1,-1,-1],"loss_changes":[8.8848724E1,1.1715237E1,2.0038574E1,7.037752E0,5.9067802E0,5.1535873E0,1.3639465E1,5.5261765E0,0E0,4.77425E0,4.2153544E0,6.2788544E0,6.4511795E0,7.43528E0,1.0958641E1,4.2402477E0,9.22795E0,3.1211357E0,1.9517231E0,4.933104E0,0E0,3.73069E0,2.7227705E0,1.9025383E0,2.2033296E0,1.5998001E0,4.3051414E0,7.6177063E0,5.2895756E0,5.535574E0,5.191662E0,6.2417936E0,5.1105967E0,2.886135E0,3.6398673E0,1.5936451E0,4.3745053E-1,0E0,2.2205534E0,1.8354416E0,0E0,0E0,2.7316003E0,2.819107E0,8.1378555E-1,5.946846E0,3.072379E0,2.9078457E0,1.8437195E0,0E0,3.34805E0,2.481334E1,8.188608E0,4.7302985E0,0E0,0E0,0E0,0E0,0E0,0E0,0E0,0E0,0E0,0E0,0E0,0E0,0E0,0E0,0E0,0E0,0E0,0E0,0E0,0E0,0E0,0E0,0E0,0E0,0E0,0E0,0E0,0E0,0E0,0E0,0E0,0E0,0E0,0E0,0E0,0E0,0E0,0E0,0E0,0E0,0E0,0E0,0E0],"parents":[2147483647,0,0,1,1,2,2,3,3,4,4,5,5,6,6,7,7,9,9,10,10,11,11,12,12,13,13,14,14,15,15,16,16,17,17,18,18,19,19,21,21,22,22,23,23,24,24,25,25,26,26,27,27,28,28,29,29,30,30,31,31,32,32,33,33,34,34,35,35,36,36,38,38,39,39,42,42,43,43,44,44,45,45,46,46,47,47,48,48,50,50,51,51,52,52,53,53],"right_children":[2,4,6,8,10,12,14,16,-1,18,20,22,24,26,28,30,32,34,36,38,-1,40,42,44,46,48,50,52,54,56,58,60,62,64,66,68,70,-1,72,74,-1,-1,76,78,80,82,84,86,88,-1,90,92,94,96,-1,-1,-1,-1,-1,-1,-1,-1,-1,-1,-1,-1,-1,-1,-1,-1,-1,-1,-1,-1,-1,-1,-1,-1,-1,-1,-1,-1,-1,-1,-1,-1,-1,-1,-1,-1,-1,-1,-1,-1,-1,-1,-1],"split_conditions":[2.048814E-1,1.5925597E-1,6.25E-2,5E-1,2.04682E-1,2.9973188E-1,9.357396E-2,4.375E-1,2.6946008E-1,5.625E-1,6.39057E-1,2.989732E-1,7.462977E-1,8.9075303E-1,7.232422E-1,1.0168128E-1,5.625E-1,4.375E-1,8.114959E-1,7.636136E-2,-1.939487E-1,7.7467144E-1,1.8798247E-1,3.668663E-1,7.7399814E-1,2.60797E-3,8.962499E-1,6.247122E-1,5E-1,9.349164E-2,1.5527391E-1,2.197997E-1,6.733779E-1,2.0078945E-1,6.501148E-1,1.09221786E-1,1.7286864E-1,-1.8121196E-1,5E-1,2.7656117E-1,2.6769334E-1,-8.4166236E-2,2.9981223E-1,3.6300194E-1,4.7046554E-1,3.2537034E-1,2.5975382E-1,2.722805E-1,3.075096E-1,3.9408657E-1,1.875E-1,3.537463E-1,9.1730094E-1,2.1576378E-1,2.6437545E-1,-1.746964E-2,2.15728E-2,-3.5119154E-2,2.194171E-2,-1.6604984E-2,2.7920652E-2,-1.733338E-2,7.3999483E-3,-3.9908897E-2,1.4977404E-2,1.4263193E-2,-9.3544304E-2,-1.956768E-2,-7.011651E-2,6.94102E-3,2.3325591E-1,4.0112635E-1,-2.7748095E-2,-1.10886194E-1,-6.2591694E-2,5.918458E-1,9.0045884E-2,-1.6388927E-1,1.72563E-1,-2.792257E-1,-1.8108302E-1,-2.1932966E-1,3.1700346E-1,-2.1968542E-4,-1.3657634E-1,-1.7862764E-1,2.9194897E-1,-1.0800132E-1,-1.5858835E-1,2.588546E-1,-7.1604624E-2,-5.450111E-2,-1.9619986E-1,-2.6456472E-3,-1.5681961E-1,-1.3644262E-1,2.5800323E-2],"split_indices":[2,2,4,3,2,2,0,4,0,4,0,2,2,2,0,2,4,4,0,0,0,0,0,2,2,0,2,2,3,2,2,0,0,2,0,0,2,0,5,2,0,0,0,2,2,0,0,2,2,0,4,2,2,2,0,0,0,0,0,0,0,0,0,0,0,0,0,0,0,0,0,0,0,0,0,0,0,0,0,0,0,0,0,0,0,0,0,0,0,0,0,0,0,0,0,0,0],"split_type":[0,0,0,0,0,0,0,0,0,0,0,0,0,0,0,0,0,0,0,0,0,0,0,0,0,0,0,0,0,0,0,0,0,0,0,0,0,0,0,0,0,0,0,0,0,0,0,0,0,0,0,0,0,0,0,0,0,0,0,0,0,0,0,0,0,0,0,0,0,0,0,0,0,0,0,0,0,0,0,0,0,0,0,0,0,0,0,0,0,0,0,0,0,0,0,0,0],"sum_hessian":[1.8687623E4,1.4878412E4,3.8092102E3,1.2795109E4,2.0833027E3,6.913723E2,3.117838E3,1.2788178E4,6.9313583E0,2.0727717E3,1.0531124E1,4.551528E2,2.3621953E2,3.701927E2,2.747645E3,6.277261E3,6.510917E3,1.531065E3,5.417068E2,8.978854E0,1.5522691E0,4.4967346E2,5.4793205E0,1.6657782E2,6.9641716E1,3.549571E2,1.5235622E1,2.5628123E3,1.848327E2,4.2272495E3,2.0500117E3,1.3621132E3,5.1488037E3,1.278798E3,2.5226701E2,5.390756E2,2.6311471E0,1.3299454E0,7.648909E0,4.481153E2,1.5581897E0,1.6906688E0,3.7886517E0,1.1591544E2,5.066237E1,5.674679E0,6.396704E1,2.8304331E0,3.5212665E2,2.3156033E0,1.2920019E1,2.1791682E3,3.8364423E2,1.7817415E2,6.658556E0,3.8711243E3,3.5612515E2,1.8954154E3,1.5459637E2,4.0084006E2,9.612732E2,4.2352734E3,9.135305E2,1.1863231E3,9.24748E1,2.2098184E2,3.1285177E1,6.4719315E1,4.7435632E2,1.2214733E0,1.4096739E0,6.52395E0,1.1249592E0,3.537187E2,9.439658E1,1.005189E0,2.7834628E0,1.144017E2,1.5137432E0,2.4778934E1,2.5883432E1,2.3521543E0,3.3225243E0,2.305672E1,4.091032E1,1.3277097E0,1.5027235E0,2.5559796E2,9.652868E1,2.6560528E0,1.0263967E1,2.0623928E3,1.16775215E2,3.506277E2,3.3016544E1,1.6968922E1,1.6120523E2],"tree_param":{"num_deleted":"0","num_feature":"6","num_nodes":"97","size_leaf_vector":"0"}},{"base_weights":[-6.525076E-2,-3.8474083E-2,-1.7135037E-1,-3.894119E-2,1.0955181E0,-2.9999807E-1,-1.4397334E-1,-3.9463896E-2,8.9868295E-1,1.855509E0,2.2000635E-1,-2.4283466E-1,-4.179364E-1,-2.829162E-1,-1.2332266E-1,-1.4511676E-2,-5.7674043E-2,-1.2274597E-2,4.4505835E-1,-2.5003204E-1,1.3835878E0,-5.221107E-1,-1.792449E-1,-3.1165633E-1,3.0209213E-1,9.545562E-1,-1.2654525E-1,-3.9944526E-2,1.0754005E-2,-5.977267E-2,3.013327E-1,-3.96653E-1,-2.0769002E-1,-4.4088632E-1,-7.0075905E-1,3.8344774E-1,-2.2839342E-1,-4.7315636E-1,-2.7516335E-1,7.590215E-1,-9.522723E-2,-1.0094381E-1,1.7074091E0,-1.2931138E-1,8.747384E-1,-3.7148464E-2,-4.823193E-1,4.018965E-1,4.8739193E-3,-3.4724733E-1,-5.712262E-2,1.0682898E0,2.4837525E-1,-2.7563384E-1,-6.184745E-1,1.7758124E0,-2.2171925E-1,-4.6022996E-1,4.178504E-1,-8.2015073E-1,-4.1479537E-1,-5.8935785E-1,8.203874E-1,-5.219463E-4,-3.686949E-1,9.370079E-2,-5.125956E-1,7.741517E-1,-2.914127E-1,1.1311792E0,3.1419113E-1,-7.9521257E-1,1.8358572E-1,-5.782778E-1,2.806937E-1,-1.6520143E-1,2.4739523E0,-1.4725772E-1,3.2913878E-3],"categories":[],"categories_nodes":[],"categories_segments":[],"categories_sizes":[],"default_left":[true,true,true,true,true,true,true,true,false,false,true,true,true,true,true,true,true,false,false,true,false,true,true,true,true,true,true,true,true,true,true,true,true,true,true,true,true,true,true,true,true,true,true,true,false,false,false,false,false,false,false,false,false,false,false,false,false,false,false,false,false,false,false,false,false,false,false,false,false,false,false,false,false,false,false,false,false,false,false],"id":13,"left_children":[1,3,5,7,9,11,13,15,-1,-1,17,19,21,23,25,27,29,-1,-1,31,-1,33,35,37,39,41,43,45,47,49,51,53,55,57,59,61,63,65,67,69,71,73,75,77,-1,-1,-1,-1,-1,-1,-1,-1,-1,-1,-1,-1,-1,-1,-1,-1,-1,-1,-1,-1,-1,-1,-1,-1,-1,-1,-1,-1,-1,-1,-1,-1,-1,-1,-1],"loss_changes":[5.1905907E1,7.771824E0,1.2924561E1,7.1844215E0,3.612257E0,4.2478333E0,8.681385E0,6.623846E0,0E0,0E0,2.1154831E-1,5.460413E0,5.1088257E0,6.690071E0,9.313576E0,3.9538321E0,6.36792E0,0E0,0E0,2.6233654E0,0E0,1.796978E0,1.887716E0,2.0765343E0,3.4995906E0,6.5340877E0,7.423687E0,3.7747793E0,7.0983014E0,6.364191E0,1.7308187E0,2.4216566E0,9.862489E0,1.8943748E0,1.150589E0,2.864681E0,1.9336998E0,1.5598288E0,5.4738827E0,1.1166368E0,2.290148E0,9.4148487E-1,7.196414E0,6.2665443E0,0E0,0E0,0E0,0E0,0E0,0E0,0E0,0E0,0E0,0E0,0E0,0E0,0E0,0E0,0E0,0E0,0E0,0E0,0E0,0E0,0E0,0E0,0E0,0E0,0E0,0E0,0E0,0E0,0E0,0E0,0E0,0E0,0E0,0E0,0E0],"parents":[2147483647,0,0,1,1,2,2,3,3,4,4,5,5,6,6,7,7,10,10,11,11,12,12,13,13,14,14,15,15,16,16,19,19,21,21,22,22,23,23,24,24,25,25,26,26,27,27,28,28,29,29,30,30,31,31,32,32,33,33,34,34,35,35,36,36,37,37,38,38,39,39,40,40,41,41,42,42,43,43],"right_children":[2,4,6,8,10,12,14,16,-1,-1,18,20,22,24,26,28,30,-1,-1,32,-1,34,36,38,40,42,44,46,48,50,52,54,56,58,60,62,64,66,68,70,72,74,76,78,-1,-1,-1,-1,-1,-1,-1,-1,-1,-1,-1,-1,-1,-1,-1,-1,-1,-1,-1,-1,-1,-1,-1,-1,-1,-1,-1,-1,-1,-1,-1,-1,-1,-1,-1],"split_conditions":[2.0237514E-1,2.0207256E-1,6.25E-2,5E-1,1.875E-1,2.9947925E-1,1.0588358E-1,6.7332335E-2,2.696049E-1,5.566527E-1,5.0532025E-1,2.992723E-1,7.5521135E-1,8.9075303E-1,1.0776132E-1,3.8712704E-1,8.125E-1,-3.6823791E-3,1.335175E-1,1.4343834E-1,4.1507638E-1,3.668663E-1,7.7399814E-1,2.2279438E-1,9.0264416E-1,1.0671813E-1,5E-1,3.846234E-1,3.9234298E-1,6.780248E-2,7.03796E-2,9.3782604E-2,1.4573336E-1,3.6300194E-1,5.1804715E-1,3.2537034E-1,2.5975382E-1,2.0328093E-1,2.2401653E-1,5.625E-1,9.1084707E-1,3.125E-1,2.2812411E-1,7.9507357E-1,2.6242152E-1,-1.1144539E-2,-1.4469579E-1,1.2056895E-1,1.4621759E-3,-1.04174204E-1,-1.7136788E-2,3.2048693E-1,7.451258E-2,-8.269016E-2,-1.8554235E-1,5.3274375E-1,-6.651578E-2,-1.3806899E-1,1.2535512E-1,-2.4604523E-1,-1.2443861E-1,-1.7680736E-1,2.4611624E-1,-1.5658389E-4,-1.1060847E-1,2.8110238E-2,-1.5377869E-1,2.3224552E-1,-8.742382E-2,3.3935377E-1,9.425735E-2,-2.3856378E-1,5.5075716E-2,-1.7348336E-1,8.4208116E-2,-4.956043E-2,7.421857E-1,-4.4177316E-2,9.874164E-4],"split_indices":[2,2,4,3,4,2,0,2,0,0,0,2,2,2,0,0,4,0,0,0,0,2,2,2,2,0,3,0,0,2,2,0,0,2,0,0,0,2,2,4,2,4,2,2,0,0,0,0,0,0,0,0,0,0,0,0,0,0,0,0,0,0,0,0,0,0,0,0,0,0,0,0,0,0,0,0,0,0,0],"split_type":[0,0,0,0,0,0,0,0,0,0,0,0,0,0,0,0,0,0,0,0,0,0,0,0,0,0,0,0,0,0,0,0,0,0,0,0,0,0,0,0,0,0,0,0,0,0,0,0,0,0,0,0,0,0,0,0,0,0,0,0,0,0,0,0,0,0,0,0,0,0,0,0,0,0,0,0,0,0,0],"sum_hessian":[1.8271645E4,1.4590706E4,3.6809382E3,1.4585664E4,5.042374E0,6.441322E2,3.036806E3,1.4578494E4,7.169306E0,2.1000643E0,2.94231E0,4.359103E2,2.0822191E2,3.9130573E2,2.6455002E3,6.1514062E3,8.427088E3,1.913158E0,1.029152E0,4.3483234E2,1.0779898E0,1.4413039E2,6.409152E1,3.7342737E2,1.787838E1,7.005845E0,2.6384944E3,3.065272E3,3.0861343E3,8.378941E3,4.8146904E1,9.556037E1,3.3927194E2,1.0146578E2,4.26646E1,4.602018E0,5.9489502E1,6.662259E1,3.0680475E2,7.8919916E0,9.986387E0,3.27717E0,3.728675E0,2.6320938E3,6.400538E0,3.0470964E3,1.8175434E1,4.4709595E1,3.0414248E3,7.534697E1,8.303595E3,1.8714207E0,4.6275482E1,6.3279545E1,3.2280827E1,1.5008245E0,3.3777112E2,9.968439E1,1.7813973E0,2.8780527E1,1.3884076E1,1.3182425E0,3.2837753E0,2.3052448E1,3.6437054E1,4.2442646E0,6.2378326E1,3.9673595E0,3.028374E2,3.4569032E0,4.435088E0,2.3170602E0,7.6693273E0,1.2271079E0,2.0500622E0,1.310849E0,2.417826E0,2.3182356E3,3.138583E2],"tree_param":{"num_deleted":"0","num_feature":"6","num_nodes":"79","size_leaf_vector":"0"}},{"base_weights":[-4.6868894E-2,-2.0599857E-2,-1.115785E-1,-2.1327857E-2,4.2780563E-1,-1.13194846E-1,8.930816E-1,-2.16692E-2,8.2088935E-1,-4.3160465E-2,7.377672E-1,-1.1883276E-1,1.5040423E-1,-1.5187916E-1,-1.9657936E-2,6.0566336E-1,-7.8788644E-1,9.4248873E-1,2.0723665E-1,-9.2925414E-2,-1.7774272E-1,2.3702356E-1,-4.812594E-2,4.2112565E-1,-1.8018915E-1,7.891645E-1,-2.0124262E-2,-1.9786565E-1,1.1459928E0,5.6455E-1,1.5568286E0,-8.247364E-1,1.0654956E0,-1.4285472E-1,-6.895214E-2,-2.3797946E-1,-4.5596223E-2,1.1766056E0,1.8828075E-1,-2.3568548E-1,1.7698523E-1,1.0917784E-1,9.406475E-1,-4.4009486E-1,-1.3475642E-1,2.2666359E-1,1.4946604E0,-1.49262585E-2,-6.1208673E-2,9.54326E-1,-4.5832738E-1,-1.19234726E-1,-4.003522E-1,6.7686057E-3,-1.1245334E-1,-1.8349141E-1,-5.2551484E-1,-3.1469945E-2,-4.2320228E-1,2.1499677E0,-1.9952516E-1,-5.677341E-3,3.1351542E-1,-4.7982343E-2,-9.0112793E-1,4.5634553E-1,-2.6594967E-1],"categories":[],"categories_nodes":[],"categories_segments":[],"categories_sizes":[],"default_left":[true,true,true,true,true,true,false,true,false,true,true,true,true,true,true,true,false,true,true,true,true,true,true,true,true,true,true,false,false,true,false,false,false,true,true,true,true,true,true,true,true,false,false,false,false,false,false,false,false,false,false,false,false,false,false,false,false,false,false,false,false,false,false,false,false,false,false],"id":14,"left_children":[1,3,5,7,9,11,-1,13,-1,15,17,19,21,23,25,27,-1,29,31,33,35,37,39,41,43,45,47,-1,-1,49,-1,-1,-1,51,53,55,57,59,61,63,65,-1,-1,-1,-1,-1,-1,-1,-1,-1,-1,-1,-1,-1,-1,-1,-1,-1,-1,-1,-1,-1,-1,-1,-1,-1,-1],"loss_changes":[3.054649E1,4.182178E0,8.527054E0,3.6871786E0,3.0636334E0,7.718132E0,0E0,3.338582E0,0E0,4.916793E0,1.1710463E0,7.726532E0,1.8848104E0,3.2219653E0,4.755726E0,2.604064E0,0E0,1.1632934E0,5.1165576E0,4.21047E0,1.2315891E1,3.259873E0,1.4740404E0,1.4256414E0,2.131258E0,2.5446754E0,2.6814456E0,0E0,0E0,3.2340312E0,0E0,0E0,0E0,6.9029655E0,7.8536034E0,1.656512E1,2.579659E0,5.1955366E0,1.7861004E0,2.3217654E0,2.0998936E0,0E0,0E0,0E0,0E0,0E0,0E0,0E0,0E0,0E0,0E0,0E0,0E0,0E0,0E0,0E0,0E0,0E0,0E0,0E0,0E0,0E0,0E0,0E0,0E0,0E0,0E0],"parents":[2147483647,0,0,1,1,2,2,3,3,4,4,5,5,7,7,9,9,10,10,11,11,12,12,13,13,14,14,15,15,17,17,18,18,19,19,20,20,21,21,22,22,23,23,24,24,25,25,26,26,29,29,33,33,34,34,35,35,36,36,37,37,38,38,39,39,40,40],"right_children":[2,4,6,8,10,12,-1,14,-1,16,18,20,22,24,26,28,-1,30,32,34,36,38,40,42,44,46,48,-1,-1,50,-1,-1,-1,52,54,56,58,60,62,64,66,-1,-1,-1,-1,-1,-1,-1,-1,-1,-1,-1,-1,-1,-1,-1,-1,-1,-1,-1,-1,-1,-1,-1,-1,-1,-1],"split_conditions":[1.6339284E-1,9.375E-1,5E-1,5E-1,4.0809512E-1,7.559983E-1,2.679245E-1,1.5543501E-2,2.4626681E-1,2.2219904E-1,6.621114E-1,2.7989447E-1,5E-1,1.9820572E-3,1.5960775E-2,1.4208221E-1,-2.3636594E-1,5.825162E-1,7.072815E-1,2.5297308E-1,6.738875E-1,7.5933653E-1,7.9709995E-1,1.092983E-1,4.277071E-3,5.625E-1,6.875E-1,-5.9359696E-2,3.4379783E-1,5.47778E-1,4.6704862E-1,-2.4742094E-1,3.1964868E-1,2.3148341E-1,4.228041E-1,3.5245502E-1,9.399483E-1,1.910421E-1,2.0146574E-1,7.893803E-1,8.652897E-1,3.2753356E-2,2.8219426E-1,-1.3202846E-1,-4.0426925E-2,6.799908E-2,4.4839814E-1,-4.4778776E-3,-1.8362602E-2,2.862978E-1,-1.3749821E-1,-3.577042E-2,-1.2010567E-1,2.0305817E-3,-3.3736005E-2,-5.5047426E-2,-1.5765446E-1,-9.440984E-3,-1.269607E-1,6.449903E-1,-5.985755E-2,-1.7032024E-3,9.405463E-2,-1.4394703E-2,-2.703384E-1,1.3690366E-1,-7.97849E-2],"split_indices":[2,4,3,3,0,0,0,0,0,0,0,2,5,0,0,0,0,0,0,0,2,0,0,2,0,4,4,0,0,0,0,0,0,0,0,2,2,2,2,0,2,0,0,0,0,0,0,0,0,0,0,0,0,0,0,0,0,0,0,0,0,0,0,0,0,0,0],"split_type":[0,0,0,0,0,0,0,0,0,0,0,0,0,0,0,0,0,0,0,0,0,0,0,0,0,0,0,0,0,0,0,0,0,0,0,0,0,0,0,0,0,0,0,0,0,0,0,0,0,0,0,0,0,0,0,0,0,0,0,0,0,0,0,0,0,0,0],"sum_hessian":[1.7970365E4,1.2782567E4,5.1877983E3,1.2762799E4,1.9768337E1,5.180351E3,7.447055E0,1.2758602E4,4.196661E0,8.187988E0,1.1580349E1,5.0724106E3,1.0794066E2,1.9294214E2,1.256566E4,4.4755273E0,3.712461E0,7.795655E0,3.784694E0,3.5248389E3,1.5475717E3,7.501672E1,3.2923927E1,8.430485E0,1.8451166E2,6.266015E0,1.2559394E4,2.0543256E0,2.4212017E0,6.014512E0,1.7811428E0,1.7361732E0,2.0485208E0,1.1418145E3,2.3830244E3,1.0624645E3,4.8510718E2,2.5585358E0,7.245819E1,1.7934324E1,1.4989606E1,6.023696E0,2.4067883E0,2.6161814E1,1.5834984E2,4.2214675E0,2.0445473E0,1.1150051E4,1.4093427E3,4.4035287E0,1.6109834E0,1.0472173E3,9.45972E1,8.6981604E2,1.5132085E3,8.945795E2,1.6788493E2,4.6865796E2,1.6449196E1,1.1692066E0,1.3893291E0,2.8803398E1,4.3654793E1,1.4824768E1,3.109556E0,9.173547E0,5.8160586E0],"tree_param":{"num_deleted":"0","num_feature":"6","num_nodes":"67","size_leaf_vector":"0"}},{"base_weights":[-3.34664E-2,-2.0435981E-2,-1.0935773E-1,-2.0753747E-2,8.3455896E-1,-2.4057187E-1,-8.301437E-2,2.6361253E-3,-3.0732287E-2,-2.4804376E-1,5.0840867E-1,-9.791356E-2,1.13029875E-1,-6.849272E-3,6.676009E-2,-3.137837E-2,5.004918E-1,-3.74288E-1,-2.1153118E-1,9.1023797E-1,-1.8951862E-1,-7.7056505E-2,-3.0779064E-1,4.3602997E-1,4.173707E-2,4.5272484E-3,-1.3307497E-1,-6.090434E-1,9.154279E-2,-6.144646E-2,-2.0015897E-2,9.21987E-1,-8.947113E-2,-2.9017922E-1,-6.807161E-1,1.3880413E0,-2.4068375E-1,-7.957453E-2,1.2798039E0,-5.787222E-1,-1.9977628E-1,1.3649173E0,-2.6081318E-1,-1.3343596E-1,1.3113332E-1,1.7911376E-1,2.051253E-3,-1.4181706E-1,7.201557E-1,-1.5223058E-1,-8.24526E-1,1.2034453E-1,-1.4029361E-1,-1.3151471E-1,-4.5476932E-2,8.752559E-2,-2.6158739E-2,1.6827138E-1,2.9447649E0,-7.8216296E-1,7.591412E-1,-3.1960312E-1,9.354726E-1,-4.9898293E-2,-7.140061E-1,1.9027399E-1,1.7135429E0,-7.967883E-2,-2.8686035E-1,-5.816114E-1,-7.2968885E-2,3.8940626E-1,1.5420177E0,-4.132252E-1,-7.5141555E-1,8.4406394E-1,-2.4639598E-1,7.955384E-1,3.5806105E0,5.0164603E-2,-7.238759E-1,2.4314657E-1,-3.8269296E-1,-1.5537396E-1,2.6298273E-1],"categories":[],"categories_nodes":[],"categories_segments":[],"categories_sizes":[],"default_left":[true,true,true,true,false,true,true,true,true,true,true,true,true,true,true,true,true,true,true,false,false,true,true,true,true,true,true,true,true,true,true,true,true,true,true,true,true,true,true,true,true,true,true,true,true,false,false,false,false,false,false,false,false,false,false,false,false,false,false,false,false,false,false,false,false,false,false,false,false,false,false,false,false,false,false,false,false,false,false,false,false,false,false,false,false],"id":15,"left_children":[1,3,5,7,-1,9,11,13,15,17,19,21,23,25,27,29,31,33,35,-1,-1,37,39,41,43,45,47,49,51,53,55,57,59,61,63,65,67,69,71,73,75,77,79,81,83,-1,-1,-1,-1,-1,-1,-1,-1,-1,-1,-1,-1,-1,-1,-1,-1,-1,-1,-1,-1,-1,-1,-1,-1,-1,-1,-1,-1,-1,-1,-1,-1,-1,-1,-1,-1,-1,-1,-1,-1],"loss_changes":[1.7556677E1,4.1348443E0,8.973158E0,3.5362096E0,0E0,2.5575619E0,6.3442698E0,2.7567716E0,3.660675E0,1.9068565E0,1.4680215E0,8.799524E0,3.5190527E0,5.670787E0,9.837435E0,3.6230192E0,3.3051145E0,2.2601528E0,1.6025532E1,0E0,0E0,6.3704987E0,5.2066402E0,1.8265512E1,2.0053668E0,1.5658021E0,2.537417E0,1.9210205E0,3.7845583E0,3.2488804E0,5.0891914E0,1.1163912E1,4.304182E0,3.0601382E0,3.8004208E-1,2.0797825E0,2.4404488E0,6.033986E0,2.0668077E-1,1.1560059E0,6.609912E0,1.2315664E1,2.4337234E0,4.165712E0,3.2349072E0,0E0,0E0,0E0,0E0,0E0,0E0,0E0,0E0,0E0,0E0,0E0,0E0,0E0,0E0,0E0,0E0,0E0,0E0,0E0,0E0,0E0,0E0,0E0,0E0,0E0,0E0,0E0,0E0,0E0,0E0,0E0,0E0,0E0,0E0,0E0,0E0,0E0,0E0,0E0,0E0],"parents":[2147483647,0,0,1,1,2,2,3,3,5,5,6,6,7,7,8,8,9,9,10,10,11,11,12,12,13,13,14,14,15,15,16,16,17,17,18,18,21,21,22,22,23,23,24,24,25,25,26,26,27,27,28,28,29,29,30,30,31,31,32,32,33,33,34,34,35,35,36,36,37,37,38,38,39,39,40,40,41,41,42,42,43,43,44,44],"right_children":[2,4,6,8,-1,10,12,14,16,18,20,22,24,26,28,30,32,34,36,-1,-1,38,40,42,44,46,48,50,52,54,56,58,60,62,64,66,68,70,72,74,76,78,80,82,84,-1,-1,-1,-1,-1,-1,-1,-1,-1,-1,-1,-1,-1,-1,-1,-1,-1,-1,-1,-1,-1,-1,-1,-1,-1,-1,-1,-1,-1,-1,-1,-1,-1,-1,-1,-1,-1,-1,-1,-1],"split_conditions":[2.2928914E-1,5E-1,6.25E-2,5.374828E-2,2.503677E-1,9.197161E-1,7.201127E-1,5.1043503E-2,2.2881173E-1,1.4343834E-1,9.378908E-1,6.5314E-1,2.5151518E-1,4.845398E-2,3.473816E-2,2.2877112E-1,3.8608387E-1,1.11725435E-1,1.5074065E-1,2.730714E-1,-5.6855585E-2,6.520968E-1,6.719174E-1,3.125E-1,3.125E-1,1.268887E-2,8.125E-1,1.3352806E-2,7.1134984E-1,6.25E-2,2.625704E-1,3.2380554E-1,3.125E-1,1.09847695E-1,2.347966E-1,1.4510745E-1,2.773837E-1,2.3021096E-1,3.125E-1,6.633632E-1,6.737951E-1,2.4819815E-1,2.4230872E-1,2.8919482E-1,2.9751948E-1,5.373413E-2,6.1537593E-4,-4.254512E-2,2.1604672E-1,-4.5669176E-2,-2.4735782E-1,3.610336E-2,-4.2088084E-2,-3.9454415E-2,-1.364308E-2,2.6257679E-2,-7.847622E-3,5.0481416E-2,8.8342947E-1,-2.346489E-1,2.2774237E-1,-9.588094E-2,2.806418E-1,-1.4969489E-2,-2.1420185E-1,5.70822E-2,5.140629E-1,-2.3903651E-2,-8.605811E-2,-1.7448342E-1,-2.1890666E-2,1.16821885E-1,4.6260533E-1,-1.23967566E-1,-2.2542468E-1,2.532192E-1,-7.39188E-2,2.3866154E-1,1.0741832E0,1.5049381E-2,-2.1716277E-1,7.294397E-2,-1.148079E-1,-4.661219E-2,7.8894824E-2],"split_indices":[2,3,4,2,0,2,0,2,2,0,2,0,2,2,0,0,0,0,0,0,0,0,0,4,4,2,4,0,0,4,0,0,4,0,2,0,0,2,4,0,0,2,2,2,2,0,0,0,0,0,0,0,0,0,0,0,0,0,0,0,0,0,0,0,0,0,0,0,0,0,0,0,0,0,0,0,0,0,0,0,0,0,0,0,0],"split_type":[0,0,0,0,0,0,0,0,0,0,0,0,0,0,0,0,0,0,0,0,0,0,0,0,0,0,0,0,0,0,0,0,0,0,0,0,0,0,0,0,0,0,0,0,0,0,0,0,0,0,0,0,0,0,0,0,0,0,0,0,0,0,0,0,0,0,0,0,0,0,0,0,0,0,0,0,0,0,0,0,0,0,0,0,0],"sum_hessian":[1.7755078E4,1.5154368E4,2.6007112E3,1.5149713E4,4.654774E0,4.3347507E2,2.167236E3,4.5306133E3,1.06191E4,4.2985562E2,3.6194522E0,2.0146268E3,1.5260931E2,3.9475708E3,5.830426E2,1.060714E4,1.1959619E1,9.4357735E1,3.354979E2,2.1039236E0,1.5155287E0,1.8337595E3,1.8086726E2,2.6668522E1,1.2594079E2,3.6220823E3,3.2548837E2,1.9790722E1,5.632519E2,2.9078352E3,7.6993047E3,6.647539E0,5.3120794E0,7.556384E1,1.879389E1,5.1707563E0,3.3032715E2,1.8313024E3,2.4571311E0,5.0312084E1,1.3055518E2,1.1020094E1,1.5648428E1,4.238812E1,8.355267E1,4.9652645E1,3.5724297E3,3.230126E2,2.475761E0,6.8902283E0,1.2900494E1,5.0143765E2,6.1814224E1,5.383823E2,2.369453E3,4.1530994E2,7.283995E3,5.63212E0,1.0154194E0,2.967841E0,2.3442385E0,7.451424E1,1.0496062E0,1.0673531E0,1.7726536E1,1.4435177E0,3.7272387E0,7.423073E1,2.560964E2,2.2652319E1,1.80865E3,1.1243285E0,1.3328025E0,2.7423855E1,2.2888231E1,4.850246E0,1.2570493E2,9.848355E0,1.171739E0,9.894962E0,5.7534657E0,1.6891941E1,2.5496176E1,2.6276255E1,5.7276417E1],"tree_param":{"num_deleted":"0","num_feature":"6","num_nodes":"85","size_leaf_vector":"0"}},{"base_weights":[-2.388961E-2,-8.895255E-3,-6.238633E-2,-2.2577569E-2,4.2246236E-3,-2.7292743E-1,-5.6853745E-2,-6.744665E-3,-7.330899E-2,5.4385774E-2,-9.440479E-3,-1.4429675E-1,-4.7923052E-1,-5.808431E-2,8.550862E-1,-2.5724221E-2,6.8555884E-2,1.0751248E-1,-8.462637E-2,9.1866024E-2,-3.3607088E-2,-8.9618556E-2,-9.591337E-4,-1.8013233E-1,6.745864E-1,-5.4099864E-1,2.0931685E-1,-1.2637085E-1,-4.4248812E-2,-2.7340906E-2,7.050648E-1,5.927008E-2,7.297411E-1,2.4301996E-3,4.4927394E-1,-2.1924832E-1,-6.800691E-2,7.37252E-2,5.8012503E-1,-2.5494397E-1,1.3238182E-2,-4.996605E-2,-4.1430447E-1,2.5492665E-1,-4.8136096E-3,-6.0958743E-2,-4.1536215E-1,-1.8719392E-1,1.3184102E0,-7.893935E-1,-3.184793E-1,9.607024E-1,-4.4800347E-1,8.243082E-1,-1.3131201E-1,-1.4540233E-2,-1.0387159E-1,-2.6471034E-2,-7.287106E-1,1.6156741E0,2.4684253E-1,3.0072433E-1,4.432092E-2,1.040124E0,-7.354414E-1,9.087322E-2,-5.9044486E-1,8.591683E-1,1.21042475E-1,-3.2365766E-1,1.4836763E-1,-1.8907268E-2,-1.23261966E-1,1.8457476E-2,2.202539E-1,7.398016E-1,-2.0322272E-1,8.211127E-1,-3.2635936E-1,1.8531536E0,2.318782E-3,6.099643E-2,-1.3341299E-1,-2.2354698E-1,-9.4259375E-1,1.6213876E0,2.0140988E-1,-2.8477412E-1,-2.5738995E-3,-5.663461E-1,3.273238E-2,-5.273776E-1,6.483438E-1,-3.1966242E-1,-9.0782154E-1,-1.006658E-1,-7.7975714E-1,-5.979175E-1,-7.6641366E-2,1.1646061E0,-7.382122E-2,-6.3129985E-1,-1.2179366E-1,-4.941398E-2,1.3092735E-1,-1.15532055E-1,2.0521705E-1],"categories":[],"categories_nodes":[],"categories_segments":[],"categories_sizes":[],"default_left":[true,true,true,true,true,true,true,true,true,true,true,true,true,true,false,true,true,true,true,true,true,true,true,true,true,true,true,true,true,true,true,true,true,true,true,true,true,true,true,true,true,true,true,true,true,true,true,false,false,true,true,false,true,true,true,true,true,false,false,false,false,false,false,false,false,false,false,false,false,false,false,false,false,false,false,false,false,false,false,false,false,false,false,false,false,false,false,false,false,false,false,false,false,false,false,false,false,false,false,false,false,false,false,false,false,false,false],"id":16,"left_children":[1,3,5,7,9,11,13,15,17,19,21,23,25,27,-1,29,31,33,35,37,39,41,43,45,47,49,51,53,55,57,59,61,63,65,67,69,71,73,75,77,79,81,83,85,87,89,91,-1,-1,93,95,-1,97,99,101,103,105,-1,-1,-1,-1,-1,-1,-1,-1,-1,-1,-1,-1,-1,-1,-1,-1,-1,-1,-1,-1,-1,-1,-1,-1,-1,-1,-1,-1,-1,-1,-1,-1,-1,-1,-1,-1,-1,-1,-1,-1,-1,-1,-1,-1,-1,-1,-1,-1,-1,-1],"loss_changes":[1.0161454E1,2.2746675E0,5.7325935E0,4.981675E0,4.4349303E0,3.2768908E0,5.447011E0,6.7595086E0,3.0281186E0,4.5715075E0,3.4578543E0,2.4426064E0,2.1544304E0,4.5331745E0,0E0,4.481965E0,5.802639E0,3.1354356E0,3.0926008E0,8.5639925E0,4.3012643E0,6.2419953E0,4.5378723E0,2.1211596E0,2.2036996E0,2.1983795E0,2.7379124E0,3.9076576E0,7.0770454E0,2.2807367E0,3.0958133E0,3.3798442E0,6.721792E0,3.6089776E0,2.6585374E0,5.8889008E0,3.3556976E0,7.5924487E0,4.486167E0,5.8359165E0,6.887959E0,4.0326204E0,5.110613E0,4.666354E0,2.8411937E0,2.4804535E0,3.3892913E0,0E0,0E0,8.372383E-1,2.4388342E0,0E0,1.308772E-1,1.4061606E0,3.7565565E0,1.3543175E1,4.813031E0,0E0,0E0,0E0,0E0,0E0,0E0,0E0,0E0,0E0,0E0,0E0,0E0,0E0,0E0,0E0,0E0,0E0,0E0,0E0,0E0,0E0,0E0,0E0,0E0,0E0,0E0,0E0,0E0,0E0,0E0,0E0,0E0,0E0,0E0,0E0,0E0,0E0,0E0,0E0,0E0,0E0,0E0,0E0,0E0,0E0,0E0,0E0,0E0,0E0,0E0],"parents":[2147483647,0,0,1,1,2,2,3,3,4,4,5,5,6,6,7,7,8,8,9,9,10,10,11,11,12,12,13,13,15,15,16,16,17,17,18,18,19,19,20,20,21,21,22,22,23,23,24,24,25,25,26,26,27,27,28,28,29,29,30,30,31,31,32,32,33,33,34,34,35,35,36,36,37,37,38,38,39,39,40,40,41,41,42,42,43,43,44,44,45,45,46,46,49,49,50,50,52,52,53,53,54,54,55,55,56,56],"right_children":[2,4,6,8,10,12,14,16,18,20,22,24,26,28,-1,30,32,34,36,38,40,42,44,46,48,50,52,54,56,58,60,62,64,66,68,70,72,74,76,78,80,82,84,86,88,90,92,-1,-1,94,96,-1,98,100,102,104,106,-1,-1,-1,-1,-1,-1,-1,-1,-1,-1,-1,-1,-1,-1,-1,-1,-1,-1,-1,-1,-1,-1,-1,-1,-1,-1,-1,-1,-1,-1,-1,-1,-1,-1,-1,-1,-1,-1,-1,-1,-1,-1,-1,-1,-1,-1,-1,-1,-1,-1],"split_conditions":[1.6339284E-1,4.375E-1,2.5558107E-2,3.125E-1,5.625E-1,1.7212601E-2,5E-1,1.875E-1,5.4350093E-2,5.1794285E-1,9.086168E-2,1.6795326E-2,7.8313446E-1,6.25E-2,2.5652587E-1,1.6268963E-1,1.6127442E-1,4.4126853E-2,1.3571876E-1,4.9687046E-1,5.59879E-1,8.147298E-2,1.021281E-1,2.8143686E-1,2.4244979E-1,2.096808E-2,8.711461E-1,2.8061757E-2,5.625E-1,8.0878365E-1,1.4583768E-1,3.0978378E-2,6.844356E-1,4.016274E-2,4.8299603E-2,1.17694035E-1,4.6181932E-1,1.13685556E-1,1.2745553E-1,3.2053255E-2,5.602963E-1,5.1522516E-2,6.875E-1,2.0335019E-2,1.081786E-1,1.776588E-1,8.957814E-1,-5.6158178E-2,3.9552307E-1,6.25E-2,2.4097644E-2,2.8821075E-1,9.0093726E-1,2.7394116E-1,3.8702272E-2,4.375E-1,9.010926E-1,-7.94131E-3,-2.1861319E-1,4.8470226E-1,7.4052766E-2,9.02173E-2,1.3296276E-2,3.1203723E-1,-2.2063242E-1,2.7261967E-2,-1.7713347E-1,2.577505E-1,3.6312744E-2,-9.70973E-2,4.451029E-2,-5.6721806E-3,-3.697859E-2,5.537243E-3,6.6076174E-2,2.2194049E-1,-6.096682E-2,2.4633382E-1,-9.790781E-2,5.559461E-1,6.9563463E-4,1.829893E-2,-4.0023897E-2,-6.70641E-2,-2.8277814E-1,4.864163E-1,6.0422964E-2,-8.543224E-2,-7.7216985E-4,-1.6990384E-1,9.819714E-3,-1.5821329E-1,1.9450314E-1,-9.589873E-2,-2.7234647E-1,-3.0199742E-2,-2.3392715E-1,-1.7937526E-1,-2.299241E-2,3.4938183E-1,-2.2146367E-2,-1.8938996E-1,-3.6538098E-2,-1.4824194E-2,3.927821E-2,-3.4659617E-2,6.1565116E-2],"split_indices":[2,4,0,4,4,0,3,4,0,0,0,0,2,4,0,2,2,0,0,0,0,0,0,2,2,0,2,0,4,0,0,2,0,0,0,2,0,2,2,2,0,2,4,2,0,2,2,0,0,4,0,0,2,2,0,4,2,0,0,0,0,0,0,0,0,0,0,0,0,0,0,0,0,0,0,0,0,0,0,0,0,0,0,0,0,0,0,0,0,0,0,0,0,0,0,0,0,0,0,0,0,0,0,0,0,0,0],"split_type":[0,0,0,0,0,0,0,0,0,0,0,0,0,0,0,0,0,0,0,0,0,0,0,0,0,0,0,0,0,0,0,0,0,0,0,0,0,0,0,0,0,0,0,0,0,0,0,0,0,0,0,0,0,0,0,0,0,0,0,0,0,0,0,0,0,0,0,0,0,0,0,0,0,0,0,0,0,0,0,0,0,0,0,0,0,0,0,0,0,0,0,0,0,0,0,0,0,0,0,0,0,0,0,0,0,0,0],"sum_hessian":[1.7603676E4,1.2669985E4,4.9336895E3,6.201702E3,6.468283E3,1.2509008E2,4.8085996E3,4.7274365E3,1.4742653E3,1.3842115E3,5.084072E3,7.809624E1,4.699384E1,4.8030547E3,5.5449038E0,3.7762808E3,9.511559E2,8.6336655E1,1.3879287E3,9.7070087E2,4.1351065E2,4.8543774E2,4.5986343E3,7.556924E1,2.526999E0,4.3321823E1,3.6720178E0,8.0782355E2,3.995231E3,3.7689058E3,7.3751564E0,9.3905725E2,1.2098647E1,6.680351E1,1.9533138E1,1.5117548E2,1.2367532E3,9.370371E2,3.3663765E1,7.1454865E1,3.420558E2,4.3363376E2,5.1803963E1,6.727587E1,4.5313584E3,5.099366E1,2.4575579E1,1.3838776E0,1.1431214E0,1.9266926E1,2.4054895E1,1.4980487E0,2.1739693E0,3.3195407E0,8.0450397E2,2.667383E3,1.327848E3,3.7652734E3,3.6321287E0,1.6232886E0,5.751868E0,5.3635567E1,8.8542163E2,1.0223101E1,1.8755467E0,5.886845E1,7.9350643E0,7.966737E0,1.1566402E1,1.1782944E2,3.334603E1,6.555625E2,5.811907E2,6.812202E2,2.5581685E2,2.8009863E1,5.6539016E0,3.7937996E0,6.7661064E1,1.0226789E0,3.410331E2,1.862454E2,2.4738837E2,3.9106377E1,1.2697583E1,1.4313724E0,6.58445E1,3.4962395E1,4.496396E3,7.186034E0,4.3807625E1,2.269034E1,1.8852402E0,4.624318E0,1.4642609E1,1.716696E1,6.8879356E0,1.1141396E0,1.0598296E0,2.1922162E0,1.1273245E0,1.3809008E1,7.90695E2,2.1521067E3,5.152761E2,1.2801792E3,4.7668926E1],"tree_param":{"num_deleted":"0","num_feature":"6","num_nodes":"107","size_leaf_vector":"0"}},{"base_weights":[-1.7140763E-2,-1.0248836E-2,-7.2874665E-2,-1.1369367E-2,6.153396E-1,-1.03286564E-1,3.1696556E-3,-1.1610325E-2,7.934307E-1,8.839052E-1,-4.126715E-1,-7.285787E-2,-6.255165E-1,1.6255088E0,-6.9272206E-3,-3.5249456E-3,-3.3124864E-2,2.5312105E-1,1.5184227E0,-7.5202656E-1,2.2990389E-2,-7.5947426E-2,1.0109586E0,-6.6817826E-1,-1.0411838E-1,3.8785577E-1,2.08159E0,-5.9303594E-1,1.5352857E-3,-7.583082E-3,4.7838327E-2,-2.4653421E-1,-2.8751293E-2,1.4172373E0,-4.4620863E-1,1.7968283E0,-1.9919272E-1,6.830164E-1,-6.2001884E-1,-3.5098416E-1,-6.560749E-2,1.491951E0,-1.06224604E-1,-4.577841E-1,-7.4753153E-1,-4.6852636E-1,1.0022118E0,3.2798058E-1,-8.174868E-1,2.9584908E0,-9.488681E-3,-1.7831827E-3,-5.9071783E-2,5.7979065E-1,2.7083099E-2,7.489562E-2,-4.6096155E-1,2.1247898E-1,-3.1128097E-2,-8.278969E-1,7.399717E-2,2.6559224E0,8.251624E-1,3.0599275E-1,-4.6429557E-1,3.8705647E-1,-7.410192E-2,-6.6639787E-1,1.4805702E0,-9.427762E-1,-6.517603E-1,1.0301829E-1,-6.097731E-1,-1.6891278E-1,2.0450523E-2],"categories":[],"categories_nodes":[],"categories_segments":[],"categories_sizes":[],"default_left":[true,true,true,true,true,true,true,true,false,true,true,true,true,true,true,true,true,true,true,false,true,true,true,true,true,false,false,true,true,true,true,true,true,false,true,true,false,false,false,true,true,false,false,true,true,true,false,false,false,false,true,false,false,false,false,false,false,false,false,false,false,false,false,false,false,false,false,false,false,false,false,false,false,false,false],"id":17,"left_children":[1,3,5,7,9,11,13,15,-1,17,19,21,23,25,27,29,31,33,35,-1,37,39,41,43,45,-1,-1,47,49,51,53,55,57,-1,59,61,-1,-1,-1,63,65,-1,-1,67,69,71,-1,-1,-1,-1,73,-1,-1,-1,-1,-1,-1,-1,-1,-1,-1,-1,-1,-1,-1,-1,-1,-1,-1,-1,-1,-1,-1,-1,-1],"loss_changes":[6.719676E0,1.0922596E1,4.452757E0,3.0237107E0,8.056493E0,2.1808727E1,9.036388E0,2.7033136E0,0E0,8.584013E0,9.7124076E-1,4.4321537E0,1.6118221E0,1.1186457E0,2.7217093E0,2.3551226E0,3.9550543E0,1.0757137E1,5.6039467E0,0E0,2.034364E0,3.6680942E0,2.1827667E0,8.2126427E-1,3.2520103E0,0E0,0E0,1.8826516E0,1.7687496E1,3.12677E0,9.118875E0,5.9011188E0,2.3923001E0,0E0,1.7549317E0,5.772093E0,0E0,0E0,0E0,3.6258006E0,4.843265E0,0E0,0E0,9.747425E0,3.021965E-1,5.3694344E-1,0E0,0E0,0E0,0E0,2.5843668E0,0E0,0E0,0E0,0E0,0E0,0E0,0E0,0E0,0E0,0E0,0E0,0E0,0E0,0E0,0E0,0E0,0E0,0E0,0E0,0E0,0E0,0E0,0E0,0E0],"parents":[2147483647,0,0,1,1,2,2,3,3,4,4,5,5,6,6,7,7,9,9,10,10,11,11,12,12,13,13,14,14,15,15,16,16,17,17,18,18,20,20,21,21,22,22,23,23,24,24,27,27,28,28,29,29,30,30,31,31,32,32,34,34,35,35,39,39,40,40,43,43,44,44,45,45,50,50],"right_children":[2,4,6,8,10,12,14,16,-1,18,20,22,24,26,28,30,32,34,36,-1,38,40,42,44,46,-1,-1,48,50,52,54,56,58,-1,60,62,-1,-1,-1,64,66,-1,-1,68,70,72,-1,-1,-1,-1,74,-1,-1,-1,-1,-1,-1,-1,-1,-1,-1,-1,-1,-1,-1,-1,-1,-1,-1,-1,-1,-1,-1,-1,-1],"split_conditions":[2.5548857E-1,2.53982E-1,4.7046554E-1,5E-1,5.938869E-1,3.6088225E-1,4.7058362E-1,1.3994661E-1,2.3802921E-1,3.358022E-1,6.6920507E-1,8.0565405E-1,7.215731E-1,3.125E-1,4.8704925E-1,7.301273E-1,1.414698E-1,2.5465566E-1,6.875E-1,-2.2560798E-1,7.285625E-1,2.581311E-1,8.1076574E-1,3.8762358E-1,5E-1,1.1635674E-1,6.24477E-1,1.4688087E-1,4.8727745E-1,6.50845E-1,7.32005E-1,3.0815774E-1,1.4213139E-1,4.251712E-1,3.125E-1,4.3375754E-1,-5.9757818E-2,2.0490493E-1,-1.8600565E-1,1.08491555E-1,2.5908548E-1,4.475853E-1,-3.186738E-2,3.8681936E-1,4.0736073E-1,7.301273E-1,3.0066356E-1,9.839418E-2,-2.4524605E-1,8.875473E-1,1.392656E-1,-5.3495483E-4,-1.7721536E-2,1.739372E-1,8.12493E-3,2.2468686E-2,-1.3828847E-1,6.3743696E-2,-9.338429E-3,-2.4836908E-1,2.2199152E-2,7.967768E-1,2.4754873E-1,9.179783E-2,-1.3928868E-1,1.1611695E-1,-2.2230577E-2,-1.9991937E-1,4.4417107E-1,-2.8283286E-1,-1.9552809E-1,3.0905489E-2,-1.8293193E-1,-5.067384E-2,6.1351573E-3],"split_indices":[2,2,2,3,0,2,2,2,0,0,0,0,0,4,2,0,2,2,4,0,0,2,0,2,5,0,0,0,2,0,0,0,2,0,4,0,0,0,0,0,2,0,0,2,2,0,0,0,0,0,0,0,0,0,0,0,0,0,0,0,0,0,0,0,0,0,0,0,0,0,0,0,0,0,0],"split_type":[0,0,0,0,0,0,0,0,0,0,0,0,0,0,0,0,0,0,0,0,0,0,0,0,0,0,0,0,0,0,0,0,0,0,0,0,0,0,0,0,0,0,0,0,0,0,0,0,0,0,0,0,0,0,0,0,0,0,0,0,0,0,0,0,0,0,0,0,0,0,0,0,0,0,0],"sum_hessian":[1.7494908E4,1.557066E4,1.9242482E3,1.5543801E4,2.6859663E1,1.3742822E3,5.499658E2,1.5540133E4,3.6671653E0,2.1407248E1,5.452416E0,1.2996927E3,7.458949E1,2.4120545E0,5.475538E2,1.1296106E4,4.2440264E3,1.14367285E1,9.970518E0,2.6567745E0,2.7956414E0,1.2969257E3,2.767116E0,6.868781E1,5.901674E0,1.1477771E0,1.2642775E0,6.8101234E0,5.4074365E2,1.0469759E4,8.263479E2,8.411767E1,4.1599087E3,3.9068136E0,7.5299153E0,8.540142E0,1.4303757E0,1.348863E0,1.4467783E0,4.57973E1,1.2511284E3,1.699818E0,1.0672979E0,2.0665386E1,4.802243E1,4.8730655E0,1.0286081E0,1.244041E0,5.5660825E0,1.0153955E0,5.397283E2,9.41073E3,1.0590288E3,3.0019499E1,7.963284E2,3.392072E1,5.019695E1,3.9724564E1,4.120184E3,4.002038E0,3.527877E0,3.612657E0,4.927485E0,6.4867587E0,3.931054E1,2.2224585E1,1.2289038E3,1.9249842E1,1.4155442E0,1.2893327E1,3.5129105E1,1.0192786E0,3.853787E0,8.45996E1,4.5512866E2],"tree_param":{"num_deleted":"0","num_feature":"6","num_nodes":"75","size_leaf_vector":"0"}},{"base_weights":[-1.2254635E-2,-1.2623514E-2,8.693794E-1,-6.434E-3,-5.2649453E-2,-7.4456977E-3,1.7947921E-1,-6.441475E-2,3.8475964E-2,-6.5363436E-3,-4.8206782E-1,-4.431534E-2,5.1715523E-1,-6.174914E-2,-8.121992E-1,1.2317995E0,2.085906E-2,-5.4864738E-2,-3.4525138E-3,-6.104596E-1,4.461852E-1,6.5259373E-1,-1.24642074E-1,2.3133746E-1,1.066682E0,-6.956008E-2,1.1519035E-1,7.647346E-2,-2.1241093E-1,-9.74656E-3,-1.6073838E-1,4.2134148E-1,-4.2770198E-3,-7.4277204E-1,-7.982438E-2,9.5330614E-1,-3.9802767E-2,1.317784E0,-1.349881E-1,-2.0753814E-1,6.388322E-1,8.1593806E-1,-5.4945726E-2,2.2822573E0,4.7135204E-1,-5.3848073E-2,-2.2952133E-1,5.512375E-1,-4.3195616E-3,4.7586057E-2,4.902738E-1,-3.542104E-1,7.305625E-2],"categories":[],"categories_nodes":[],"categories_segments":[],"categories_sizes":[],"default_left":[true,true,false,true,true,true,true,true,true,true,true,true,true,true,false,false,true,true,true,true,true,true,true,true,true,true,true,true,true,false,false,false,false,false,false,false,false,false,false,false,false,false,false,false,false,false,false,false,false,false,false,false,false],"id":18,"left_children":[1,3,-1,5,7,9,11,13,15,17,19,21,23,25,-1,-1,27,29,31,33,35,37,39,41,43,45,47,49,51,-1,-1,-1,-1,-1,-1,-1,-1,-1,-1,-1,-1,-1,-1,-1,-1,-1,-1,-1,-1,-1,-1,-1,-1],"loss_changes":[5.6754494E0,4.313134E0,0E0,2.8377998E0,2.5023327E0,6.470781E0,6.194002E0,4.066906E0,5.5926123E0,2.231213E0,3.68931E0,2.8821967E0,4.877886E0,2.8539524E0,0E0,0E0,3.4460804E0,4.288026E0,4.9315653E0,1.7386999E0,1.038904E0,2.9708648E0,3.0249887E0,3.8507733E0,6.8026886E0,4.9458E0,4.558835E0,2.5373464E0,2.0968492E0,0E0,0E0,0E0,0E0,0E0,0E0,0E0,0E0,0E0,0E0,0E0,0E0,0E0,0E0,0E0,0E0,0E0,0E0,0E0,0E0,0E0,0E0,0E0,0E0],"parents":[2147483647,0,0,1,1,3,3,4,4,5,5,6,6,7,7,8,8,9,9,10,10,11,11,12,12,13,13,16,16,17,17,18,18,19,19,20,20,21,21,22,22,23,23,24,24,25,25,26,26,27,27,28,28],"right_children":[2,4,-1,6,8,10,12,14,16,18,20,22,24,26,-1,-1,28,30,32,34,36,38,40,42,44,46,48,50,52,-1,-1,-1,-1,-1,-1,-1,-1,-1,-1,-1,-1,-1,-1,-1,-1,-1,-1,-1,-1,-1,-1,-1,-1],"split_conditions":[5E-1,2.3354131E-1,2.6081383E-1,2.3021096E-1,8.637201E-1,2.2928914E-1,4.375E-1,8.592466E-1,8.638173E-1,5.497601E-2,6.875E-1,2.3047793E-1,5.224285E-1,7.336741E-1,-2.4365976E-1,3.6953986E-1,9.1321814E-1,1.1898334E-1,5.643647E-2,6.133945E-1,3.1504276E-1,3.5645735E-1,7.036303E-1,5.625E-1,5.829334E-1,6.633632E-1,7.3951596E-1,9.1149247E-1,5.204465E-1,-2.923968E-3,-4.8221517E-2,1.2640245E-1,-1.2831059E-3,-2.2283162E-1,-2.3947315E-2,2.8599185E-1,-1.194083E-2,3.953352E-1,-4.049643E-2,-6.2261444E-2,1.9164968E-1,2.4478142E-1,-1.6483719E-2,6.8467724E-1,1.4140561E-1,-1.6154423E-2,-6.88564E-2,1.6537127E-1,-1.2958685E-3,1.4275818E-2,1.4708215E-1,-1.0626312E-1,2.1916876E-2],"split_indices":[3,2,0,2,2,2,4,2,2,0,4,2,0,0,0,0,2,2,0,0,0,0,0,4,0,0,0,2,0,0,0,0,0,0,0,0,0,0,0,0,0,0,0,0,0,0,0,0,0,0,0,0,0],"split_type":[0,0,0,0,0,0,0,0,0,0,0,0,0,0,0,0,0,0,0,0,0,0,0,0,0,0,0,0,0,0,0,0,0,0,0,0,0,0,0,0,0,0,0,0,0,0,0,0,0,0,0,0,0],"sum_hessian":[1.7416512E4,1.7410213E4,6.2988367E0,1.5079514E4,2.3306987E3,1.4998854E4,8.066044E1,2.064449E3,2.6624997E2,1.4971183E4,2.7670332E1,4.903277E1,3.1627668E1,2.0581946E3,6.254215E0,2.8707583E0,2.633792E2,8.970007E2,1.4074183E4,2.4608896E1,3.0614357E0,4.3312144E0,4.4701553E1,2.1740866E1,9.886802E0,1.9717588E3,8.643585E1,2.132177E2,5.0161522E1,6.2973175E2,2.672689E2,2.6276411E1,1.4047906E4,1.9377413E1,5.231484E0,1.0275838E0,2.0338516E0,1.9830943E0,2.3481202E0,4.0980198E1,3.7213576E0,6.5386333E0,1.5202232E1,2.3187199E0,7.5680814E0,1.7966241E3,1.751347E2,1.7816734E1,6.861912E1,2.0034651E2,1.2871192E1,3.3353233E1,1.6808289E1],"tree_param":{"num_deleted":"0","num_feature":"6","num_nodes":"53","size_leaf_vector":"0"}},{"base_weights":[-8.669512E-3,-8.9541245E-3,8.3435225E-1,-5.9317313E-3,-6.2246498E-2,-7.061576E-3,6.164922E-1,-1.5789074E-1,5.7068453E-3,-6.6455035E-3,-5.95486E-1,8.0302405E-1,-7.2518564E-3,-8.414366E-2,-5.887031E-1,9.728396E-1,-2.35803E-3,-7.029868E-3,5.945532E-1,2.2461216E-1,-8.145864E-1,6.08287E-1,1.8298537E0,-4.3310156E-1,1.3765943E0,-5.3726023E-1,-6.3464046E-2,-6.1448383E-1,2.7536026E-1,1.3292743E0,3.3518532E-1,-5.5400085E-1,4.378293E-3,-2.750155E-2,1.3328841E-3,1.7908581E0,5.9977848E-2,-1.0917624E-1,4.8023117E-1,-9.078715E-1,-2.7806422E-2,8.337702E-1,-5.290534E-1,-1.4273998E-1,-7.091108E-1,4.7488132E-1,-6.503822E-1,-3.924106E-3,-2.4017882E-1,-8.169731E-1,-5.547281E-1,2.6821628E-1,-8.1865156E-1,1.4593445E0,-4.363899E-3],"categories":[],"categories_nodes":[],"categories_segments":[],"categories_sizes":[],"default_left":[true,true,false,true,true,true,true,true,true,true,true,true,true,true,true,true,true,true,true,true,true,true,false,true,false,true,true,true,false,false,false,true,true,false,false,false,false,false,false,false,false,false,false,false,false,false,false,false,false,false,false,false,false,false,false],"id":19,"left_children":[1,3,-1,5,7,9,11,