{"learner":{"attributes":{"best_iteration":"99","best_ntree_limit":"100","scikit_learn":"{\"use_label_encoder\": true, \"n_estimators\": 100, \"objective\": \"binary:logistic\", \"max_depth\": null, \"learning_rate\": null, \"verbosity\": null, \"booster\": null, \"tree_method\": null, \"gamma\": null, \"min_child_weight\": null, \"max_delta_step\": null, \"subsample\": null, \"colsample_bytree\": null, \"colsample_bylevel\": null, \"colsample_bynode\": null, \"reg_alpha\": null, \"reg_lambda\": null, \"scale_pos_weight\": null, \"base_score\": null, \"missing\": NaN, \"num_parallel_tree\": null, \"random_state\": null, \"n_jobs\": null, \"monotone_constraints\": null, \"interaction_constraints\": null, \"importance_type\": null, \"gpu_id\": null, \"validate_parameters\": null, \"predictor\": null, \"enable_categorical\": false, \"classes_\": [0, 1], \"n_classes_\": 2, \"_le\": {\"classes_\": [0, 1]}, \"_estimator_type\": \"classifier\"}"},"feature_names":[],"feature_types":[],"gradient_booster":{"model":{"gbtree_model_param":{"num_trees":"100","size_leaf_vector":"0"},"tree_info":[0,0,0,0,0,0,0,0,0,0,0,0,0,0,0,0,0,0,0,0,0,0,0,0,0,0,0,0,0,0,0,0,0,0,0,0,0,0,0,0,0,0,0,0,0,0,0,0,0,0,0,0,0,0,0,0,0,0,0,0,0,0,0,0,0,0,0,0,0,0,0,0,0,0,0,0,0,0,0,0,0,0,0,0,0,0,0,0,0,0,0,0,0,0,0,0,0,0,0,0],"trees":[{"base_weights":[-1.6311666E0,-1.3763225E0,-1.7839605E0,-1.0379016E0,-1.4912298E0,-1.8058065E0,-1.3407452E0,-6.159368E-1,-1.1004754E0,-1.6646655E0,-1.4426316E0,-1.6647398E0,-1.8487635E0,-1.5367107E0,-4.5544556E-1,-5.670064E-1,-1.5177305E0,-1.298785E0,-1.0457392E0,-1.6707783E0,-1.2344497E0,-1.3866099E0,-1.6515907E0,-1.8651253E0,-1.6340625E0,-1.8576199E0,-1.6156472E0,-1.6002514E0,-1.0810015E0,-1.9679634E-1,-1.1111112E0,-5.026087E-1,-9.8016995E-1,5E-1,-1.5912409E0,-1.5268817E0,-1.2098596E0,-9.9719304E-1,-1.3156713E0,-9.032258E-1,-1.6737944E0,-1.8181819E-1,-1.3298429E0,-1.198834E0,-1.4366233E0,-1.6035343E0,-1.7917142E0,-1.594231E0,-1.826087E0,-1.8051933E0,-1.8844304E0,-1.2446352E0,-1.7334259E0,-1.0198675E0,-1.6379888E0,-1.35E0,-8.319559E-1,5.5932206E-1,-4.7352025E-1,-3.6363637E-1,-1.440678E0,-1.1E0,-4.5708954E-1,-1.4125874E0,-6.728972E-1,-1.6390977E0,-0E0,-1.1034483E0,-1.6674699E0,-1.1342785E0,-1.544592E0,2.3255815E-1,-1.0054089E0,-2.2222222E-1,-1.3496989E0,-1.0344827E0,5E-1,-1.7123971E0,-1.6050981E0,-9.3333334E-1,9.0909094E-1,-1.4124293E0,-2.2222222E-1,-1.2523466E0,-7.4943566E-1,-1.45782E0,-1.1263211E0,-1.6063639E0,-1.0526316E-1,-1.7944423E0,-0E0,-1.4222901E0,-1.6229255E0,-1.8276157E0,-2.2222222E-1,-1.9116644E0,-1.7865016E0,-1.887574E0,-1.62E0,-1.7730496E0,-1.144654E0,-1.6328709E0,-1.9129574E0,-5.7988167E-1,-1.5328467E0,-1.7001181E0,-1.4390467E0,1.3333334E-1,-1.4045308E0,-5.254902E-1,-1.5E0,-2.739726E-2,8.023952E-1,-8.613139E-1,-1.827957E-1,1.875E-1,-1.04E0,-9.0909094E-1,-1.5675676E0],"categories":[],"categories_nodes":[],"categories_segments":[],"categories_sizes":[],"default_left":[true,true,true,true,true,true,true,true,true,true,true,true,true,true,true,true,true,true,true,true,true,true,true,false,true,true,true,true,true,true,true,true,true,false,true,true,true,true,true,true,true,true,true,true,true,true,true,true,true,true,true,true,true,true,true,true,true,true,true,true,true,false,false,false,false,false,false,false,false,false,false,false,false,false,false,false,false,false,false,false,false,false,false,false,false,false,false,false,false,false,false,false,false,false,false,false,false,false,false,false,false,false,false,false,false,false,false,false,false,false,false,false,false,false,false,false,false,false,false],"id":0,"left_children":[1,3,5,7,9,11,13,15,17,19,21,23,25,27,29,31,33,35,37,39,41,43,45,-1,47,49,51,53,55,57,59,61,63,-1,65,67,69,71,73,75,77,79,81,83,85,87,89,91,93,95,97,99,101,103,105,107,109,111,113,115,117,-1,-1,-1,-1,-1,-1,-1,-1,-1,-1,-1,-1,-1,-1,-1,-1,-1,-1,-1,-1,-1,-1,-1,-1,-1,-1,-1,-1,-1,-1,-1,-1,-1,-1,-1,-1,-1,-1,-1,-1,-1,-1,-1,-1,-1,-1,-1,-1,-1,-1,-1,-1,-1,-1,-1,-1,-1,-1],"loss_changes":[2.1989219E3,8.226758E2,3.3976562E2,1.412627E2,1.309414E2,2.01E2,2.8798438E2,2.987259E1,4.9444824E1,7.0273438E0,1.4246094E2,4.5339844E1,5.028125E1,3.7708496E1,5.1166313E1,1.71277E1,6.024048E0,1.8603516E1,4.6819824E1,6.3710938E0,5.0048294E0,8.991211E1,1.46953125E1,0E0,4.936328E1,3.1539062E1,3.945337E1,2.4464111E1,1.0248901E1,4.598292E1,2.053843E1,1.5133026E1,1.0775253E1,0E0,2.6082E0,1.476886E1,1.67229E1,3.172876E1,2.0415344E1,3.3720808E0,6.243164E0,5.357576E0,4.0540314E0,4.8559082E1,4.9003906E1,8.107422E0,3.215088E0,2.5657227E1,2.4558105E0,1.3369141E1,1.059375E1,1.0280212E1,9.878906E0,1.6151749E1,1.1381348E1,6.658249E0,1.7791248E1,8.436312E0,1.7937511E1,1.0446136E1,2.554657E0,0E0,0E0,0E0,0E0,0E0,0E0,0E0,0E0,0E0,0E0,0E0,0E0,0E0,0E0,0E0,0E0,0E0,0E0,0E0,0E0,0E0,0E0,0E0,0E0,0E0,0E0,0E0,0E0,0E0,0E0,0E0,0E0,0E0,0E0,0E0,0E0,0E0,0E0,0E0,0E0,0E0,0E0,0E0,0E0,0E0,0E0,0E0,0E0,0E0,0E0,0E0,0E0,0E0,0E0,0E0,0E0,0E0,0E0],"parents":[2147483647,0,0,1,1,2,2,3,3,4,4,5,5,6,6,7,7,8,8,9,9,10,10,11,11,12,12,13,13,14,14,15,15,16,16,17,17,18,18,19,19,20,20,21,21,22,22,24,24,25,25,26,26,27,27,28,28,29,29,30,30,31,31,32,32,34,34,35,35,36,36,37,37,38,38,39,39,40,40,41,41,42,42,43,43,44,44,45,45,46,46,47,47,48,48,49,49,50,50,51,51,52,52,53,53,54,54,55,55,56,56,57,57,58,58,59,59,60,60],"right_children":[2,4,6,8,10,12,14,16,18,20,22,24,26,28,30,32,34,36,38,40,42,44,46,-1,48,50,52,54,56,58,60,62,64,-1,66,68,70,72,74,76,78,80,82,84,86,88,90,92,94,96,98,100,102,104,106,108,110,112,114,116,118,-1,-1,-1,-1,-1,-1,-1,-1,-1,-1,-1,-1,-1,-1,-1,-1,-1,-1,-1,-1,-1,-1,-1,-1,-1,-1,-1,-1,-1,-1,-1,-1,-1,-1,-1,-1,-1,-1,-1,-1,-1,-1,-1,-1,-1,-1,-1,-1,-1,-1,-1,-1,-1,-1,-1,-1,-1,-1],"split_conditions":[2.6210657E1,3.5E0,3.4785E3,5E-1,4.8273144E1,3.548943E1,6.705594E1,8.55E1,5.0619064E1,3.6665E3,1.313048E2,-2.35E1,1.567131E2,1.43221855E1,3.5945E3,2.0236103E1,2.0150202E9,-1.25E1,1.3786955E2,-9.05E1,3.6865E3,1.0367969E1,1.5841399E2,-5.595376E-1,2.25E1,4.5293484E1,4.5E0,3.5E0,7.658002E1,5.5E0,2.5E0,4.061553E0,-1.5E0,1.5E-1,2.5337227E1,-7.15E1,1.05E1,4.3573885E0,5.242092E0,2.3074371E1,3.5377636E1,2E1,1.7196053E1,1.42293E1,3.4635E3,1.8419415E2,1.8861334E2,3.5E0,9.45E1,-2.85E1,3.4315E3,8.430702E1,2.0160207E9,3.943348E1,8.73241E1,1.4689313E1,3.6465E3,3.5175E3,9.073837E1,6.4E1,2.995E2,-3.3E-1,-1.3712686E-1,-4.2377624E-1,-2.0186917E-1,-4.9172932E-1,-0E0,-3.3103448E-1,-5.00241E-1,-3.4028357E-1,-4.6337762E-1,6.9767445E-2,-3.016227E-1,-6.666667E-2,-4.049097E-1,-3.1034482E-1,1.5E-1,-5.1371914E-1,-4.8152944E-1,-2.8E-1,2.7272728E-1,-4.2372882E-1,-6.666667E-2,-3.7570402E-1,-2.248307E-1,-4.3734604E-1,-3.3789635E-1,-4.819092E-1,-3.157895E-2,-5.383327E-1,-0E0,-4.2668703E-1,-4.8687768E-1,-5.4828477E-1,-6.666667E-2,-5.734993E-1,-5.3595054E-1,-5.662722E-1,-4.8600003E-1,-5.319149E-1,-3.4339622E-1,-4.8986128E-1,-5.738872E-1,-1.739645E-1,-4.5985404E-1,-5.1003546E-1,-4.3171403E-1,4.0000003E-2,-4.2135924E-1,-1.5764707E-1,-4.5000002E-1,-8.219179E-3,2.4071857E-1,-2.5839418E-1,-5.4838713E-2,5.6250002E-2,-3.12E-1,-2.7272728E-1,-4.702703E-1],"split_indices":[5,9,2,9,6,5,5,7,6,2,6,4,5,11,2,5,1,8,6,3,2,5,6,0,4,5,9,9,10,9,9,10,8,0,5,3,4,5,5,5,6,9,11,11,2,10,10,9,3,4,2,6,1,5,10,11,2,2,5,3,0,0,0,0,0,0,0,0,0,0,0,0,0,0,0,0,0,0,0,0,0,0,0,0,0,0,0,0,0,0,0,0,0,0,0,0,0,0,0,0,0,0,0,0,0,0,0,0,0,0,0,0,0,0,0,0,0,0,0],"split_type":[0,0,0,0,0,0,0,0,0,0,0,0,0,0,0,0,0,0,0,0,0,0,0,0,0,0,0,0,0,0,0,0,0,0,0,0,0,0,0,0,0,0,0,0,0,0,0,0,0,0,0,0,0,0,0,0,0,0,0,0,0,0,0,0,0,0,0,0,0,0,0,0,0,0,0,0,0,0,0,0,0,0,0,0,0,0,0,0,0,0,0,0,0,0,0,0,0,0,0,0,0,0,0,0,0,0,0,0,0,0,0,0,0,0,0,0,0,0,0],"sum_hessian":[5.6534E4,2.119425E4,3.533975E4,5.37475E3,1.58195E4,3.367675E4,1.663E3,6.955E2,4.67925E3,3.45525E3,1.236425E4,7.8705E3,2.580625E4,1.361E3,3.02E2,6.6125E2,3.425E1,1.00725E3,3.672E3,3.404E3,5.125E1,9.75625E3,2.608E3,1.037E3,6.8335E3,2.4855E4,9.5125E2,1.19225E3,1.6875E2,2.175E2,8.45E1,5.74E2,8.725E1,1E0,3.325E1,2.78E2,7.2925E2,3.11625E3,5.5575E2,1.45E1,3.3895E3,4.5E0,4.675E1,2.05725E3,7.699E3,1.95125E3,6.5675E2,5.66725E3,1.16625E3,8.433E3,1.6422E4,2.32E2,7.1925E2,7.45E1,1.11775E3,7.9E1,8.975E1,5.8E1,1.595E2,2.65E1,5.8E1,3.9E1,5.35E2,3.475E1,5.25E1,3.225E1,1E0,7.15E1,2.065E2,5.985E2,1.3075E2,2.05E1,3.09575E3,1.7E1,5.3875E2,1.35E1,1E0,2.15475E3,1.23475E3,2.75E0,1.75E0,4.325E1,3.5E0,1.83675E3,2.205E2,7.20325E3,4.9575E2,1.9475E3,3.75E0,6.5575E2,1E0,8.1775E2,4.8495E3,1.165E3,1.25E0,1.24425E3,7.18875E3,1.6223E4,1.99E2,3.425E1,1.9775E2,4.675E2,2.5175E2,4.125E1,3.325E1,8.46E2,2.7175E2,2.75E0,7.625E1,6.275E1,2.7E1,1.725E1,4.075E1,6.75E1,9.2E1,1.5E1,1.15E1,1.275E1,4.525E1],"tree_param":{"num_deleted":"0","num_feature":"12","num_nodes":"119","size_leaf_vector":"0"}},{"base_weights":[-1.2251327E0,-1.0153852E0,-1.3563958E0,-7.500285E-1,-1.1071852E0,-1.3746243E0,-9.9366415E-1,-4.3927845E-1,-7.967672E-1,-1.26277E0,-1.0660236E0,-1.2645062E0,-1.4161203E0,-1.1439147E0,-3.0648726E-1,-4.025464E-1,-1.1454502E0,-1.2523345E0,-7.772066E-1,-1.3670334E0,-1.2161223E0,-9.911628E-1,-1.2199951E0,-1.2407401E0,-1.4544736E0,-1.4260825E0,-1.2382872E0,-1.1949458E0,-7.6011324E-1,-4.816342E-2,-7.204018E-1,-1.1639585E0,-3.6816418E-1,-6.882045E-1,-1.3629968E0,-1.4517218E0,-1.0784985E0,-7.477253E-1,-1.1208491E0,5.7667002E-2,-1.3688086E0,-1.2289007E0,-9.75844E-1,-1.0186893E0,-6.801469E-1,-1.1668547E0,-1.2931268E0,-1.3969505E0,-1.2037745E0,-1.4597893E0,-7.8387773E-1,-1.3858472E0,-1.4494339E0,-9.659728E-1,-1.3204354E0,-7.612246E-1,-1.2249188E0,-1.063978E0,-4.9365395E-1,4.138194E-1,-3.2584906E-1,-4.5088044E-1,-1.1701038E0,-8.288678E-1,-1.5795798E0,-1.3249606E0,-3.4440705E-1,4.5184317E-1,-1.1400566E0,-1.4918268E0,1.2974033E-1,-6.142097E-1,-1.4708812E0,-9.4689846E-1,-1.4370503E0,-8.4444255E-1,-6.8760395E-1,-9.234242E-1,-1.335612E0,-4.0918285E-1,-1.3720838E0,-1.2321917E0,-5.702159E-1,1.3543934E-1,-9.9800676E-1,-1.1583831E0,-9.859442E-1,-7.469739E-1,1.4076047E-1,-1.1696174E0,-4.7590345E-2,-1.3036646E0,-7.7987295E-1,6.583275E-2,-1.398177E0,-1.1420667E0,-1.2700685E0,-1.4622236E0,-3.660729E-1,-1.725986E-1,-1.2708151E0,-1.2878352E0,-1.4054301E0,-1.4535943E0,-1.2314072E0,5.7529366E-1,-9.8709977E-1,-1.2447715E0,-1.4683805E0,-1.2915032E0,-5.159851E-1,-1.2799501E0,-1.0695502E0,1.9403999E-1,-1.10234E0,-1.4690481E0,-4.052949E-1,-7.487628E-1,5.1992875E-1,7.874421E-1,-4.202608E-1,5.4137576E-2,-7.366444E-1,-1.2907317E-1,-1.3416725E0],"categories":[],"categories_nodes":[],"categories_segments":[],"categories_sizes":[],"default_left":[true,true,true,true,true,true,true,true,true,true,true,true,true,true,true,true,true,true,true,true,true,true,true,true,true,true,true,true,true,true,true,true,true,true,true,true,true,true,true,false,true,true,true,true,true,true,true,true,true,true,true,true,true,true,true,true,true,true,true,true,true,true,true,false,false,false,false,false,false,false,false,false,false,false,false,false,false,false,false,false,false,false,false,false,false,false,false,false,false,false,false,false,false,false,false,false,false,false,false,false,false,false,false,false,false,false,false,false,false,false,false,false,false,false,false,false,false,false,false,false,false,false,false,false,false],"id":1,"left_children":[1,3,5,7,9,11,13,15,17,19,21,23,25,27,29,31,33,35,37,39,41,43,45,47,49,51,53,55,57,59,61,63,65,67,69,71,73,75,77,-1,79,81,83,85,87,89,91,93,95,97,99,101,103,105,107,109,111,113,115,117,119,121,123,-1,-1,-1,-1,-1,-1,-1,-1,-1,-1,-1,-1,-1,-1,-1,-1,-1,-1,-1,-1,-1,-1,-1,-1,-1,-1,-1,-1,-1,-1,-1,-1,-1,-1,-1,-1,-1,-1,-1,-1,-1,-1,-1,-1,-1,-1,-1,-1,-1,-1,-1,-1,-1,-1,-1,-1,-1,-1,-1,-1,-1,-1],"loss_changes":[1.4628906E3,4.9795703E2,2.1491406E2,7.613379E1,9.606445E1,1.4050781E2,1.6161658E2,1.7455475E1,3.980664E1,1.37890625E1,1.3751172E2,3.671875E1,3.829297E1,2.4296387E1,3.0205797E1,1.6800064E1,2.4052238E0,4.9077454E0,4.364258E1,2.5422363E0,5.567627E0,6.867969E1,1.3774902E1,4.2149414E1,2.217163E0,1.8097656E1,2.5725708E1,1.3810913E1,1.1925522E1,2.261217E1,1.2636379E1,2.5862503E0,1.3889847E1,7.137346E0,4.377136E0,4.4604492E-1,3.530777E0,2.2949463E1,1.339032E1,0E0,2.4957275E0,3.8254395E0,2.9957428E0,3.2901367E1,3.64144E1,7.019287E0,7.88501E0,2.6867676E0,2.369043E1,1.9527588E0,2.630958E0,1.3321289E1,1.0474609E1,9.797882E0,8.521973E0,9.210564E0,7.6868896E0,3.639351E0,6.62652E0,8.558096E0,1.1892146E1,1.0075066E1,6.984272E0,0E0,0E0,0E0,0E0,0E0,0E0,0E0,0E0,0E0,0E0,0E0,0E0,0E0,0E0,0E0,0E0,0E0,0E0,0E0,0E0,0E0,0E0,0E0,0E0,0E0,0E0,0E0,0E0,0E0,0E0,0E0,0E0,0E0,0E0,0E0,0E0,0E0,0E0,0E0,0E0,0E0,0E0,0E0,0E0,0E0,0E0,0E0,0E0,0E0,0E0,0E0,0E0,0E0,0E0,0E0,0E0,0E0,0E0,0E0,0E0,0E0,0E0],"parents":[2147483647,0,0,1,1,2,2,3,3,4,4,5,5,6,6,7,7,8,8,9,9,10,10,11,11,12,12,13,13,14,14,15,15,16,16,17,17,18,18,19,19,20,20,21,21,22,22,23,23,24,24,25,25,26,26,27,27,28,28,29,29,30,30,31,31,32,32,33,33,34,34,35,35,36,36,37,37,38,38,40,40,41,41,42,42,43,43,44,44,45,45,46,46,47,47,48,48,49,49,50,50,51,51,52,52,53,53,54,54,55,55,56,56,57,57,58,58,59,59,60,60,61,61,62,62],"right_children":[2,4,6,8,10,12,14,16,18,20,22,24,26,28,30,32,34,36,38,40,42,44,46,48,50,52,54,56,58,60,62,64,66,68,70,72,74,76,78,-1,80,82,84,86,88,90,92,94,96,98,100,102,104,106,108,110,112,114,116,118,120,122,124,-1,-1,-1,-1,-1,-1,-1,-1,-1,-1,-1,-1,-1,-1,-1,-1,-1,-1,-1,-1,-1,-1,-1,-1,-1,-1,-1,-1,-1,-1,-1,-1,-1,-1,-1,-1,-1,-1,-1,-1,-1,-1,-1,-1,-1,-1,-1,-1,-1,-1,-1,-1,-1,-1,-1,-1,-1,-1,-1,-1,-1,-1],"split_conditions":[2.6410223E1,3.5E0,3.4795E3,5E-1,-8.5E0,3.7141617E1,7.004641E1,8.55E1,-1.55E1,-1.65E1,6.5E0,1.422154E2,1.4645306E2,1.4901558E1,3.5825E3,-8.55E1,2.0160211E9,-1.65E1,1.15E1,7.719744E-2,3.5035E3,1.6148962E1,1.25E1,4.3805992E1,3.265E2,4.7339184E1,4.5E0,3.5E0,-5.5E0,7.5E0,1.25E1,4.5E0,-3.55E1,7.35E1,1.5473624E2,4.061553E0,2.9527292E1,1.5E0,8.5E0,1.7300101E-2,-9.15E1,9.05E1,2.5385562E-1,-5.5E0,3.4465E3,9.15E1,3.345E2,1.65E1,3.2171402E1,9.35E1,3.5E0,4.5E0,3.4055E3,1.4692345E2,2.0160207E9,6.510399E1,7.951721E1,-3.55E1,-9.15E1,-8.15E1,-3.55E1,3.5985E3,-6.1E1,-2.4866034E-1,-4.7387397E-1,-3.974882E-1,-1.0332212E-1,1.3555296E-1,-3.42017E-1,-4.4754806E-1,3.89221E-2,-1.8426292E-1,-4.412644E-1,-2.8406954E-1,-4.3111512E-1,-2.5333276E-1,-2.062812E-1,-2.7702728E-1,-4.0068364E-1,-1.2275486E-1,-4.1162515E-1,-3.6965752E-1,-1.7106476E-1,4.06318E-2,-2.9940203E-1,-3.4751496E-1,-2.9578328E-1,-2.2409217E-1,4.222814E-2,-3.5088524E-1,-1.4277104E-2,-3.910994E-1,-2.339619E-1,1.9749826E-2,-4.194531E-1,-3.4262002E-1,-3.8102058E-1,-4.3866712E-1,-1.0982187E-1,-5.1779583E-2,-3.8124457E-1,-3.863506E-1,-4.2162904E-1,-4.360783E-1,-3.6942217E-1,1.7258811E-1,-2.9612994E-1,-3.7343144E-1,-4.4051415E-1,-3.8745096E-1,-1.5479553E-1,-3.8398507E-1,-3.2086506E-1,5.8211997E-2,-3.30702E-1,-4.4071445E-1,-1.21588476E-1,-2.2462885E-1,1.5597863E-1,2.3623264E-1,-1.2607825E-1,1.6241273E-2,-2.2099333E-1,-3.8721953E-2,-4.025018E-1],"split_indices":[5,9,2,9,4,5,5,7,4,4,4,6,5,11,2,7,1,8,4,11,2,11,4,6,0,5,9,9,8,9,9,4,8,3,6,10,11,9,8,0,3,3,11,4,2,3,0,2,5,3,8,9,2,5,1,6,10,4,7,7,4,2,3,0,0,0,0,0,0,0,0,0,0,0,0,0,0,0,0,0,0,0,0,0,0,0,0,0,0,0,0,0,0,0,0,0,0,0,0,0,0,0,0,0,0,0,0,0,0,0,0,0,0,0,0,0,0,0,0,0,0,0,0,0,0],"split_type":[0,0,0,0,0,0,0,0,0,0,0,0,0,0,0,0,0,0,0,0,0,0,0,0,0,0,0,0,0,0,0,0,0,0,0,0,0,0,0,0,0,0,0,0,0,0,0,0,0,0,0,0,0,0,0,0,0,0,0,0,0,0,0,0,0,0,0,0,0,0,0,0,0,0,0,0,0,0,0,0,0,0,0,0,0,0,0,0,0,0,0,0,0,0,0,0,0,0,0,0,0,0,0,0,0,0,0,0,0,0,0,0,0,0,0,0,0,0,0,0,0,0,0,0,0],"sum_hessian":[5.3183215E4,2.0474846E4,3.2708371E4,5.26501E3,1.5209835E4,3.1140664E4,1.5677081E3,6.8971606E2,4.575294E3,3.1758582E3,1.2033977E4,8.53166E3,2.2609004E4,1.2858859E3,2.818223E2,6.5710626E2,3.2609814E1,1.857658E2,4.3895283E3,9.729336E2,2.2029246E3,8.1021533E3,3.9318235E3,7.5896694E3,9.419901E2,2.1402984E4,1.2060192E3,1.1331112E3,1.527746E2,1.7421265E2,1.0760965E2,2.6970785E1,6.301355E2,1.1855359E1,2.0754456E1,8.310008E1,1.0266571E2,4.045627E3,3.439012E2,1.1716563E0,9.7176196E2,2.087778E3,1.1514642E2,7.441286E3,6.60867E2,2.2869724E3,1.644851E3,1.4452946E3,6.144375E3,9.3341425E2,8.575861E0,7.882133E3,1.3520852E4,2.824568E2,9.2356244E2,7.495014E1,1.0581611E3,6.997898E1,8.2795616E1,6.52187E1,1.0899394E2,6.8536224E1,3.9073425E1,1.6589745E1,1.038104E1,1.3940097E1,6.161954E2,3.365085E0,8.490274E0,1.910612E1,1.648335E0,2.5978608E0,8.050222E1,7.776452E1,2.4901192E1,1.5458201E3,2.499807E3,1.8194473E2,1.6195647E2,3.7335463E0,9.6802844E2,2.0765325E3,1.1245534E1,2.151565E0,1.1299486E2,1.4065262E3,6.03476E3,6.112014E2,4.9665585E1,2.2812964E3,5.676008E0,1.6102505E3,3.4600456E1,1.1667104E0,1.4441278E3,3.1917053E3,2.9526697E3,9.3100507E2,2.4091835E0,4.402996E0,4.1728644E0,1.3237196E3,6.558413E3,1.3262113E4,2.587386E2,3.4647434E0,2.7899203E2,6.1727936E2,3.0628305E2,2.2352121E1,5.259802E1,7.760477E2,2.821134E2,1.9507077E0,6.8028275E1,5.579352E0,7.721626E1,4.948138E0,6.027056E1,7.946719E0,1.01047226E2,2.5059763E1,4.3476463E1,5.776367E0,3.329706E1],"tree_param":{"num_deleted":"0","num_feature":"12","num_nodes":"125","size_leaf_vector":"0"}},{"base_weights":[-9.925461E-1,-8.1813616E-1,-1.1515425E0,-5.7576734E-1,-8.9744365E-1,-1.1725483E0,-8.03028E-1,-9.504385E-1,-5.472049E-1,-1.0524659E0,-8.5983515E-1,-1.0895617E0,-1.2035643E0,-9.675747E-1,-2.402232E-1,-1.2241365E0,-7.3998874E-1,-5.0429565E-1,-7.892353E-1,-1.2109295E0,-1.0105108E0,-7.9387796E-1,-1.0066941E0,-1.2730259E0,-1.0671476E0,-1.2148396E0,-9.7817767E-1,-1.025684E0,-6.4878374E-1,-5.20894E-1,6.012262E-3,1.2729095E-1,-1.2339616E0,-9.534162E-1,-5.7864213E-1,-6.7596966E-1,-4.518845E-1,-6.0488796E-1,-1.0076398E0,-1.2170032E0,-2.0525806E-1,-9.9377483E-1,-1.1771499E0,-8.1899154E-1,-5.499321E-1,-9.741357E-1,-1.1837276E0,-1.2757792E0,1.6788939E-1,-1.0388321E0,-1.2471378E0,-9.3470824E-1,-1.2185478E0,-6.804198E-1,-1.0810477E0,-1.2491944E0,-9.873753E-1,-9.020159E-1,-3.7842256E-1,-6.4053565E-1,2.789046E-1,-3.979682E-1,4.059922E-1,-1.2434329E0,-3.3352846E-1,-5.229938E-1,-1.045837E0,-8.976931E-1,-4.462161E-1,-8.974552E-1,-2.7060482E-1,-6.5148103E-1,-3.8983354E-1,-4.8606956E-1,-9.5277053E-1,-9.2103344E-1,-1.1972386E0,-1.2214812E0,-6.0968584E-1,-9.136402E-1,4.332604E-1,-1.0900168E0,-9.673272E-1,-1.2056206E0,-1.2424781E-1,-9.513474E-1,-7.873945E-1,-6.083187E-1,-1.3960706E-1,-9.868493E-1,-7.184332E-1,-1.1903442E0,2.7306804E-1,-9.4938445E-1,-1.0814806E0,-1.1303674E0,-1.2681679E0,-7.58181E-1,-1.1018456E0,-1.2047459E0,-1.2860031E0,-5.40074E-1,-1.1111826E0,-9.905391E-1,-1.2562982E0,-1.2554181E0,-2.4902676E-1,-1.0298826E0,-8.427784E-1,-7.2682947E-1,-1.1671643E0,-1.4695893E-1,-9.1681194E-1,-2.1779901E-1,-8.019413E-1,1.1656532E0,-1.1598549E-1,-9.500168E-1,-7.97825E-2,5.7591015E-1,-3.357994E-1],"categories":[],"categories_nodes":[],"categories_segments":[],"categories_sizes":[],"default_left":[true,true,true,true,true,true,true,true,true,true,true,true,true,true,true,true,true,true,true,true,true,true,true,true,true,true,true,true,true,true,true,false,true,true,true,true,true,true,true,true,true,true,true,true,true,true,true,false,false,true,true,true,true,true,true,true,true,true,true,true,true,true,true,false,false,false,false,false,false,false,false,false,false,false,false,false,false,false,false,false,false,false,false,false,false,false,false,false,false,false,false,false,false,false,false,false,false,false,false,false,false,false,false,false,false,false,false,false,false,false,false,false,false,false,false,false,false,false,false,false,false],"id":2,"left_children":[1,3,5,7,9,11,13,15,17,19,21,23,25,27,29,31,33,35,37,39,41,43,45,47,49,51,53,55,57,59,61,-1,63,65,67,69,71,73,75,77,79,81,83,85,87,89,91,-1,-1,93,95,97,99,101,103,105,107,109,111,113,115,117,119,-1,-1,-1,-1,-1,-1,-1,-1,-1,-1,-1,-1,-1,-1,-1,-1,-1,-1,-1,-1,-1,-1,-1,-1,-1,-1,-1,-1,-1,-1,-1,-1,-1,-1,-1,-1,-1,-1,-1,-1,-1,-1,-1,-1,-1,-1,-1,-1,-1,-1,-1,-1,-1,-1,-1,-1,-1,-1],"loss_changes":[1.3049961E3,4.3123633E2,1.7939258E2,5.877295E1,9.775488E1,5.848242E1,1.2973834E2,2.1621643E1,5.3091797E1,2.071167E1,1.3116602E2,2.4674316E1,4.176172E1,1.9445435E1,2.2037834E1,2.3940887E0,7.149086E0,3.9083252E1,3.0547455E1,3.9381104E0,6.1223145E0,5.7175293E1,2.3162598E1,2.9281006E0,2.7488281E1,1.5578125E1,2.4085571E1,6.614197E0,1.1304375E1,1.4437126E1,2.7763697E1,0E0,1.0125275E0,3.2214432E0,5.08762E0,9.150336E1,4.1320435E1,1.6986206E1,4.688904E0,1.1081543E0,2.8016427E0,5.01001E0,6.841339E0,3.4907715E1,2.1021637E1,1.0893555E1,6.597046E0,0E0,0E0,1.7612305E1,4.3945312E-1,5.4939423E0,1.3232422E1,1.2142273E1,8.281677E0,4.9865723E-1,3.970459E0,3.197937E0,1.0331913E1,8.690178E0,7.168771E0,1.494104E1,1.1074873E1,0E0,0E0,0E0,0E0,0E0,0E0,0E0,0E0,0E0,0E0,0E0,0E0,0E0,0E0,0E0,0E0,0E0,0E0,0E0,0E0,0E0,0E0,0E0,0E0,0E0,0E0,0E0,0E0,0E0,0E0,0E0,0E0,0E0,0E0,0E0,0E0,0E0,0E0,0E0,0E0,0E0,0E0,0E0,0E0,0E0,0E0,0E0,0E0,0E0,0E0,0E0,0E0,0E0,0E0,0E0,0E0,0E0,0E0],"parents":[2147483647,0,0,1,1,2,2,3,3,4,4,5,5,6,6,7,7,8,8,9,9,10,10,11,11,12,12,13,13,14,14,15,15,16,16,17,17,18,18,19,19,20,20,21,21,22,22,23,23,24,24,25,25,26,26,27,27,28,28,29,29,30,30,32,32,33,33,34,34,35,35,36,36,37,37,38,38,39,39,40,40,41,41,42,42,43,43,44,44,45,45,46,46,49,49,50,50,51,51,52,52,53,53,54,54,55,55,56,56,57,57,58,58,59,59,60,60,61,61,62,62],"right_children":[2,4,6,8,10,12,14,16,18,20,22,24,26,28,30,32,34,36,38,40,42,44,46,48,50,52,54,56,58,60,62,-1,64,66,68,70,72,74,76,78,80,82,84,86,88,90,92,-1,-1,94,96,98,100,102,104,106,108,110,112,114,116,118,120,-1,-1,-1,-1,-1,-1,-1,-1,-1,-1,-1,-1,-1,-1,-1,-1,-1,-1,-1,-1,-1,-1,-1,-1,-1,-1,-1,-1,-1,-1,-1,-1,-1,-1,-1,-1,-1,-1,-1,-1,-1,-1,-1,-1,-1,-1,-1,-1,-1,-1,-1,-1,-1,-1,-1,-1,-1,-1],"split_conditions":[3.1392673E1,3.5E0,3.4525E3,-1.35E1,-1.05E1,4.033608E1,6.705594E1,-1.65E1,8.5E0,-2.15E1,7.5E0,-2.85E1,1.5600801E2,1.2507238E1,2.0160205E9,1.35E1,1.553E3,-1.25E1,8.5E0,3.505E2,1.5217209E2,1.5258809E1,2.15E1,9.15E1,2.75E1,2.786099E0,4.5E0,-2.75E1,8.006872E1,2.55E1,9.4101E1,3.8187288E-2,3.355E2,2.0160201E9,-2.05E1,0E0,7.447942E0,2.6009613E1,1.75E1,4.05E1,3.5175E3,3.4444435E1,3.5535E3,-6.5E0,3.2145E3,2.1019688E1,3.802E3,-3.827338E-1,5.036682E-2,7.5E0,4.5E0,4.502221E1,2.85E1,2.0160211E9,2.0160207E9,3.785E2,7.791662E1,5.816356E1,3.5955E3,4.5E0,3.892418E1,5.919037E1,3.5985E3,-3.730299E-1,-1.0005854E-1,-1.5689814E-1,-3.1375113E-1,-2.6930794E-1,-1.3386483E-1,-2.6923656E-1,-8.118145E-2,-1.9544432E-1,-1.16950065E-1,-1.4582087E-1,-2.8583118E-1,-2.7631006E-1,-3.5917157E-1,-3.6644438E-1,-1.8290576E-1,-2.7409208E-1,1.2997814E-1,-3.2700506E-1,-2.9019818E-1,-3.616862E-1,-3.7274346E-2,-2.8540424E-1,-2.3621836E-1,-1.8249561E-1,-4.188212E-2,-2.960548E-1,-2.1552996E-1,-3.571033E-1,8.1920415E-2,-2.8481534E-1,-3.244442E-1,-3.3911023E-1,-3.8045037E-1,-2.274543E-1,-3.305537E-1,-3.614238E-1,-3.8580096E-1,-1.620222E-1,-3.3335477E-1,-2.9716173E-1,-3.7688947E-1,-3.7662545E-1,-7.470803E-2,-3.089648E-1,-2.5283352E-1,-2.1804886E-1,-3.501493E-1,-4.4087682E-2,-2.750436E-1,-6.533971E-2,-2.4058239E-1,3.4969598E-1,-3.479565E-2,-2.8500506E-1,-2.3934752E-2,1.7277305E-1,-1.0073982E-1],"split_indices":[5,9,2,4,4,5,5,8,4,4,4,4,5,11,1,2,2,8,8,0,6,11,4,3,4,6,9,4,10,4,5,0,0,1,4,4,10,11,4,8,2,6,2,4,2,11,2,0,0,9,9,10,4,1,1,0,10,10,2,9,10,10,2,0,0,0,0,0,0,0,0,0,0,0,0,0,0,0,0,0,0,0,0,0,0,0,0,0,0,0,0,0,0,0,0,0,0,0,0,0,0,0,0,0,0,0,0,0,0,0,0,0,0,0,0,0,0,0,0,0,0],"split_type":[0,0,0,0,0,0,0,0,0,0,0,0,0,0,0,0,0,0,0,0,0,0,0,0,0,0,0,0,0,0,0,0,0,0,0,0,0,0,0,0,0,0,0,0,0,0,0,0,0,0,0,0,0,0,0,0,0,0,0,0,0,0,0,0,0,0,0,0,0,0,0,0,0,0,0,0,0,0,0,0,0,0,0,0,0,0,0,0,0,0,0,0,0,0,0,0,0,0,0,0,0,0,0,0,0,0,0,0,0,0,0,0,0,0,0,0,0,0,0,0,0],"sum_hessian":[4.7092805E4,2.2460783E4,2.4632023E4,5.5396187E3,1.6921164E4,2.3229568E4,1.4024554E3,3.9010428E2,5.1495146E3,3.2983584E3,1.3622805E4,6.329759E3,1.689981E4,1.0846252E3,3.1783017E2,1.674771E2,2.2262717E2,4.3766646E3,7.728498E2,6.8463715E2,2.6137212E3,9.405166E3,4.2176387E3,6.83052E2,5.6467065E3,1.6090464E4,8.093456E2,9.1552576E2,1.690995E2,1.4800812E2,1.6982205E2,1.1225029E0,1.663546E2,9.373133E1,1.2889584E2,1.0208723E3,3.3557925E3,4.2114554E2,3.5170425E2,6.803183E2,4.3188553E0,2.3815046E3,2.3221663E2,8.525165E3,8.800008E2,3.5679568E3,6.49682E2,6.8186365E2,1.1883568E0,4.884987E3,7.617197E2,2.1352222E2,1.5876941E4,2.0977225E2,5.9957336E2,1.2933244E2,7.861933E2,8.610935E1,8.299015E1,1.2892186E2,1.9086266E1,8.449101E1,8.533104E1,1.6424602E2,2.108575E0,1.7745548E1,7.598578E1,3.611235E1,9.278349E1,6.5938165E2,3.6149066E2,7.935899E2,2.5622026E3,3.157121E2,1.0543343E2,2.4544563E2,1.06258606E2,6.743349E2,5.983395E0,1.8431554E0,2.4757001E0,5.0470102E2,1.8768036E3,2.259615E2,6.255127E0,1.6373604E3,6.887805E3,7.699582E2,1.1004259E2,3.3962356E3,1.7172116E2,6.469266E2,2.755393E0,1.5846755E3,3.3003113E3,1.2460359E2,6.3711615E2,1.0653659E2,1.0698562E2,1.3195811E4,2.6811309E3,1.5992215E2,4.98501E1,3.9976562E2,1.9980772E2,1.28279E2,1.0534403E0,6.0285046E2,1.833428E2,5.4103676E1,3.2005676E1,5.8928608E1,2.4061546E1,3.627184E1,9.265001E1,5.2793455E0,1.3806919E1,3.0166588E1,5.432442E1,6.960959E1,1.5721445E1],"tree_param":{"num_deleted":"0","num_feature":"12","num_nodes":"121","size_leaf_vector":"0"}},{"base_weights":[-8.2405114E-1,-6.541612E-1,-1.0025812E0,-4.3827665E-1,-7.2785354E-1,-1.0261837E0,-6.396452E-1,-7.803591E-1,-4.121498E-1,-9.091981E-1,-6.954401E-1,-1.1381314E0,-1.0002798E0,-7.974057E-1,-1.739278E-1,-1.0505447E0,-5.8429223E-1,-3.5381934E-1,-5.715347E-1,-8.3373976E-1,-9.7382617E-1,-6.6169876E-1,-9.5246536E-1,-1.0938091E0,-1.1630324E0,-9.595486E-1,-1.1253623E0,-8.5736483E-1,-4.868015E-1,4.701142E-2,-4.2369032E-1,-1.0608027E0,1.7746978E-1,-7.802385E-1,-4.4862625E-1,-4.9523932E-1,-2.572608E-1,-3.386687E-1,-8.348167E-1,-8.5796154E-1,-6.192469E-1,3.8875315E-1,-9.7642237E-1,-4.565209E-1,-6.939713E-1,-8.77916E-1,-1.0817267E0,-1.1333263E0,-1.0095422E0,-1.1658922E0,-8.2551885E-1,-8.2819474E-1,-9.897727E-1,-1.0826658E0,-1.1576933E0,-1.1186877E0,-8.2528317E-1,-7.44764E-1,-2.5723517E-1,2.0190947E-1,-4.6268743E-1,-4.6827546E-1,1.5423685E0,1.06344245E-1,-1.0700195E0,-6.397617E-1,-1.0167975E0,4.4208947E-1,-4.918063E-1,-6.3984644E-1,-1.4452334E-1,-1.2175382E-1,-3.6788514E-1,-2.6432416E-1,-6.3832396E-1,-7.051499E-1,-9.424663E-1,-8.6506325E-1,-2.7929476E-1,5.7406586E-1,-6.4918685E-1,-2.0917113E-1,8.080829E-1,-1.0907646E0,-9.387122E-1,-5.36791E-1,-2.843169E-1,-7.079248E-1,-4.6817765E-1,-8.971694E-1,-3.6617053E-1,-9.695421E-1,-1.1360797E0,-1.1343256E0,-1.984525E-1,-6.65095E-1,-1.02906E0,-1.1662788E0,-1.7740512E-1,2.6167417E-1,-9.715952E-1,-8.630432E-1,-4.2751858E-1,-9.068838E-1,-1.0240585E0,-1.0184082E0,-1.1296791E0,-1.0712497E0,-1.1714033E0,-1.128383E0,-2.184021E-1,-3.007789E-1,-8.399166E-1,1.7033982E-1,-8.2579684E-1,-3.533402E-2,-8.3737653E-1,9.912204E-1,1.0655464E-1,1.07568815E-1,-9.863821E-1,3.9055023E-1,-5.496599E-1],"categories":[],"categories_nodes":[],"categories_segments":[],"categories_sizes":[],"default_left":[true,true,true,true,true,true,true,true,true,true,true,true,true,true,true,true,true,true,true,true,true,true,true,true,true,true,true,true,true,true,true,true,false,true,true,true,true,true,true,true,true,true,true,true,true,true,true,true,true,true,true,true,true,true,true,true,true,true,true,true,true,true,false,false,false,false,false,false,false,false,false,false,false,false,false,false,false,false,false,false,false,false,false,false,false,false,false,false,false,false,false,false,false,false,false,false,false,false,false,false,false,false,false,false,false,false,false,false,false,false,false,false,false,false,false,false,false,false,false,false,false,false,false],"id":3,"left_children":[1,3,5,7,9,11,13,15,17,19,21,23,25,27,29,31,33,35,37,39,41,43,45,47,49,51,53,55,57,59,61,63,-1,65,67,69,71,73,75,77,79,81,83,85,87,89,91,93,95,97,99,101,103,105,107,109,111,113,115,117,119,121,-1,-1,-1,-1,-1,-1,-1,-1,-1,-1,-1,-1,-1,-1,-1,-1,-1,-1,-1,-1,-1,-1,-1,-1,-1,-1,-1,-1,-1,-1,-1,-1,-1,-1,-1,-1,-1,-1,-1,-1,-1,-1,-1,-1,-1,-1,-1,-1,-1,-1,-1,-1,-1,-1,-1,-1,-1,-1,-1,-1,-1],"loss_changes":[1.2404961E3,3.3330566E2,1.7025E2,4.7397705E1,9.125586E1,5.3179688E1,8.956317E1,1.9396332E1,4.5933838E1,1.0732422E1,1.1442041E2,2.6044922E0,7.646094E1,1.6561584E1,1.713788E1,2.1734161E0,5.528656E0,4.951712E1,8.113153E1,5.17865E0,4.8692627E0,7.735596E1,1.3863159E1,3.1193848E0,1.1933594E0,4.4788086E1,3.899414E0,5.47229E0,8.681305E0,1.3159988E1,1.3494383E1,1.796524E0,0E0,2.3110085E0,5.3336735E0,7.466412E1,3.2372253E1,1.5567108E1,8.025696E0,3.8060303E0,4.4853554E0,9.5352185E-1,4.439453E0,2.1925201E1,3.159668E1,9.329468E0,2.3007812E0,5.8154297E-1,2.1250305E0,6.3793945E-1,3.7781782E0,2.9721313E1,2.5597656E1,3.7556152E0,1.2456055E0,4.570923E-1,4.9916077E0,5.3331985E0,1.0372936E1,9.499962E0,1.1716445E1,1.0226568E1,0E0,0E0,0E0,0E0,0E0,0E0,0E0,0E0,0E0,0E0,0E0,0E0,0E0,0E0,0E0,0E0,0E0,0E0,0E0,0E0,0E0,0E0,0E0,0E0,0E0,0E0,0E0,0E0,0E0,0E0,0E0,0E0,0E0,0E0,0E0,0E0,0E0,0E0,0E0,0E0,0E0,0E0,0E0,0E0,0E0,0E0,0E0,0E0,0E0,0E0,0E0,0E0,0E0,0E0,0E0,0E0,0E0,0E0,0E0,0E0,0E0],"parents":[2147483647,0,0,1,1,2,2,3,3,4,4,5,5,6,6,7,7,8,8,9,9,10,10,11,11,12,12,13,13,14,14,15,15,16,16,17,17,18,18,19,19,20,20,21,21,22,22,23,23,24,24,25,25,26,26,27,27,28,28,29,29,30,30,31,31,33,33,34,34,35,35,36,36,37,37,38,38,39,39,40,40,41,41,42,42,43,43,44,44,45,45,46,46,47,47,48,48,49,49,50,50,51,51,52,52,53,53,54,54,55,55,56,56,57,57,58,58,59,59,60,60,61,61],"right_children":[2,4,6,8,10,12,14,16,18,20,22,24,26,28,30,32,34,36,38,40,42,44,46,48,50,52,54,56,58,60,62,64,-1,66,68,70,72,74,76,78,80,82,84,86,88,90,92,94,96,98,100,102,104,106,108,110,112,114,116,118,120,122,-1,-1,-1,-1,-1,-1,-1,-1,-1,-1,-1,-1,-1,-1,-1,-1,-1,-1,-1,-1,-1,-1,-1,-1,-1,-1,-1,-1,-1,-1,-1,-1,-1,-1,-1,-1,-1,-1,-1,-1,-1,-1,-1,-1,-1,-1,-1,-1,-1,-1,-1,-1,-1,-1,-1,-1,-1,-1,-1,-1,-1],"split_conditions":[3.2542274E1,3.5E0,3.4535E3,-1.35E1,3.968262E1,-2.65E1,6.705594E1,-1.65E1,5.5E0,1.6077868E1,1.427306E2,4.5885654E1,2.55E1,1.2507238E1,1.05E1,3.585E3,1.405E2,-4.5E0,6.5E0,1.3164818E1,7.663566E-2,9.874176E0,2.2682268E1,-2.95E1,3.4225E3,4.5E0,3.05E1,-2.95E1,7.260153E1,3.5985E3,9E1,1.35E1,5.3240936E-2,1.2978668E2,1.465E2,0E0,-1.5E0,5.4106373E1,2.05E1,9.05E1,5.5758392E1,5.8035716E-2,-2.15E1,9.881801E1,3.4885E3,3.5125E3,1.5128937E2,1.08E2,9.460407E0,1.2950784E2,3.5E0,1.5513704E2,4.0379395E1,4.8713318E1,3.5E0,3.876E3,2.5E0,3.609015E1,1.3756088E2,1.0484184E1,5E-1,-3.45E1,4.627106E-1,3.1903274E-2,-3.2100585E-1,-1.9192852E-1,-3.050393E-1,1.3262685E-1,-1.475419E-1,-1.9195394E-1,-4.3357003E-2,-3.6526147E-2,-1.1036555E-1,-7.929725E-2,-1.9149719E-1,-2.1154498E-1,-2.827399E-1,-2.5951898E-1,-8.378843E-2,1.7221977E-1,-1.9475606E-1,-6.2751345E-2,2.4242488E-1,-3.272294E-1,-2.8161368E-1,-1.6103731E-1,-8.529507E-2,-2.1237744E-1,-1.404533E-1,-2.6915082E-1,-1.0985116E-1,-2.9086265E-1,-3.4082392E-1,-3.402977E-1,-5.9535753E-2,-1.995285E-1,-3.0871803E-1,-3.4988368E-1,-5.322154E-2,7.850225E-2,-2.9147857E-1,-2.5891298E-1,-1.2825558E-1,-2.7206513E-1,-3.0721754E-1,-3.0552247E-1,-3.3890373E-1,-3.2137492E-1,-3.51421E-1,-3.3851492E-1,-6.552064E-2,-9.023367E-2,-2.51975E-1,5.110195E-2,-2.4773906E-1,-1.0600206E-2,-2.5121298E-1,2.9736614E-1,3.1966396E-2,3.2270648E-2,-2.9591465E-1,1.17165074E-1,-1.6489798E-1],"split_indices":[5,9,2,4,6,4,5,8,4,5,6,5,4,11,9,2,0,8,8,11,11,5,5,4,2,9,4,4,10,2,3,2,0,6,0,4,4,10,8,3,10,11,4,10,2,2,6,9,10,11,9,5,5,5,9,2,9,5,10,10,9,4,0,0,0,0,0,0,0,0,0,0,0,0,0,0,0,0,0,0,0,0,0,0,0,0,0,0,0,0,0,0,0,0,0,0,0,0,0,0,0,0,0,0,0,0,0,0,0,0,0,0,0,0,0,0,0,0,0,0,0,0,0],"split_type":[0,0,0,0,0,0,0,0,0,0,0,0,0,0,0,0,0,0,0,0,0,0,0,0,0,0,0,0,0,0,0,0,0,0,0,0,0,0,0,0,0,0,0,0,0,0,0,0,0,0,0,0,0,0,0,0,0,0,0,0,0,0,0,0,0,0,0,0,0,0,0,0,0,0,0,0,0,0,0,0,0,0,0,0,0,0,0,0,0,0,0,0,0,0,0,0,0,0,0,0,0,0,0,0,0,0,0,0,0,0,0,0,0,0,0,0,0,0,0,0,0,0,0],"sum_hessian":[4.091997E4,2.0969742E4,1.9950227E4,5.338203E3,1.5631538E4,1.8730324E4,1.2199011E3,3.7673227E2,4.961471E3,2.3662017E3,1.3265337E4,3.5115789E3,1.5218746E4,9.106938E2,3.0920728E2,1.5658946E2,2.201428E2,3.6345476E3,1.3269235E3,1.0980458E3,1.2681558E3,1.1729149E4,1.5361869E3,1.2793518E3,2.232227E3,1.1486882E4,3.731864E3,7.6186334E2,1.4883046E2,1.6450151E2,1.4470578E2,1.5542729E2,1.1621687E0,8.811892E1,1.320239E2,1.4730234E3,2.1615242E3,7.05348E2,6.2157544E2,9.839342E2,1.1411163E2,2.128873E0,1.2660269E3,1.5961997E3,1.013295E4,9.7922595E2,5.56961E2,8.624533E2,4.1689853E2,2.2110378E3,2.1189188E1,2.1540015E3,9.332881E3,1.6230011E3,2.108863E3,7.960074E1,6.8226263E2,6.9024155E1,7.9806305E1,1.26624146E2,3.7877354E1,1.4224191E2,2.463858E0,1.1351966E0,1.542921E2,5.7611618E1,3.0507305E1,5.6771717E0,1.2634672E2,1.0423978E3,4.3062558E2,9.7244666E2,1.1890775E3,5.6664526E2,1.3870276E2,2.8537912E2,3.361963E2,9.715163E2,1.2417863E1,2.348143E0,1.1176349E2,1.0841525E0,1.0447206E0,3.0705914E2,9.589677E2,1.0872693E3,5.0893045E2,9.541191E3,5.9175836E2,9.4299457E2,3.62314E1,1.8792395E2,3.6903705E2,8.6131934E2,1.133984E0,2.4237362E1,3.9266116E2,2.209994E3,1.0440094E0,2.4160514E0,1.8773136E1,1.9805875E3,1.7341396E2,2.738872E3,6.594009E3,6.953127E2,9.276884E2,2.9951694E2,1.8093461E3,7.8501976E1,1.0987607E0,1.9103188E1,6.631594E2,5.525262E0,6.349889E1,5.8493675E1,2.1312632E1,1.2635683E1,1.13988464E2,1.8512983E1,1.936437E1,1.198361E1,1.302583E2],"tree_param":{"num_deleted":"0","num_feature":"12","num_nodes":"123","size_leaf_vector":"0"}},{"base_weights":[-6.859487E-1,-5.1583695E-1,-8.767238E-1,-2.8804997E-1,-5.74814E-1,-9.0309876E-1,-5.123308E-1,-2.3402162E-1,-4.8743328E-1,-7.237651E-1,-5.313868E-1,-1.0344541E0,-8.7389326E-1,-6.637246E-1,-1.3836028E-1,-3.530942E-2,-2.7817607E-1,-5.455098E-1,-1.5813688E-2,-9.141562E-1,-6.860915E-1,-4.4333202E-1,-6.677077E-1,-9.830345E-1,-1.0643388E0,-8.234246E-1,-1.0036477E0,-7.1659493E-1,-4.2222223E-1,-2.758516E-1,1.3884658E-1,-5.928071E-3,-7.742883E-1,-4.033227E-1,-1.4883696E-1,-6.6622967E-1,-4.35826E-1,4.0317023E-1,-2.7391422E-1,-9.533292E-1,-6.934653E-1,-6.747317E-1,-9.976826E-1,-4.722038E-1,-2.2361782E-1,-6.2998056E-1,-8.386893E-1,-1.0291911E0,-8.8984984E-1,-1.0669608E0,-6.938058E-1,-6.828913E-1,-8.571877E-1,-9.461163E-1,-1.0531478E0,-1.3118744E-1,-7.3428625E-1,-3.1887585E-1,-7.5822073E-1,1.3960727E-1,-3.6974624E-1,2.7838534E-1,-9.1385114E-1,1.1260769E-1,-1.9343798E-1,-8.965751E-1,2.6323108E-2,-7.386637E-1,-3.664688E-1,1.1845988E0,-1.5757498E-1,-1.0339826E0,-6.0911065E-1,-4.1107637E-1,-1.1496549E0,5.343133E-1,-7.622584E-1,-7.273915E-1,7.5056106E-2,-9.593204E-1,-2.6587382E-1,-7.670036E-1,9.40352E-2,-7.091311E-1,-5.8028877E-1,-8.6148906E-1,-1.1653631E0,-6.052032E-1,-4.4069844E-1,-1.5962869E-1,-5.823268E-1,-6.541703E-1,-4.1602585E-1,-8.7555313E-1,-5.619365E-1,-1.1246587E0,-1.0031571E0,-5.24032E-1,-9.126594E-1,-1.0515226E0,-1.132084E0,-9.5197E-1,8.83234E-2,-1.3329479E-1,-7.0778805E-1,-7.636037E-1,-8.998497E-1,-8.5679877E-1,-1.0095398E0,-9.6610487E-1,-1.0667429E0,-9.497298E-1,3.0603534E-1,-6.954267E-1,-9.7838783E-1,-1.1935595E-1,-6.7062753E-1,1.5358497E-1,-8.995998E-1,3.6658543E-1,-6.271089E-1,-4.207898E-1,7.420827E-1,4.164805E-1,-3.0581012E-1,8.5888736E-2,-1.0378578E0],"categories":[],"categories_nodes":[],"categories_segments":[],"categories_sizes":[],"default_left":[true,true,true,true,true,true,true,true,true,true,true,true,true,true,true,true,true,true,true,true,true,true,true,true,true,true,true,true,true,true,true,true,true,true,true,true,true,true,true,true,true,true,true,true,true,true,true,true,true,true,true,true,true,true,true,true,true,true,true,true,true,true,true,false,false,false,false,false,false,false,false,false,false,false,false,false,false,false,false,false,false,false,false,false,false,false,false,false,false,false,false,false,false,false,false,false,false,false,false,false,false,false,false,false,false,false,false,false,false,false,false,false,false,false,false,false,false,false,false,false,false,false,false,false,false,false,false],"id":4,"left_children":[1,3,5,7,9,11,13,15,17,19,21,23,25,27,29,31,33,35,37,39,41,43,45,47,49,51,53,55,57,59,61,63,65,67,69,71,73,75,77,79,81,83,85,87,89,91,93,95,97,99,101,103,105,107,109,111,113,115,117,119,121,123,125,-1,-1,-1,-1,-1,-1,-1,-1,-1,-1,-1,-1,-1,-1,-1,-1,-1,-1,-1,-1,-1,-1,-1,-1,-1,-1,-1,-1,-1,-1,-1,-1,-1,-1,-1,-1,-1,-1,-1,-1,-1,-1,-1,-1,-1,-1,-1,-1,-1,-1,-1,-1,-1,-1,-1,-1,-1,-1,-1,-1,-1,-1,-1,-1],"loss_changes":[1.1525312E3,2.521748E2,1.6047461E2,4.152188E1,9.612158E1,5.8995117E1,6.402893E1,2.6689117E1,2.2536804E1,2.3509888E1,1.3840967E2,3.3095703E0,8.286426E1,9.987579E0,1.2525298E1,1.2032E1,4.0237198E1,9.413284E0,9.98127E0,4.1184998E0,9.284668E0,4.4447876E1,2.8711182E1,3.6218872E0,9.89624E-1,4.309961E1,9.182617E0,6.736267E0,4.8688965E0,8.607855E0,1.630798E1,1.1894785E1,2.0982742E0,1.53594055E1,1.446998E1,6.6587524E0,6.3621826E0,5.787071E0,9.0873575E0,1.6677551E0,5.111019E0,8.416626E0,1.2081909E0,2.5740967E1,1.8674461E1,1.8967407E1,7.836548E0,6.094971E-1,2.4993896E0,5.8532715E-1,3.1877074E0,2.4376343E1,2.8935059E1,8.555054E0,1.2324219E0,7.652415E0,5.391968E0,7.9405823E0,4.507559E0,7.3926744E0,1.0480982E1,7.974069E0,1.7038498E0,0E0,0E0,0E0,0E0,0E0,0E0,0E0,0E0,0E0,0E0,0E0,0E0,0E0,0E0,0E0,0E0,0E0,0E0,0E0,0E0,0E0,0E0,0E0,0E0,0E0,0E0,0E0,0E0,0E0,0E0,0E0,0E0,0E0,0E0,0E0,0E0,0E0,0E0,0E0,0E0,0E0,0E0,0E0,0E0,0E0,0E0,0E0,0E0,0E0,0E0,0E0,0E0,0E0,0E0,0E0,0E0,0E0,0E0,0E0,0E0,0E0,0E0,0E0,0E0],"parents":[2147483647,0,0,1,1,2,2,3,3,4,4,5,5,6,6,7,7,8,8,9,9,10,10,11,11,12,12,13,13,14,14,15,15,16,16,17,17,18,18,19,19,20,20,21,21,22,22,23,23,24,24,25,25,26,26,27,27,28,28,29,29,30,30,31,31,32,32,33,33,34,34,35,35,36,36,37,37,38,38,39,39,40,40,41,41,42,42,43,43,44,44,45,45,46,46,47,47,48,48,49,49,50,50,51,51,52,52,53,53,54,54,55,55,56,56,57,57,58,58,59,59,60,60,61,61,62,62],"right_children":[2,4,6,8,10,12,14,16,18,20,22,24,26,28,30,32,34,36,38,40,42,44,46,48,50,52,54,56,58,60,62,64,66,68,70,72,74,76,78,80,82,84,86,88,90,92,94,96,98,100,102,104,106,108,110,112,114,116,118,120,122,124,126,-1,-1,-1,-1,-1,-1,-1,-1,-1,-1,-1,-1,-1,-1,-1,-1,-1,-1,-1,-1,-1,-1,-1,-1,-1,-1,-1,-1,-1,-1,-1,-1,-1,-1,-1,-1,-1,-1,-1,-1,-1,-1,-1,-1,-1,-1,-1,-1,-1,-1,-1,-1,-1,-1,-1,-1,-1,-1,-1,-1,-1,-1,-1,-1],"split_conditions":[3.2171402E1,2.5E0,3.4485E3,2.017418E1,-8.5E0,-2.65E1,6.372199E1,5E-1,3.44E3,-2.15E1,5.5E0,4.5885654E1,2.35E1,1.2119808E1,7.2413416E0,8.55E1,1.5E0,1.5E0,3.175E2,3.1128761E1,1.6201974E2,1.5114583E1,1.95E1,-2.95E1,3.4225E3,4.5E0,2.95E1,3.293931E1,3.5955E3,4.5E0,3.525E2,1.4407117E2,1.4024573E2,-2.35E1,3.8027756E0,-1.85E1,1.281893E2,3.028136E1,-6.25E1,4.05E1,-2.25E1,2.0170213E9,-4.35E1,-5.5E0,7.25E1,1.6400589E1,3.1835E3,2.7938374E1,9.460407E0,7.019615E1,6.794644E1,-7.35E1,4.0379395E1,4.69414E1,3.5E0,-1.15E1,1.27131775E2,1.35E1,3.410998E1,7.45E1,1.7862949E2,2.95E1,2.0150204E9,3.3782307E-2,-5.8031395E-2,-2.6897255E-1,7.896933E-3,-2.2159912E-1,-1.0994064E-1,3.5537964E-1,-4.7272496E-2,-3.101948E-1,-1.8273321E-1,-1.2332291E-1,-3.4489647E-1,1.60294E-1,-2.2867753E-1,-2.1821745E-1,2.2516832E-2,-2.8779614E-1,-7.9762146E-2,-2.301011E-1,2.8210562E-2,-2.1273935E-1,-1.7408663E-1,-2.5844672E-1,-3.4960893E-1,-1.8156096E-1,-1.3220954E-1,-4.788861E-2,-1.7469805E-1,-1.962511E-1,-1.2480776E-1,-2.6266596E-1,-1.6858095E-1,-3.3739763E-1,-3.0094716E-1,-1.572096E-1,-2.7379784E-1,-3.154568E-1,-3.396252E-1,-2.85591E-1,2.6497021E-2,-3.998844E-2,-2.1233642E-1,-2.2908111E-1,-2.6995492E-1,-2.5703964E-1,-3.0286196E-1,-2.8983146E-1,-3.2002288E-1,-2.8491896E-1,9.181061E-2,-2.0862801E-1,-2.9351637E-1,-3.5806786E-2,-2.0118827E-1,4.6075493E-2,-2.6987994E-1,1.09975636E-1,-1.8813267E-1,-1.2623695E-1,2.2262482E-1,1.2494416E-1,-9.174304E-2,2.5766622E-2,-3.1135735E-1],"split_indices":[5,9,2,5,4,4,5,9,2,4,4,5,4,11,11,7,9,9,0,5,6,11,4,4,2,9,4,5,2,9,0,10,6,8,5,4,10,5,3,8,4,1,7,4,7,11,2,6,10,5,5,3,5,5,9,8,6,4,5,3,5,3,1,0,0,0,0,0,0,0,0,0,0,0,0,0,0,0,0,0,0,0,0,0,0,0,0,0,0,0,0,0,0,0,0,0,0,0,0,0,0,0,0,0,0,0,0,0,0,0,0,0,0,0,0,0,0,0,0,0,0,0,0,0,0,0,0],"split_type":[0,0,0,0,0,0,0,0,0,0,0,0,0,0,0,0,0,0,0,0,0,0,0,0,0,0,0,0,0,0,0,0,0,0,0,0,0,0,0,0,0,0,0,0,0,0,0,0,0,0,0,0,0,0,0,0,0,0,0,0,0,0,0,0,0,0,0,0,0,0,0,0,0,0,0,0,0,0,0,0,0,0,0,0,0,0,0,0,0,0,0,0,0,0,0,0,0,0,0,0,0,0,0,0,0,0,0,0,0,0,0,0,0,0,0,0,0,0,0,0,0,0,0,0,0,0,0],"sum_hessian":[3.5526734E4,1.8782406E4,1.674433E4,3.8640757E3,1.4918331E4,1.561279E4,1.1315391E3,3.0419502E3,8.221256E2,3.3641106E3,1.1554221E4,2.8336516E3,1.2779139E4,8.0491284E2,3.2662622E2,5.5337006E2,2.48858E3,7.318473E2,9.027833E1,5.518683E2,2.8122424E3,7.022426E3,4.531795E3,1.0540122E3,1.7796394E3,9.205828E3,3.5733103E3,6.587339E2,1.4617897E2,2.1833801E2,1.0828821E2,5.331792E2,2.0190855E1,1.2637124E3,1.2248677E3,3.459807E2,3.8586658E2,3.4199303E1,5.607903E1,4.6585794E2,8.601031E1,2.716376E3,9.5866394E1,6.2057974E3,8.1662823E2,3.716445E3,8.153498E2,6.981543E2,3.558579E2,1.7652687E3,1.4370748E1,1.7873796E3,7.4184487E3,1.6618925E3,1.9114178E3,1.9570175E1,6.391637E2,1.1328411E2,3.2894863E1,4.0158855E1,1.7817915E2,9.626367E1,1.2024535E1,3.2691617E2,2.06263E2,1.7411526E1,2.7793293E0,1.2324438E2,1.140468E3,7.098237E0,1.2177694E3,4.421382E1,3.017669E2,3.7445932E2,1.140726E1,3.1226934E1,2.9723666E0,2.3916199E1,3.216283E1,4.61441E2,4.416943E0,7.868828E1,7.3220286E0,1.9863635E3,7.300125E2,5.628679E1,3.95796E1,1.1850234E3,5.020774E3,6.942312E2,1.2239705E2,3.3370952E3,3.7934964E2,7.176008E2,9.774898E1,1.4055084E2,5.5760345E2,2.229335E1,3.3356458E2,1.4408474E3,3.244212E2,1.0641172E1,3.7295752E0,7.773486E1,1.7096448E3,2.328819E3,5.0896294E3,6.9610156E2,9.6579095E2,2.679454E2,1.6434725E3,6.4056716E0,1.3164503E1,5.5470667E2,8.445704E1,7.3138145E1,4.014596E1,4.404202E0,2.8490664E1,3.1388498E1,8.770355E0,1.7095235E2,7.2268105E0,7.809116E1,1.817251E1,1.3608415E0,1.0663693E1],"tree_param":{"num_deleted":"0","num_feature":"12","num_nodes":"127","size_leaf_vector":"0"}},{"base_weights":[-5.6582725E-1,-4.0492916E-1,-7.690128E-1,-2.568253E-1,-4.7736898E-1,-7.9794645E-1,-4.0736982E-1,-2.8249112E-1,-1.5122038E-2,-6.926605E-1,-4.4848892E-1,-9.263219E-1,-7.592788E-1,-5.2893555E-1,-5.431707E-2,-2.1037093E-1,-3.672783E-1,3.366742E-2,-3.7663406E-1,-6.333483E-1,-7.987039E-1,-4.181405E-1,-7.1411985E-1,-8.590492E-1,-9.75772E-1,-6.9205886E-1,-9.0441734E-1,-6.255253E-1,-3.075601E-1,-3.148912E-1,1.9003405E-1,-3.9362785E-1,-1.5815003E-1,-5.179058E-1,-3.1283072E-1,-9.274345E-2,1.8334386E-1,-6.563883E-1,-3.4979243E-2,2.2281271E-1,-6.40711E-1,-9.102106E-1,-7.3394704E-1,-3.460246E-1,-4.8993707E-1,-6.0797864E-1,-8.539553E-1,-9.4932544E-1,-7.689585E-1,-9.787454E-1,-5.871951E-1,-7.163495E-1,-3.9625806E-1,-8.404844E-1,-9.708521E-1,-4.9741256E-1,-7.618481E-1,3.4994945E-1,-3.9257458E-1,-4.406823E-1,2.0503443E-1,5.2528083E-1,-1.487313E-2,-3.3972344E-1,-6.3376987E-1,3.510357E-1,-1.8238644E-1,-7.1782726E-1,-3.3932528E-1,-2.542142E-1,-4.4522887E-1,-1.6858898E-2,-5.8149576E-1,-8.7325835E-1,2.1706913E-1,9.894947E-2,-7.746061E-1,1.0475136E0,-3.0763125E-1,1.2822798E0,-1.123284E-1,-2.504228E-1,-6.5886086E-1,-4.1326407E-1,-9.288628E-1,-8.741702E-1,-6.518247E-1,-3.6839327E-1,-1.20614484E-1,-5.059565E-1,-3.0294093E-1,-6.14507E-1,1.2939811E0,-7.203298E-1,-9.23768E-1,-1.0554094E0,-9.251052E-1,-6.8583524E-1,-9.07538E-1,-9.5977706E-1,-1.0585531E0,-7.921332E-1,5.216991E-1,-6.2098014E-1,-8.046868E-1,-3.070992E-1,-7.846164E-1,-7.3283005E-1,-9.1974694E-1,-8.6635995E-1,-9.8769826E-1,-5.225317E-1,3.4528628E-1,-7.8695625E-1,6.7521E-1,5.6532145E-1,-5.9344774E-1,-4.8051637E-1,2.2285318E-1,9.8018974E-1,-4.9040538E-1,1.1056883E0,-1.439777E-1,6.617077E-1,-3.5913268E-1,-3.297522E-1,2.1510674E-1],"categories":[],"categories_nodes":[],"categories_segments":[],"categories_sizes":[],"default_left":[true,true,true,true,true,true,true,true,true,true,true,true,true,true,true,true,true,true,true,true,true,true,true,true,true,true,true,true,true,true,true,true,true,true,true,true,true,true,true,true,true,true,true,true,true,true,true,true,true,true,true,true,true,true,true,true,true,true,true,true,true,true,true,false,false,false,false,false,false,false,false,false,false,false,false,false,false,false,false,false,false,false,false,false,false,false,false,false,false,false,false,false,false,false,false,false,false,false,false,false,false,false,false,false,false,false,false,false,false,false,false,false,false,false,false,false,false,false,false,false,false,false,false,false,false,false,false],"id":5,"left_children":[1,3,5,7,9,11,13,15,17,19,21,23,25,27,29,31,33,35,37,39,41,43,45,47,49,51,53,55,57,59,61,63,65,67,69,71,73,75,77,79,81,83,85,87,89,91,93,95,97,99,101,103,105,107,109,111,113,115,117,119,121,123,125,-1,-1,-1,-1,-1,-1,-1,-1,-1,-1,-1,-1,-1,-1,-1,-1,-1,-1,-1,-1,-1,-1,-1,-1,-1,-1,-1,-1,-1,-1,-1,-1,-1,-1,-1,-1,-1,-1,-1,-1,-1,-1,-1,-1,-1,-1,-1,-1,-1,-1,-1,-1,-1,-1,-1,-1,-1,-1,-1,-1,-1,-1,-1,-1],"loss_changes":[1.01726855E3,1.8626343E2,1.4359521E2,3.540811E1,7.2220215E1,6.2509766E1,4.3789734E1,3.1477905E1,9.696498E0,8.160706E0,8.26416E1,8.953125E0,9.4907715E1,1.6044266E1,1.6780962E1,2.6645622E1,1.9279694E1,9.187202E0,6.224888E0,5.7435913E0,2.8731995E0,4.765088E1,1.5117432E1,9.479187E0,1.376709E0,4.783374E1,1.2335205E1,8.8372345E0,1.3141193E1,8.426827E0,9.360569E0,7.787636E0,2.6888042E1,2.2172363E1,1.3419205E1,9.760011E0,8.109146E0,3.2808485E0,9.319591E0,3.0973914E0,6.0769653E0,1.2475891E0,3.0622864E0,2.3205444E1,1.3703735E1,8.274872E0,3.5523987E0,6.236572E-1,6.6755676E0,1.519043E0,3.8960276E0,5.162671E1,1.7433098E1,1.2853516E1,1.8059082E0,6E0,9.688187E0,5.854714E0,1.1281689E1,7.754217E0,8.179165E0,6.4727526E0,6.2606087E0,0E0,0E0,0E0,0E0,0E0,0E0,0E0,0E0,0E0,0E0,0E0,0E0,0E0,0E0,0E0,0E0,0E0,0E0,0E0,0E0,0E0,0E0,0E0,0E0,0E0,0E0,0E0,0E0,0E0,0E0,0E0,0E0,0E0,0E0,0E0,0E0,0E0,0E0,0E0,0E0,0E0,0E0,0E0,0E0,0E0,0E0,0E0,0E0,0E0,0E0,0E0,0E0,0E0,0E0,0E0,0E0,0E0,0E0,0E0,0E0,0E0,0E0,0E0,0E0],"parents":[2147483647,0,0,1,1,2,2,3,3,4,4,5,5,6,6,7,7,8,8,9,9,10,10,11,11,12,12,13,13,14,14,15,15,16,16,17,17,18,18,19,19,20,20,21,21,22,22,23,23,24,24,25,25,26,26,27,27,28,28,29,29,30,30,31,31,32,32,33,33,34,34,35,35,36,36,37,37,38,38,39,39,40,40,41,41,42,42,43,43,44,44,45,45,46,46,47,47,48,48,49,49,50,50,51,51,52,52,53,53,54,54,55,55,56,56,57,57,58,58,59,59,60,60,61,61,62,62],"right_children":[2,4,6,8,10,12,14,16,18,20,22,24,26,28,30,32,34,36,38,40,42,44,46,48,50,52,54,56,58,60,62,64,66,68,70,72,74,76,78,80,82,84,86,88,90,92,94,96,98,100,102,104,106,108,110,112,114,116,118,120,122,124,126,-1,-1,-1,-1,-1,-1,-1,-1,-1,-1,-1,-1,-1,-1,-1,-1,-1,-1,-1,-1,-1,-1,-1,-1,-1,-1,-1,-1,-1,-1,-1,-1,-1,-1,-1,-1,-1,-1,-1,-1,-1,-1,-1,-1,-1,-1,-1,-1,-1,-1,-1,-1,-1,-1,-1,-1,-1,-1,-1,-1,-1,-1,-1,-1],"split_conditions":[3.2542274E1,4.5E0,3.4485E3,3.4885E3,3.5424446E1,-2.35E1,7.472951E1,1.3964194E1,3.755E2,2.105941E1,1.427306E2,4.7291565E1,2.25E1,7.981532E1,2.0160205E9,5.076731E1,-1.75E1,1.3910416E1,6.35E1,-8.438132E0,1.3705E3,1.7478552E1,2.0322268E1,-2.95E1,3.4225E3,1.4645306E2,2.95E1,4.8759613E1,5.5E0,9.9491165E1,3.045E2,8.15E1,5.743903E0,-3.5E0,2.15E1,1.244964E1,-8.05E1,7.9362535E0,7.05E1,1.2912552E0,5.608058E0,9.027693E0,-2.15E1,3.3695E3,3.4175E3,1.8757663E2,1.5128937E2,2.7938374E1,7.0398834E1,7.019615E1,9.767464E1,4.5293484E1,2.0170203E9,4.69414E1,3.5E0,4.8213043E1,3.841E3,1.3600183E2,6.0004166E1,-3.45E1,3.6171963E1,1.6367801E2,9.771642E1,-1.01917036E-1,-1.9013096E-1,1.05310716E-1,-5.4715935E-2,-2.1534818E-1,-1.0179759E-1,-7.626426E-2,-1.3356867E-1,-5.0576697E-3,-1.7444873E-1,-2.6197752E-1,6.512074E-2,2.9684842E-2,-2.3238184E-1,3.142541E-1,-9.228938E-2,3.8468397E-1,-3.369852E-2,-7.512684E-2,-1.9765827E-1,-1.23979226E-1,-2.7865887E-1,-2.6225108E-1,-1.9554742E-1,-1.10517986E-1,-3.618435E-2,-1.5178695E-1,-9.088229E-2,-1.8435211E-1,3.8819435E-1,-2.1609895E-1,-2.771304E-1,-3.1662285E-1,-2.7753156E-1,-2.0575058E-1,-2.722614E-1,-2.8793314E-1,-3.1756595E-1,-2.3763998E-1,1.5650973E-1,-1.8629405E-1,-2.4140604E-1,-9.212976E-2,-2.3538493E-1,-2.1984902E-1,-2.759241E-1,-2.59908E-1,-2.963095E-1,-1.5675952E-1,1.0358589E-1,-2.3608689E-1,2.02563E-1,1.6959643E-1,-1.7803434E-1,-1.4415492E-1,6.685596E-2,2.9405692E-1,-1.4712162E-1,3.3170652E-1,-4.319331E-2,1.9851232E-1,-1.07739806E-1,-9.8925665E-2,6.453203E-2],"split_indices":[5,9,2,2,6,4,5,5,0,5,6,5,4,10,1,6,8,5,7,6,2,5,5,4,2,5,4,5,9,6,0,7,5,4,8,5,3,5,7,11,5,10,4,2,2,10,6,6,10,5,5,5,1,5,9,5,2,10,5,4,10,5,5,0,0,0,0,0,0,0,0,0,0,0,0,0,0,0,0,0,0,0,0,0,0,0,0,0,0,0,0,0,0,0,0,0,0,0,0,0,0,0,0,0,0,0,0,0,0,0,0,0,0,0,0,0,0,0,0,0,0,0,0,0,0,0,0],"split_type":[0,0,0,0,0,0,0,0,0,0,0,0,0,0,0,0,0,0,0,0,0,0,0,0,0,0,0,0,0,0,0,0,0,0,0,0,0,0,0,0,0,0,0,0,0,0,0,0,0,0,0,0,0,0,0,0,0,0,0,0,0,0,0,0,0,0,0,0,0,0,0,0,0,0,0,0,0,0,0,0,0,0,0,0,0,0,0,0,0,0,0,0,0,0,0,0,0,0,0,0,0,0,0,0,0,0,0,0,0,0,0,0,0,0,0,0,0,0,0,0,0,0,0,0,0,0,0],"sum_hessian":[3.1125123E4,1.7371787E4,1.3753336E4,5.707433E3,1.1664354E4,1.2733382E4,1.0199545E3,5.159401E3,5.480322E2,1.3769149E3,1.0287438E4,2.9422468E3,9.791135E3,7.5833936E2,2.6161514E2,2.7898384E3,2.3695627E3,4.836641E2,6.436816E1,8.8749414E2,4.894208E2,9.23492E3,1.0525188E3,1.2542783E3,1.6879686E3,6.695793E3,3.0953413E3,5.2670404E2,2.3163533E2,1.2646509E2,1.3515007E2,6.172404E2,2.172598E3,6.2686096E2,1.7427018E3,2.6241718E2,2.212469E2,3.4883556E1,2.9484602E1,7.317646E0,8.801765E2,1.7501016E2,3.1441064E2,4.610116E3,4.6248037E3,6.0138727E2,4.5113147E2,6.2173004E2,6.325483E2,1.6736432E3,1.4325411E1,6.18636E3,5.0943344E2,1.5843274E3,1.511014E3,2.7392502E2,2.5277899E2,2.6164034E1,2.054713E2,1.0195133E2,2.451375E1,5.0676003E1,8.447406E1,5.0606033E2,1.11180115E2,9.8100876E1,2.074497E3,2.943337E2,3.3252725E2,1.2099442E3,5.327575E2,2.28045E2,3.4372177E1,6.0734763E0,2.1517343E2,4.742831E0,3.0140726E1,5.360441E0,2.412416E1,1.079375E0,6.238271E0,3.9770077E1,8.4040643E2,7.16883E0,1.6784132E2,1.1256392E2,2.0184673E2,4.1933525E3,4.1676392E2,4.2583013E3,3.6650272E2,6.000047E2,1.3825896E0,1.58696E2,2.9243546E2,1.076501E2,5.140799E2,3.991047E2,2.3344354E2,1.3627712E3,3.1087192E2,1.2331959E1,1.9934525E0,2.9786396E3,3.20772E3,4.157718E2,9.3661644E1,6.7618225E2,9.081451E2,2.1706288E2,1.2939512E3,2.6636514E2,7.559874E0,2.4888292E2,3.896072E0,2.1627388E1,4.5366454E0,1.7997318E2,2.5498123E1,2.8144171E0,9.913692E1,6.2408032E0,1.8272947E1,4.4121735E1,6.5542693E0,3.5472595E1,4.9001465E1],"tree_param":{"num_deleted":"0","num_feature":"12","num_nodes":"127","size_leaf_vector":"0"}},{"base_weights":[-4.5940655E-1,-3.158419E-1,-6.7257714E-1,-1.9157547E-1,-3.7884745E-1,-7.050646E-1,-3.3658972E-1,-5.332438E-1,-1.7624933E-1,-5.4102826E-1,-3.4106252E-1,-8.466374E-1,-6.635031E-1,-4.726789E-1,-6.377267E-2,-6.664748E-1,-2.1509136E-1,-1.5187296E-1,-4.0166783E-1,-6.5709877E-1,-4.9303806E-1,-3.0951366E-1,-6.1021495E-1,-7.6801795E-1,-9.0359586E-1,-6.039759E-1,-8.5152674E-1,-5.58284E-1,-2.576054E-1,-1.9322331E-1,1.7752752E-1,-8.58049E-1,-5.553203E-1,-9.495951E-1,-4.9112953E-2,-3.223993E-1,-1.279195E-1,-2.9783216E-1,-6.1583596E-1,9.012802E-1,-6.6241604E-1,7.8098126E-2,-5.0678015E-1,-1.1492126E-1,-3.3827478E-1,-5.1148814E-1,-7.902356E-1,-8.631962E-1,-6.7577994E-1,-8.8127E-1,-9.9979705E-1,-4.2736107E-1,-6.4920676E-1,-8.014946E-1,-9.259139E-1,-7.4838436E-1,-4.7719622E-1,-3.6697778E-1,2.4327949E-1,-1.0055783E-1,-5.832122E-1,2.955943E-1,-5.4838973E-1,-8.838241E-1,3.0016834E-1,-8.144474E-1,-3.2343736E-1,-1.3156231E-1,-1.0083892E0,1.9612393E-1,-5.2387863E-1,-2.2486259E-1,-6.3690156E-1,-7.62548E-2,-2.2322294E-1,-2.395688E-1,-6.628178E-1,-8.8297176E-1,-5.197442E-1,-5.165929E-1,-7.2719145E-1,6.448948E-1,-4.0853798E-1,-7.490019E-1,-4.7554183E-1,1.3584157E0,-1.2421764E-1,-2.9917014E-1,-4.1265464E-1,-5.417421E-1,1.4188835E-1,-6.0819525E-1,-8.909724E-1,-1.0000086E0,-8.355505E-1,-5.8899873E-1,-8.298686E-1,-8.835876E-1,1.7024861E-1,-1.0255122E0,-3.9043748E-1,-4.931751E-1,-1.5304327E-1,-5.661509E-1,-7.073633E-1,-7.118241E-1,-8.876728E-1,-9.306782E-1,3.8304034E-1,5.210522E-2,-7.7344626E-1,9.691849E-1,-4.9050775E-1,6.0556537E-1,-4.04645E-1,-9.0125315E-2,1.0605136E0,-1.4568718E-1,7.653606E-1,5.367364E-1,-7.620822E-1,-1.1596544E0,3.4968036E-1,1.9866331E-1,-7.808635E-1],"categories":[],"categories_nodes":[],"categories_segments":[],"categories_sizes":[],"default_left":[true,true,true,true,true,true,true,true,true,true,true,true,true,true,true,true,true,true,true,true,true,true,true,true,true,true,true,true,true,true,true,true,true,true,true,true,true,true,true,false,true,true,true,true,true,true,true,true,true,true,true,true,true,true,true,true,true,true,true,true,true,true,true,false,false,false,false,false,false,false,false,false,false,false,false,false,false,false,false,false,false,false,false,false,false,false,false,false,false,false,false,false,false,false,false,false,false,false,false,false,false,false,false,false,false,false,false,false,false,false,false,false,false,false,false,false,false,false,false,false,false,false,false,false,false],"id":6,"left_children":[1,3,5,7,9,11,13,15,17,19,21,23,25,27,29,31,33,35,37,39,41,43,45,47,49,51,53,55,57,59,61,63,65,67,69,71,73,75,77,-1,79,81,83,85,87,89,91,93,95,97,99,101,103,105,107,109,111,113,115,117,119,121,123,-1,-1,-1,-1,-1,-1,-1,-1,-1,-1,-1,-1,-1,-1,-1,-1,-1,-1,-1,-1,-1,-1,-1,-1,-1,-1,-1,-1,-1,-1,-1,-1,-1,-1,-1,-1,-1,-1,-1,-1,-1,-1,-1,-1,-1,-1,-1,-1,-1,-1,-1,-1,-1,-1,-1,-1,-1,-1,-1,-1,-1,-1],"loss_changes":[8.465952E2,1.2939868E2,1.2130127E2,2.904953E1,6.7051025E1,5.9172363E1,3.648938E1,9.963554E0,2.921611E1,1.1214783E1,7.539673E1,9.607056E0,8.73772E1,1.1936005E1,1.0296077E1,3.0921097E0,8.713282E0,1.9605064E1,1.1365692E1,5.59317E0,1.1573639E1,4.4564026E1,1.6175781E1,7.9593506E0,1.9718018E0,4.739624E1,6.2764893E0,6.8639984E0,1.0424331E1,7.6855783E0,1.00377655E1,2.0474892E0,6.279228E0,5.0170517E-1,7.0495176E0,1.8008774E1,2.0756538E1,7.3201275E0,3.8699455E0,0E0,5.305664E0,1.0026225E1,1.0503204E1,1.4245415E1,2.007019E1,1.2042114E1,5.483536E0,9.621582E-1,6.180832E0,2.7982178E0,3.4035492E0,2.1944473E1,2.2539185E1,8.138611E0,5.045532E0,2.8150787E0,6.851021E0,5.9320087E0,9.471986E0,6.9251537E0,8.609155E0,8.257231E0,3.01539E0,0E0,0E0,0E0,0E0,0E0,0E0,0E0,0E0,0E0,0E0,0E0,0E0,0E0,0E0,0E0,0E0,0E0,0E0,0E0,0E0,0E0,0E0,0E0,0E0,0E0,0E0,0E0,0E0,0E0,0E0,0E0,0E0,0E0,0E0,0E0,0E0,0E0,0E0,0E0,0E0,0E0,0E0,0E0,0E0,0E0,0E0,0E0,0E0,0E0,0E0,0E0,0E0,0E0,0E0,0E0,0E0,0E0,0E0,0E0,0E0,0E0,0E0],"parents":[2147483647,0,0,1,1,2,2,3,3,4,4,5,5,6,6,7,7,8,8,9,9,10,10,11,11,12,12,13,13,14,14,15,15,16,16,17,17,18,18,19,19,20,20,21,21,22,22,23,23,24,24,25,25,26,26,27,27,28,28,29,29,30,30,31,31,32,32,33,33,34,34,35,35,36,36,37,37,38,38,40,40,41,41,42,42,43,43,44,44,45,45,46,46,47,47,48,48,49,49,50,50,51,51,52,52,53,53,54,54,55,55,56,56,57,57,58,58,59,59,60,60,61,61,62,62],"right_children":[2,4,6,8,10,12,14,16,18,20,22,24,26,28,30,32,34,36,38,40,42,44,46,48,50,52,54,56,58,60,62,64,66,68,70,72,74,76,78,-1,80,82,84,86,88,90,92,94,96,98,100,102,104,106,108,110,112,114,116,118,120,122,124,-1,-1,-1,-1,-1,-1,-1,-1,-1,-1,-1,-1,-1,-1,-1,-1,-1,-1,-1,-1,-1,-1,-1,-1,-1,-1,-1,-1,-1,-1,-1,-1,-1,-1,-1,-1,-1,-1,-1,-1,-1,-1,-1,-1,-1,-1,-1,-1,-1,-1,-1,-1,-1,-1,-1,-1,-1,-1,-1,-1,-1,-1],"split_conditions":[3.357081E1,4.5E0,3.4225E3,-1.65E1,4.8273144E1,-2.35E1,6.380047E1,6.5E0,1.15E1,1.1165E3,1.427306E2,4.7291565E1,2.55E1,8.73241E1,6.9618826E0,3.9516068E1,5.85E1,6.0413814E0,1.95E1,7.381688E-2,5.5210094E0,9.460407E0,2.2682268E1,-2.95E1,7.019615E1,4.5E0,3.25E1,3.4935E3,1.7843716E1,4.8996935E0,3.5985E3,3.533E3,-5.25E1,3.494262E1,6.2725548E1,4.5E0,2.5E0,3.5124382E1,1.5E0,2.7038407E-1,1.2062321E1,3.4685388E0,-2.15E1,3.8643284E0,2.4176434E1,3.5065E3,1.5128937E2,2.7938374E1,7.0398834E1,6.97065E1,3.005E2,5.15E1,4.457577E1,5.199038E1,3.4095E3,2.495E2,3.4945E3,9.081299E1,4.69414E1,1.7812912E2,7.066742E1,5.86047E1,8.891039E0,-2.6514724E-1,9.00505E-2,-2.4433424E-1,-9.703121E-2,-3.9468694E-2,-3.025168E-1,5.883718E-2,-1.5716359E-1,-6.745878E-2,-1.9107048E-1,-2.2876441E-2,-6.6966884E-2,-7.187064E-2,-1.9884534E-1,-2.6489154E-1,-1.5592328E-1,-1.5497789E-1,-2.1815744E-1,1.9346844E-1,-1.225614E-1,-2.2470059E-1,-1.4266255E-1,4.0752473E-1,-3.7265293E-2,-8.975104E-2,-1.23796396E-1,-1.6252263E-1,4.2566508E-2,-1.8245858E-1,-2.6729172E-1,-3.0000257E-1,-2.5066516E-1,-1.7669962E-1,-2.489606E-1,-2.6507628E-1,5.1074587E-2,-3.0765367E-1,-1.1713125E-1,-1.4795253E-1,-4.591298E-2,-1.6984528E-1,-2.12209E-1,-2.1354724E-1,-2.6630184E-1,-2.7920347E-1,1.1491211E-1,1.5631566E-2,-2.320339E-1,2.9075548E-1,-1.4715233E-1,1.8166962E-1,-1.213935E-1,-2.7037596E-2,3.181541E-1,-4.3706156E-2,2.296082E-1,1.6102093E-1,-2.2862467E-1,-3.4789634E-1,1.04904115E-1,5.9598994E-2,-2.3425907E-1],"split_indices":[5,9,2,4,6,4,5,8,4,2,6,5,4,10,11,6,0,10,8,11,5,5,5,4,5,9,4,2,11,11,2,2,7,10,10,8,9,11,9,0,5,11,4,5,5,2,6,6,10,5,0,3,5,5,2,0,2,10,5,5,5,6,11,0,0,0,0,0,0,0,0,0,0,0,0,0,0,0,0,0,0,0,0,0,0,0,0,0,0,0,0,0,0,0,0,0,0,0,0,0,0,0,0,0,0,0,0,0,0,0,0,0,0,0,0,0,0,0,0,0,0,0,0,0,0],"split_type":[0,0,0,0,0,0,0,0,0,0,0,0,0,0,0,0,0,0,0,0,0,0,0,0,0,0,0,0,0,0,0,0,0,0,0,0,0,0,0,0,0,0,0,0,0,0,0,0,0,0,0,0,0,0,0,0,0,0,0,0,0,0,0,0,0,0,0,0,0,0,0,0,0,0,0,0,0,0,0,0,0,0,0,0,0,0,0,0,0,0,0,0,0,0,0,0,0,0,0,0,0,0,0,0,0,0,0,0,0,0,0,0,0,0,0,0,0,0,0,0,0,0,0,0,0],"sum_hessian":[2.7669047E4,1.653539E4,1.1133656E4,5.564505E3,1.0970887E4,1.015103E4,9.826259E2,2.3743915E2,5.327066E3,2.07051E3,8.900376E3,2.299334E3,7.851696E3,6.551068E2,3.275191E2,1.6658456E2,7.085458E1,4.8087314E3,5.183342E2,6.019419E2,1.4685681E3,7.9684946E3,9.3188184E2,9.720722E2,1.3272617E3,5.9668413E3,1.8848546E3,4.674523E2,1.8765448E2,2.1329285E2,1.14226265E2,5.8698532E1,1.0788603E2,1.218982E1,5.866477E1,5.907419E2,4.2179897E3,3.5069604E2,1.676382E2,1.4738829E0,6.00468E2,3.439493E1,1.4341732E3,1.0267422E3,6.9417524E3,6.043086E2,3.2757324E2,4.7429745E2,4.9777475E2,1.0855043E3,2.4175745E2,1.2186747E3,4.7481665E3,1.1339468E3,7.5090784E2,1.3731189E2,3.301404E2,1.5424182E2,3.3412647E1,1.7335881E2,3.9934036E1,9.875677E1,1.5469493E1,5.7652435E1,1.0460968E0,4.9763477E1,5.8122555E1,1.0344645E0,1.1155355E1,3.907022E1,1.9594545E1,4.5221213E2,1.3852974E2,2.736379E3,1.4816107E3,3.0384848E2,4.6847546E1,4.2182278E1,1.2545592E2,1.8745125E2,4.1301675E2,1.57386E1,1.865633E1,1.6120607E2,1.2729672E3,5.5279107E0,1.0212143E3,4.553046E3,2.3887065E3,5.777284E2,2.658023E1,1.1920204E2,2.0837119E2,7.381779E1,4.0047968E2,3.2152017E2,1.762546E2,1.0832764E3,2.2278893E0,2.3131305E2,1.0444397E1,9.82223E2,2.3645168E2,1.9598939E3,2.7882727E3,5.602515E2,5.736953E2,7.484726E2,2.4352655E0,4.1357174E0,1.3317618E2,2.3558395E0,3.2778458E2,5.1889772E0,1.4905286E2,2.4363043E1,9.049605E0,1.6556192E2,7.7968884E0,5.224081E0,3.4709953E1,2.806399E0,9.595037E1,3.705934E0,1.1763559E1],"tree_param":{"num_deleted":"0","num_feature":"12","num_nodes":"125","size_leaf_vector":"0"}},{"base_weights":[-3.6615908E-1,-2.3974551E-1,-5.7346785E-1,-5.0379837E-1,-2.1965657E-1,-6.0680705E-1,-2.6062924E-1,-7.657503E-1,-4.6156994E-1,-1.8868479E-1,-4.3412504E-1,-8.0801064E-1,-5.727749E-1,-3.4926176E-1,5.4132216E-2,-7.9409903E-1,-5.4636583E-2,-5.224296E-1,-3.4228438E-1,-8.226908E-2,-2.253554E-1,-3.9393333E-1,-6.7291445E-1,-7.281479E-1,-8.5276955E-1,-5.2110183E-1,-7.690295E-1,-4.507403E-1,-1.3256471E-1,-1.7273042E-1,3.1147802E-1,-8.562333E-1,-4.1820666E-1,4.738844E-1,-7.6059425E-1,-5.7757425E-1,-3.3214483E-1,-2.4040337E-1,-5.2361894E-1,-4.0258914E-1,-6.4278044E-2,-2.3986126E-1,9.744999E-2,-5.4969347E-1,-3.617151E-1,-7.3490864E-1,-2.048361E-1,-2.1350712E-1,-7.4385595E-1,-8.258785E-1,-9.708754E-1,-5.4743934E-1,-2.0647192E-1,-7.062302E-1,-8.5013276E-1,-2.1838567E-1,-5.1526266E-1,6.710305E-3,-5.916975E-1,8.6793673E-1,-3.4491047E-1,6.966014E-1,5.1459536E-2,-8.76783E-1,3.0203223E-1,7.659629E-1,-5.518182E-1,-3.455281E-1,1.1555948E0,-2.499845E-1,-6.1132103E-1,1.0315627E0,-3.8945618E-1,-3.3884743E-1,8.13204E-2,-5.9427446E-1,3.8092834E-1,-4.5650366E-1,4.6957317E-1,-3.965013E-2,-3.0689973E-1,-3.3840716E-1,-2.0759854E-1,-1.864346E-1,2.3442061E-1,-5.625975E-1,1.4309132E0,-2.2642927E-1,-4.2611614E-1,-7.457177E-1,7.619031E-1,5.123027E-1,-4.1835687E-1,-5.897413E-1,5.113533E-1,-7.5375736E-1,9.273562E-2,-8.2964486E-1,2.4231431E-1,-9.8388237E-1,1.853589E-2,-4.5814478E-1,-6.6827196E-1,-8.168495E-2,-5.9715325E-1,-6.025328E-1,-7.894073E-1,-8.541932E-1,6.714606E-1,3.021778E-1,-3.8347638E-1,-5.7150435E-1,-7.477435E-2,-2.8055444E-1,3.2242107E-1,6.6654176E-1,-6.859069E-1,1.1674525E0,-5.007661E-1,-3.7880552E-1,1.0737923E0,2.3123035E0,5.35029E-1,-9.0333474E-1,1.661916E-1],"categories":[],"categories_nodes":[],"categories_segments":[],"categories_sizes":[],"default_left":[true,true,true,true,true,true,true,true,true,true,true,true,true,true,true,true,true,true,true,true,true,true,true,true,true,true,true,true,true,true,true,true,true,true,false,true,true,true,true,true,true,true,true,true,true,true,true,true,true,true,true,true,true,true,true,true,true,true,true,true,true,true,true,false,false,false,false,false,false,false,false,false,false,false,false,false,false,false,false,false,false,false,false,false,false,false,false,false,false,false,false,false,false,false,false,false,false,false,false,false,false,false,false,false,false,false,false,false,false,false,false,false,false,false,false,false,false,false,false,false,false,false,false,false,false],"id":7,"left_children":[1,3,5,7,9,11,13,15,17,19,21,23,25,27,29,31,33,35,37,39,41,43,45,47,49,51,53,55,57,59,61,63,65,67,-1,69,71,73,75,77,79,81,83,85,87,89,91,93,95,97,99,101,103,105,107,109,111,113,115,117,119,121,123,-1,-1,-1,-1,-1,-1,-1,-1,-1,-1,-1,-1,-1,-1,-1,-1,-1,-1,-1,-1,-1,-1,-1,-1,-1,-1,-1,-1,-1,-1,-1,-1,-1,-1,-1,-1,-1,-1,-1,-1,-1,-1,-1,-1,-1,-1,-1,-1,-1,-1,-1,-1,-1,-1,-1,-1,-1,-1,-1,-1,-1,-1],"loss_changes":[6.554961E2,8.2336914E1,9.867456E1,1.1793671E1,9.587335E1,5.816919E1,2.5527641E1,2.999237E0,6.704666E0,4.9246826E1,1.7222443E1,3.798462E0,7.3906006E1,1.5632141E1,1.1833268E1,3.0301437E0,2.9200244E0,6.3763733E0,5.8456573E0,1.8628859E1,4.3985962E1,7.6398926E0,7.425911E0,3.4861298E0,1.6959229E0,4.7975952E1,7.167053E0,7.167343E0,1.4648044E1,1.9628942E1,9.466177E0,3.205246E0,3.9878125E0,2.9348874E0,0E0,5.1973267E0,1.157772E1,6.6407433E0,7.603443E0,8.299961E0,1.830856E1,2.8496582E1,1.5770685E1,7.5981903E0,1.1205673E1,4.2921295E0,5.1024113E0,4.326074E0,3.6908417E0,2.8052673E0,1.821991E0,5.7465942E1,2.1883204E1,6.9888916E0,4.6551514E0,9.334716E0,9.354233E0,1.611554E1,6.776575E0,6.979375E0,4.89221E0,8.725681E0,6.4735456E0,0E0,0E0,0E0,0E0,0E0,0E0,0E0,0E0,0E0,0E0,0E0,0E0,0E0,0E0,0E0,0E0,0E0,0E0,0E0,0E0,0E0,0E0,0E0,0E0,0E0,0E0,0E0,0E0,0E0,0E0,0E0,0E0,0E0,0E0,0E0,0E0,0E0,0E0,0E0,0E0,0E0,0E0,0E0,0E0,0E0,0E0,0E0,0E0,0E0,0E0,0E0,0E0,0E0,0E0,0E0,0E0,0E0,0E0,0E0,0E0,0E0,0E0],"parents":[2147483647,0,0,1,1,2,2,3,3,4,4,5,5,6,6,7,7,8,8,9,9,10,10,11,11,12,12,13,13,14,14,15,15,16,16,17,17,18,18,19,19,20,20,21,21,22,22,23,23,24,24,25,25,26,26,27,27,28,28,29,29,30,30,31,31,32,32,33,33,35,35,36,36,37,37,38,38,39,39,40,40,41,41,42,42,43,43,44,44,45,45,46,46,47,47,48,48,49,49,50,50,51,51,52,52,53,53,54,54,55,55,56,56,57,57,58,58,59,59,60,60,61,61,62,62],"right_children":[2,4,6,8,10,12,14,16,18,20,22,24,26,28,30,32,34,36,38,40,42,44,46,48,50,52,54,56,58,60,62,64,66,68,-1,70,72,74,76,78,80,82,84,86,88,90,92,94,96,98,100,102,104,106,108,110,112,114,116,118,120,122,124,-1,-1,-1,-1,-1,-1,-1,-1,-1,-1,-1,-1,-1,-1,-1,-1,-1,-1,-1,-1,-1,-1,-1,-1,-1,-1,-1,-1,-1,-1,-1,-1,-1,-1,-1,-1,-1,-1,-1,-1,-1,-1,-1,-1,-1,-1,-1,-1,-1,-1,-1,-1,-1,-1,-1,-1,-1,-1,-1,-1,-1,-1],"split_conditions":[3.357081E1,-1.65E1,3.4225E3,-2.65E1,1.25E1,-2.75E1,9.0879005E1,3.3264084E1,2.9034443E1,2.5E0,2.45E1,4.5612495E1,2.55E1,8.073103E1,2.0160204E9,1.7363926E1,2.8E1,2.8605E3,2.3825E3,-3.25E1,2.3062052E1,3.5932514E1,3.1835E3,8.154234E0,7.019615E1,1.4502242E2,5.3837715E1,4.5E0,3.5985E3,1.2048568E2,6.5E0,3.578E3,1.8077332E1,-3.1E1,-2.2817828E-1,7.476659E-1,2.8885E3,1.8435E3,2.2899376E1,3.395E3,8.35E1,-6.5E0,-4.5E0,3.180156E1,6.5E0,9.35E1,2.55E1,-2.25E1,4.554664E1,6.97065E1,3.3965E3,4.9694054E1,8.5E0,3.05E1,3.4145E3,2.3312788E1,3.6705E3,3.5275E3,3.4190636E1,2.0160201E9,1.801005E2,3.456E3,3.465E3,-2.630349E-1,9.060967E-2,2.2978888E-1,-1.6554546E-1,-1.0365843E-1,3.4667847E-1,-7.4995354E-2,-1.8339631E-1,3.094688E-1,-1.1683686E-1,-1.0165423E-1,2.439612E-2,-1.7828235E-1,1.142785E-1,-1.369511E-1,1.4087196E-1,-1.189504E-2,-9.2069924E-2,-1.01522155E-1,-6.2279563E-2,-5.593038E-2,7.032619E-2,-1.6877925E-1,4.29274E-1,-6.792878E-2,-1.2783484E-1,-2.2371532E-1,2.2857094E-1,1.5369081E-1,-1.2550707E-1,-1.769224E-1,1.53406E-1,-2.2612722E-1,2.7820686E-2,-2.4889347E-1,7.2694294E-2,-2.9516473E-1,5.560767E-3,-1.3744344E-1,-2.004816E-1,-2.4505485E-2,-1.7914598E-1,-1.8075985E-1,-2.368222E-1,-2.5625798E-1,2.014382E-1,9.065334E-2,-1.1504292E-1,-1.7145132E-1,-2.2432305E-2,-8.416633E-2,9.672633E-2,1.9996254E-1,-2.0577207E-1,3.5023576E-1,-1.5022984E-1,-1.1364166E-1,3.221377E-1,6.936911E-1,1.605087E-1,-2.7100044E-1,4.985748E-2],"split_indices":[5,4,2,4,4,4,5,5,5,9,4,5,4,10,1,11,7,2,2,8,11,6,2,10,5,5,5,9,2,5,9,2,11,4,0,11,2,2,11,2,7,4,4,5,9,3,4,8,5,5,2,5,4,4,2,10,2,2,5,1,5,2,2,0,0,0,0,0,0,0,0,0,0,0,0,0,0,0,0,0,0,0,0,0,0,0,0,0,0,0,0,0,0,0,0,0,0,0,0,0,0,0,0,0,0,0,0,0,0,0,0,0,0,0,0,0,0,0,0,0,0,0,0,0,0],"split_type":[0,0,0,0,0,0,0,0,0,0,0,0,0,0,0,0,0,0,0,0,0,0,0,0,0,0,0,0,0,0,0,0,0,0,0,0,0,0,0,0,0,0,0,0,0,0,0,0,0,0,0,0,0,0,0,0,0,0,0,0,0,0,0,0,0,0,0,0,0,0,0,0,0,0,0,0,0,0,0,0,0,0,0,0,0,0,0,0,0,0,0,0,0,0,0,0,0,0,0,0,0,0,0,0,0,0,0,0,0,0,0,0,0,0,0,0,0,0,0,0,0,0,0,0,0],"sum_hessian":[2.5016836E4,1.5541833E4,9.475004E3,1.097111E3,1.4444722E4,8.561649E3,9.133539E2,1.4993007E2,9.4718097E2,1.26236045E4,1.8211178E3,1.2353451E3,7.3263047E3,7.12589E2,2.007649E2,1.4406998E2,5.8600874E0,6.2495056E2,3.222304E2,3.2360469E3,9.387558E3,1.5610244E3,2.6009335E2,4.4988684E2,7.8545825E2,5.8022495E3,1.5240549E3,4.8458115E2,2.2800784E2,1.0687674E2,9.388816E1,1.2253699E2,2.1532988E1,3.5391839E0,2.3209035E0,4.8295465E2,1.419959E2,2.0780368E2,1.1442671E2,1.7095277E2,3.0650942E3,8.984097E3,4.0346048E2,2.6479623E2,1.2962281E3,2.2917094E2,3.0922401E1,1.375707E1,4.361298E2,6.4629803E2,1.391602E2,5.353381E3,4.4886887E2,8.6442596E2,6.596289E2,1.0627041E2,3.7831073E2,1.7569675E2,5.2311108E1,1.4598942E1,9.2277794E1,3.7164032E1,5.672413E1,1.2063965E2,1.8973454E0,1.7033968E0,1.982959E1,1.8312163E0,1.7079675E0,4.5890434E1,4.3706424E2,5.0412583E0,1.3695464E2,1.5907515E2,4.8728535E1,1.06454414E2,7.972301E0,1.6144905E2,9.503721E0,2.7836921E3,2.8140213E2,2.2135037E3,6.7705933E3,1.3119185E2,2.7226865E2,2.6379352E2,1.0027176E0,4.195031E2,8.7672504E2,2.2802608E2,1.1448678E0,6.773468E0,2.4148933E1,9.179115E0,4.5779543E0,4.3112625E2,5.0035453E0,6.4424976E2,2.0482576E0,1.3736003E2,1.8001728E0,3.0811912E3,2.2721895E3,3.4112097E2,1.07747894E2,3.8842206E2,4.760039E2,6.583108E2,1.3181101E0,2.5387682E1,8.088273E1,3.352132E2,4.309754E1,9.205102E1,8.364572E1,3.2207253E0,4.909038E1,1.2098453E1,2.5004888E0,9.084046E1,1.4373316E0,2.1684616E0,3.4995567E1,5.3476696E0,5.1376457E1],"tree_param":{"num_deleted":"0","num_feature":"12","num_nodes":"125","size_leaf_vector":"0"}},{"base_weights":[-2.861788E-1,-1.8697412E-1,-4.9711776E-1,-4.202357E-1,-1.6716224E-1,-5.330895E-1,-1.9871037E-1,-7.4402255E-1,-3.8269028E-1,-1.3806495E-1,-3.525787E-1,-3.5241318E-1,-5.796114E-1,-3.0154574E-1,3.5382265E-3,-7.688015E-1,6.294551E-1,-6.569967E-1,-3.4964097E-1,-1.5497583E-1,6.376589E-2,-3.1463298E-1,-5.960744E-1,2.3215044E-1,-3.8204414E-1,-4.90142E-1,-6.4637536E-1,-3.9063826E-1,-8.396845E-2,1.1756737E-1,-2.53474E-1,-6.2474185E-1,-8.8824356E-1,2.061909E-1,-6.9250226E-1,-1.9874853E-1,-4.2510304E-1,-2.366807E-1,-1.2526995E-1,-3.150658E-2,2.9059047E-1,-3.3559534E-1,4.648358E-3,-6.11585E-1,1.1220925E0,1.4614615E0,2.9217886E-2,-4.401254E-1,-1.6929045E-1,3.6510578E-1,-5.035869E-1,-5.4227096E-1,-6.937546E-1,-5.3294015E-1,-2.6671222E-1,6.122247E-2,-6.6852725E-1,5.322917E-4,4.739358E-1,2.3476377E-1,-4.892334E-1,-7.356841E-1,-2.1462575E-1,1.7887963E-1,-9.148899E-1,1.1597235E0,-5.4589456E-1,-1.3934657E-1,-7.243278E-1,-5.3869903E-1,-7.4026115E-2,-2.2975063E-1,-4.8109505E-1,-3.275615E-1,-1.5644394E-1,-7.178446E-2,-2.2307451E-1,-4.0999893E-2,1.1153264E0,5.690443E-1,3.194294E-2,-3.1982517E-1,-6.541979E-1,-8.387723E-1,1.4653721E-1,6.768183E-1,-6.2346405E-1,2.2599862E0,-3.0401054E-1,-2.2443087E-1,6.362719E-1,-3.0648053E-1,-5.4833376E-1,-5.0345834E-2,-5.03706E-1,1.08135834E-1,1.4179156E0,-7.072989E-1,-4.723329E-1,-6.8679583E-1,-4.8900172E-1,-7.21157E-1,-4.1014868E-1,-2.255268E-1,-6.0431933E-1,-1.571092E-1,-5.4942584E-1,1.8246992E-1,-5.099878E-1,1.9389096E-1,-7.371406E-1,9.084416E-1,-6.642639E-2,6.306627E-1,-2.8423277E-1,-2.670075E-1,4.8663113E-1,-2.3595935E-1,-8.0147344E-1],"categories":[],"categories_nodes":[],"categories_segments":[],"categories_sizes":[],"default_left":[true,true,true,true,true,true,true,true,true,true,true,true,true,true,true,true,false,true,true,true,true,true,true,true,true,true,true,true,true,true,true,true,true,true,true,true,true,true,true,true,true,true,true,true,false,true,true,true,true,true,true,true,true,true,true,true,true,true,true,true,true,false,false,false,false,false,false,false,false,false,false,false,false,false,false,false,false,false,false,false,false,false,false,false,false,false,false,false,false,false,false,false,false,false,false,false,false,false,false,false,false,false,false,false,false,false,false,false,false,false,false,false,false,false,false,false,false,false,false],"id":8,"left_children":[1,3,5,7,9,11,13,15,17,19,21,23,25,27,29,31,-1,33,35,37,39,41,43,45,47,49,51,53,55,57,59,61,63,65,67,69,71,73,75,77,79,81,83,85,-1,87,89,91,93,95,97,99,101,103,105,107,109,111,113,115,117,-1,-1,-1,-1,-1,-1,-1,-1,-1,-1,-1,-1,-1,-1,-1,-1,-1,-1,-1,-1,-1,-1,-1,-1,-1,-1,-1,-1,-1,-1,-1,-1,-1,-1,-1,-1,-1,-1,-1,-1,-1,-1,-1,-1,-1,-1,-1,-1,-1,-1,-1,-1,-1,-1,-1,-1,-1,-1],"loss_changes":[4.8150122E2,7.2273254E1,7.890686E1,1.4605194E1,7.780484E1,5.500537E1,1.6503576E1,4.779312E0,9.739044E0,4.2587494E1,1.7891937E1,2.3429169E1,3.0875122E1,1.0163731E1,7.8969383E0,1.5860214E0,0E0,3.7317314E0,1.1114479E1,2.7907684E1,2.0865519E1,1.1346222E1,7.6872025E0,1.6330038E1,1.5778061E1,2.5890625E1,1.4358032E1,6.4343567E0,1.3118909E1,7.783456E0,9.647335E0,2.561636E0,2.0305023E0,4.503508E0,1.8831863E0,1.3941894E1,7.051285E0,2.2320328E1,4.415323E1,7.455053E0,2.0548876E1,7.7826996E0,1.2738389E1,4.416542E0,0E0,1.3767969E1,8.973787E0,1.43966675E1,1.0982599E1,9.364487E0,1.3682068E1,6.8924255E0,1.5630737E1,3.6508446E0,6.1522856E0,8.705122E0,1.9620047E0,8.661805E0,5.6614485E0,3.6234574E0,4.2530384E0,0E0,0E0,0E0,0E0,0E0,0E0,0E0,0E0,0E0,0E0,0E0,0E0,0E0,0E0,0E0,0E0,0E0,0E0,0E0,0E0,0E0,0E0,0E0,0E0,0E0,0E0,0E0,0E0,0E0,0E0,0E0,0E0,0E0,0E0,0E0,0E0,0E0,0E0,0E0,0E0,0E0,0E0,0E0,0E0,0E0,0E0,0E0,0E0,0E0,0E0,0E0,0E0,0E0,0E0,0E0,0E0,0E0,0E0],"parents":[2147483647,0,0,1,1,2,2,3,3,4,4,5,5,6,6,7,7,8,8,9,9,10,10,11,11,12,12,13,13,14,14,15,15,17,17,18,18,19,19,20,20,21,21,22,22,23,23,24,24,25,25,26,26,27,27,28,28,29,29,30,30,31,31,32,32,33,33,34,34,35,35,36,36,37,37,38,38,39,39,40,40,41,41,42,42,43,43,45,45,46,46,47,47,48,48,49,49,50,50,51,51,52,52,53,53,54,54,55,55,56,56,57,57,58,58,59,59,60,60],"right_children":[2,4,6,8,10,12,14,16,18,20,22,24,26,28,30,32,-1,34,36,38,40,42,44,46,48,50,52,54,56,58,60,62,64,66,68,70,72,74,76,78,80,82,84,86,-1,88,90,92,94,96,98,100,102,104,106,108,110,112,114,116,118,-1,-1,-1,-1,-1,-1,-1,-1,-1,-1,-1,-1,-1,-1,-1,-1,-1,-1,-1,-1,-1,-1,-1,-1,-1,-1,-1,-1,-1,-1,-1,-1,-1,-1,-1,-1,-1,-1,-1,-1,-1,-1,-1,-1,-1,-1,-1,-1,-1,-1,-1,-1,-1,-1,-1,-1,-1,-1],"split_conditions":[3.6297348E1,-1.65E1,3.4225E3,-2.85E1,1.25E1,4.5E0,7.297601E1,3.55E2,3.85E1,3.5005E3,2.55E1,-7.55E1,4.752894E1,9.022472E1,3.5825E3,-2.05E1,1.8883653E-1,1.8316532E1,7.5E0,-5.5E0,6.221308E0,3.4625E3,3.668E3,1.5063938E0,5.05E1,6.567011E0,4.457577E1,3.5285E3,3.5995E3,2.15E1,-3.95E1,2.35E1,1.09E2,2.0170204E9,-3.85E1,2.3227116E1,2.575845E1,-4.5E0,4.5E0,3.95E1,3.5915E3,1.6008905E2,1.4229979E1,-9.238051E-1,3.3662775E-1,-5.75E1,-5.65E1,5.2163204E1,2.15E1,6.85E1,-2.65E1,-2.25E1,1.3320848E2,2.2416443E1,6.55E1,1.3917432E2,9.5105194E1,1.052268E1,2.65E1,-5.5E0,3.275E2,-2.2070524E-1,-6.4387724E-2,5.366389E-2,-2.7446696E-1,3.4791708E-1,-1.6376838E-1,-4.180397E-2,-2.1729834E-1,-1.6160971E-1,-2.2207836E-2,-6.8925194E-2,-1.4432852E-1,-9.826846E-2,-4.6933185E-2,-2.1535339E-2,-6.692236E-2,-1.2299969E-2,3.3459795E-1,1.7071329E-1,9.582883E-3,-9.5947556E-2,-1.9625936E-1,-2.516317E-1,4.3961167E-2,2.030455E-1,-1.8703923E-1,6.7799586E-1,-9.120317E-2,-6.7329265E-2,1.9088158E-1,-9.194416E-2,-1.6450013E-1,-1.5103751E-2,-1.511118E-1,3.244075E-2,4.253747E-1,-2.1218967E-1,-1.4169988E-1,-2.0603876E-1,-1.4670052E-1,-2.1634711E-1,-1.2304461E-1,-6.7658044E-2,-1.8129581E-1,-4.7132764E-2,-1.6482776E-1,5.4740977E-2,-1.5299633E-1,5.816729E-2,-2.2114219E-1,2.725325E-1,-1.9927917E-2,1.891988E-1,-8.526983E-2,-8.010225E-2,1.4598934E-1,-7.078781E-2,-2.4044204E-1],"split_indices":[5,4,2,4,4,9,5,0,0,2,4,3,10,10,2,7,0,5,9,4,11,2,2,6,3,6,5,2,2,4,3,9,2,1,8,10,10,8,4,8,2,10,10,6,0,7,7,5,4,3,4,4,5,10,7,10,10,10,9,8,0,0,0,0,0,0,0,0,0,0,0,0,0,0,0,0,0,0,0,0,0,0,0,0,0,0,0,0,0,0,0,0,0,0,0,0,0,0,0,0,0,0,0,0,0,0,0,0,0,0,0,0,0,0,0,0,0,0,0],"split_type":[0,0,0,0,0,0,0,0,0,0,0,0,0,0,0,0,0,0,0,0,0,0,0,0,0,0,0,0,0,0,0,0,0,0,0,0,0,0,0,0,0,0,0,0,0,0,0,0,0,0,0,0,0,0,0,0,0,0,0,0,0,0,0,0,0,0,0,0,0,0,0,0,0,0,0,0,0,0,0,0,0,0,0,0,0,0,0,0,0,0,0,0,0,0,0,0,0,0,0,0,0,0,0,0,0,0,0,0,0,0,0,0,0,0,0,0,0,0,0],"sum_hessian":[2.3013016E4,1.5653198E4,7.359818E3,1.2238304E3,1.4429367E4,6.5673633E3,7.924544E2,1.252109E2,1.0986195E3,1.2473633E4,1.9557343E3,1.3465118E3,5.2208516E3,5.2501447E2,2.6743994E2,1.23424446E2,1.7864548E0,1.161022E2,9.825173E2,1.1509514E4,9.6411945E2,1.6940328E3,2.6170148E2,6.463082E1,1.281881E3,2.2346162E3,2.9862354E3,3.71925E2,1.530895E2,1.8562561E2,8.181433E1,5.8770966E1,6.465348E1,4.3970385E0,1.1170516E2,3.2876306E2,6.537542E2,3.0669685E3,8.442545E3,6.795508E2,2.8456863E2,1.5896157E3,1.0441712E2,2.599984E2,1.7030689E0,8.278737E0,5.6352085E1,1.0061387E3,2.757423E2,3.418074E1,2.2004355E3,9.378915E2,2.0483438E3,1.7159045E2,2.0033455E2,1.2334797E2,2.9741524E1,1.4048904E2,4.5136562E1,2.6643053E1,5.5171284E1,4.56328E1,1.3138166E1,1.4359012E0,6.321758E1,1.6998593E0,2.697179E0,6.3698583E0,1.05335304E2,8.735209E1,2.4141098E2,1.4677368E2,5.0698053E2,1.4366515E3,1.630317E3,5.458978E3,2.9835674E3,6.749281E2,4.622707E0,1.3645949E2,1.4810915E2,1.5165531E3,7.306253E1,1.43292465E1,9.0087875E1,1.8638927E0,2.5813452E2,5.50756E0,2.771177E0,4.0189697E1,1.616239E1,4.518745E2,5.5426416E2,2.042466E2,7.1495705E1,2.8361076E1,5.819663E0,2.8981378E2,1.9106217E3,2.4938693E2,6.885046E2,1.8664608E3,1.81883E2,3.3118095E1,1.3847235E2,1.454874E2,5.4847153E1,1.0231147E2,2.1036499E1,2.0572753E0,2.768425E1,8.786296E0,1.3170276E2,3.7543774E1,7.592786E0,8.884066E0,1.7758987E1,3.1431368E1,2.3739914E1],"tree_param":{"num_deleted":"0","num_feature":"12","num_nodes":"119","size_leaf_vector":"0"}},{"base_weights":[-2.1956576E-1,-1.383468E-1,-4.0818295E-1,-5.6987017E-2,-1.8221144E-1,-4.43413E-1,-1.5897903E-1,-4.8096288E-2,-4.8052E-1,-1.6899629E-1,-4.601228E-1,-3.651237E-1,-5.461591E-1,-2.5640732E-1,1.0680839E-2,-1.4420614E-1,-9.529162E-3,-5.288626E-1,4.2237943E-1,-3.7179473E-1,-1.48328E-1,-3.6207578E-1,-7.413161E-1,-1.7435408E-1,-4.123796E-1,-5.6966376E-1,-1.6525356E-1,-3.3000407E-1,1.7257966E-2,1.0432871E-1,-2.44873E-1,-4.4344398E-1,-1.1491741E-1,-1.6882285E-1,2.075855E-2,-2.1854682E-1,-6.668977E-1,-7.397961E-1,9.0112126E-1,-3.046021E-1,-5.595619E-1,-2.4873745E-2,-1.6947263E-1,-3.8059866E-1,1.025649E0,-5.759487E-1,-8.5720605E-1,-9.138585E-2,-4.411869E-1,-3.9022508E-1,-7.694259E-1,-5.18852E-1,-8.027586E-1,-3.6844128E-1,4.9099645E-1,-7.1665E-1,-2.6302066E-1,-5.1608634E-1,1.3183513E-1,4.4013802E-2,8.64327E-1,3.7889636E-1,-3.7260938E-1,8.778988E-1,-4.6538553E-1,4.1998646E-1,-1.3185567E-1,-4.0783513E-1,-1.01975955E-1,3.5386834E-2,-4.2371014E-1,-8.457701E-1,1.1805012E-2,-8.7482107E-1,-4.5921743E-1,6.447141E-2,1.6322314E0,3.0816188E-1,-3.2210433E-1,-2.66898E-1,-6.3470626E-1,7.5523627E-1,-3.933783E-2,-2.0296521E-1,-9.931121E-2,-3.925863E-1,1.2747793E0,2.4939032E0,-4.5972008E-1,-6.722771E-1,6.6101915E-1,-9.313298E-1,-3.281554E-1,-6.363116E-1,-3.2695726E-2,1.3011982E-1,-5.0305396E-1,-5.367064E-1,-3.2596064E-1,3.064707E-1,-7.913813E-1,-6.700896E-1,-4.6679273E-1,-8.1183934E-1,1.4286458E0,-4.5028228E-1,6.4782554E-1,-6.9890666E-1,6.7489964E-1,-1.0339043E0,-5.739548E-1,-4.3046483E-1,-1.9932309E-1,2.1052341E-1,-8.217094E-1,2.5393885E-1,-5.4810023E-1,6.624656E-1,-1.4109592E-2,1.1033367E0,-3.528819E-1,8.372576E-1,-6.448915E-1,-5.168696E-1,4.230528E-1],"categories":[],"categories_nodes":[],"categories_segments":[],"categories_sizes":[],"default_left":[true,true,true,true,true,true,true,true,true,true,true,true,true,true,true,true,true,true,true,true,true,true,true,true,true,true,true,true,true,true,true,true,true,true,true,true,true,false,true,true,true,true,true,true,true,true,true,true,true,true,true,true,true,true,true,true,true,true,true,true,true,true,true,false,false,false,false,false,false,false,false,false,false,false,false,false,false,false,false,false,false,false,false,false,false,false,false,false,false,false,false,false,false,false,false,false,false,false,false,false,false,false,false,false,false,false,false,false,false,false,false,false,false,false,false,false,false,false,false,false,false,false,false,false,false],"id":9,"left_children":[1,3,5,7,9,11,13,15,17,19,21,23,25,27,29,31,33,35,37,39,41,43,45,47,49,51,53,55,57,59,61,63,65,67,69,71,73,-1,75,77,79,81,83,85,87,89,91,93,95,97,99,101,103,105,107,109,111,113,115,117,119,121,123,-1,-1,-1,-1,-1,-1,-1,-1,-1,-1,-1,-1,-1,-1,-1,-1,-1,-1,-1,-1,-1,-1,-1,-1,-1,-1,-1,-1,-1,-1,-1,-1,-1,-1,-1,-1,-1,-1,-1,-1,-1,-1,-1,-1,-1,-1,-1,-1,-1,-1,-1,-1,-1,-1,-1,-1,-1,-1,-1,-1,-1,-1],"loss_changes":[3.297423E2,5.3700165E1,5.681494E1,1.9833502E1,3.5832123E1,4.5460205E1,1.3294186E1,1.9147217E1,4.950886E0,3.907425E1,1.1952309E1,2.899759E1,2.1865112E1,1.0294018E1,7.068224E0,1.2914019E1,1.7795202E1,4.2768364E0,4.0384674E0,1.0714676E1,2.2115387E1,8.888729E0,1.6842003E0,1.4170841E1,2.0136932E1,2.6940063E1,1.9377106E1,1.0238598E1,6.741772E0,9.866004E0,6.45306E0,4.2219696E0,1.2275627E1,9.373085E0,2.0166824E1,4.8175945E0,2.6630135E0,0E0,2.7959862E0,6.937191E0,4.804756E0,1.4024402E1,1.6979828E1,6.989273E0,1.1234185E1,6.3870926E0,2.2343369E0,1.5679792E1,5.43766E0,2.2744568E1,3.7838745E0,1.4640106E1,9.4991455E0,9.482082E0,8.01338E0,2.0716553E0,3.5911045E0,4.5068808E0,7.668856E0,7.24279E0,4.995427E0,7.0912E0,7.823756E0,0E0,0E0,0E0,0E0,0E0,0E0,0E0,0E0,0E0,0E0,0E0,0E0,0E0,0E0,0E0,0E0,0E0,0E0,0E0,0E0,0E0,0E0,0E0,0E0,0E0,0E0,0E0,0E0,0E0,0E0,0E0,0E0,0E0,0E0,0E0,0E0,0E0,0E0,0E0,0E0,0E0,0E0,0E0,0E0,0E0,0E0,0E0,0E0,0E0,0E0,0E0,0E0,0E0,0E0,0E0,0E0,0E0,0E0,0E0,0E0,0E0,0E0],"parents":[2147483647,0,0,1,1,2,2,3,3,4,4,5,5,6,6,7,7,8,8,9,9,10,10,11,11,12,12,13,13,14,14,15,15,16,16,17,17,18,18,19,19,20,20,21,21,22,22,23,23,24,24,25,25,26,26,27,27,28,28,29,29,30,30,31,31,32,32,33,33,34,34,35,35,36,36,38,38,39,39,40,40,41,41,42,42,43,43,44,44,45,45,46,46,47,47,48,48,49,49,50,50,51,51,52,52,53,53,54,54,55,55,56,56,57,57,58,58,59,59,60,60,61,61,62,62],"right_children":[2,4,6,8,10,12,14,16,18,20,22,24,26,28,30,32,34,36,38,40,42,44,46,48,50,52,54,56,58,60,62,64,66,68,70,72,74,-1,76,78,80,82,84,86,88,90,92,94,96,98,100,102,104,106,108,110,112,114,116,118,120,122,124,-1,-1,-1,-1,-1,-1,-1,-1,-1,-1,-1,-1,-1,-1,-1,-1,-1,-1,-1,-1,-1,-1,-1,-1,-1,-1,-1,-1,-1,-1,-1,-1,-1,-1,-1,-1,-1,-1,-1,-1,-1,-1,-1,-1,-1,-1,-1,-1,-1,-1,-1,-1,-1,-1,-1,-1,-1,-1,-1,-1,-1,-1],"split_conditions":[3.6297348E1,4.5E0,3.3915E3,1.6270227E2,1.511513E2,5.512712E1,6.84361E1,1.0945E3,2.0180211E9,3.2964554E1,2.5826082E1,3.5E0,1.4417697E2,1.2115547E1,3.315E2,3.2409317E1,8.514643E0,8.623106E0,1.5E0,2.4556025E1,9.874176E0,9.15E1,3.4387486E0,1.9909168E1,3.15E1,6.205239E1,1.8458904E1,-2.75E1,-2.75E1,1.8532974E1,1.9499242E-1,-9.05E1,5.956857E0,-5.5E0,3.85E1,-6.65E1,2.7730755E1,-2.2193883E-1,-6.5E0,8.573164E0,7.9557014E-1,4.736068E0,2.017021E9,2.5670967E1,1.0975334E1,3.220438E0,1.6977924E1,-2.85E1,5.091844E1,-1.85E1,3.6823868E1,-2.35E1,9.955582E1,3.1245E3,-2.05E1,4.3988598E1,3.4805E3,1.6083801E1,3.5935E3,-3.45E1,4.4730064E1,1.5E0,2.55E1,2.6336965E-1,-1.3961567E-1,1.2599595E-1,-3.95567E-2,-1.22350544E-1,-3.0592788E-2,1.0616051E-2,-1.2711304E-1,-2.5373104E-1,3.5415038E-3,-2.6244634E-1,-1.3776523E-1,1.9341424E-2,4.896694E-1,9.244857E-2,-9.66313E-2,-8.006941E-2,-1.9041188E-1,2.2657089E-1,-1.1801349E-2,-6.088957E-2,-2.9793365E-2,-1.17775895E-1,3.824338E-1,7.48171E-1,-1.3791603E-1,-2.0168313E-1,1.9830576E-1,-2.7939895E-1,-9.844662E-2,-1.9089349E-1,-9.808718E-3,3.9035946E-2,-1.5091619E-1,-1.6101192E-1,-9.778819E-2,9.194121E-2,-2.374144E-1,-2.0102689E-1,-1.4003782E-1,-2.435518E-1,4.2859378E-1,-1.3508469E-1,1.9434766E-1,-2.09672E-1,2.024699E-1,-3.101713E-1,-1.7218645E-1,-1.2913945E-1,-5.979693E-2,6.315703E-2,-2.4651283E-1,7.618166E-2,-1.6443008E-1,1.9873968E-1,-4.232878E-3,3.31001E-1,-1.0586458E-1,2.511773E-1,-1.9346745E-1,-1.5506089E-1,1.2691584E-1],"split_indices":[5,9,2,6,6,10,5,2,1,6,5,9,5,11,0,6,10,5,9,5,5,3,11,11,4,5,11,4,8,11,11,3,5,8,8,7,10,0,8,10,6,5,1,5,5,11,11,4,6,4,5,4,11,2,4,5,2,11,2,4,11,8,4,0,0,0,0,0,0,0,0,0,0,0,0,0,0,0,0,0,0,0,0,0,0,0,0,0,0,0,0,0,0,0,0,0,0,0,0,0,0,0,0,0,0,0,0,0,0,0,0,0,0,0,0,0,0,0,0,0,0,0,0,0,0],"split_type":[0,0,0,0,0,0,0,0,0,0,0,0,0,0,0,0,0,0,0,0,0,0,0,0,0,0,0,0,0,0,0,0,0,0,0,0,0,0,0,0,0,0,0,0,0,0,0,0,0,0,0,0,0,0,0,0,0,0,0,0,0,0,0,0,0,0,0,0,0,0,0,0,0,0,0,0,0,0,0,0,0,0,0,0,0,0,0,0,0,0,0,0,0,0,0,0,0,0,0,0,0,0,0,0,0,0,0,0,0,0,0,0,0,0,0,0,0,0,0,0,0,0,0,0,0],"sum_hessian":[2.1527336E4,1.5048957E4,6.4783784E3,5.2722764E3,9.776681E3,5.6752827E3,8.0309595E2,5.164968E3,1.0730854E2,9.334422E3,4.4225912E2,3.2235745E3,2.4517083E3,5.0981818E2,2.9327777E2,1.4782952E3,3.6866726E3,1.02248276E2,5.060263E0,8.617631E2,8.472658E3,3.2961572E2,1.12643394E2,6.4091644E2,2.582658E3,2.308746E3,1.4296223E2,4.0160797E2,1.082102E2,2.1506047E2,7.82173E1,1.3053197E2,1.3477632E3,5.8825574E2,3.098417E3,3.22748E1,6.997347E1,1.3172542E0,3.7430089E0,6.365834E2,2.2517976E2,1.2392711E3,7.2333877E3,3.2599023E2,3.6254723E0,4.8873684E1,6.3769714E1,4.8992352E2,1.5099292E2,2.433739E3,1.4891899E2,1.8981901E3,4.10556E2,1.0949808E2,3.3464157E1,5.7869724E1,3.4373825E2,1.8515991E1,8.969421E1,2.0022792E2,1.4832554E1,1.2960692E1,6.525661E1,1.4949273E0,1.2903703E2,4.06379E1,1.3071252E3,1.2745108E2,4.6080466E2,3.0005825E3,9.7834305E1,7.9516544E0,2.4323145E1,3.3361042E1,3.6612434E1,2.252981E0,1.490028E0,1.7216513E1,6.193668E2,4.6934868E1,1.782449E2,2.1626865E1,1.2176443E3,4.894861E3,2.3385266E3,3.2440387E2,1.5863681E0,1.4817835E0,2.1436887E0,4.5766174E1,3.1075108E0,5.5266155E1,8.503557E0,4.6678776E1,4.4324475E2,1.4645641E1,1.3634727E2,7.398983E2,1.6938406E3,2.7189941E0,1.462E2,4.8303897E2,1.4151511E3,4.095256E2,1.0304016E0,1.018527E2,7.645376E0,4.104772E0,2.9359386E1,1.6015934E1,4.185379E1,9.313993E1,2.5059833E2,5.574338E0,1.2941654E1,7.657015E1,1.3124048E1,1.6307995E1,1.8391992E2,1.2476279E1,2.3562744E0,9.078391E0,3.8823006E0,5.5537567E1,9.719037E0],"tree_param":{"num_deleted":"0","num_feature":"12","num_nodes":"125","size_leaf_vector":"0"}},{"base_weights":[-1.6577694E-1,-1.067983E-1,-3.4986305E-1,-3.6606818E-1,-9.347066E-2,-3.8874942E-1,-1.1402861E-1,-5.7398236E-1,-2.8768966E-1,-8.477976E-2,-4.0020505E-1,-3.3381557E-1,-5.535702E-1,-1.8303047E-1,5.765438E-2,3.49694E-2,-6.106625E-1,-1.9763337E-1,-4.2355955E-1,-9.7748555E-2,6.341155E-2,-3.119181E-1,-6.5354425E-1,-4.8385292E-1,-1.7901301E-1,-3.0666852E-1,-5.9774476E-1,-3.0353412E-1,3.1672094E-2,2.0124272E-1,-1.5311022E-1,1.3186377E0,-2.6117393E-1,-7.779318E-1,-4.987228E-1,-2.826144E-1,3.451186E-2,-5.326217E-1,-2.0797542E-1,-3.7929583E-2,-1.300882E-1,-6.050681E-2,1.8485078E-1,-1.9090675E-1,-5.3303915E-1,-6.7629814E-1,5.1220596E-1,-6.613791E-1,-4.3780634E-1,-2.364468E-1,1.2596214E-1,-2.302467E-1,-6.8455255E-1,-5.395961E-1,-8.098298E-1,-9.1545336E-2,-4.0702364E-1,-4.2508873E-1,1.3778692E-1,-2.4398502E-2,4.3795133E-1,-4.3973413E-1,1.4030206E-1,-6.989077E-1,1.4202331E-1,-8.2242644E-1,3.301825E-1,-4.0610346E-1,-9.483938E-1,-1.6652817E-1,-5.187341E-1,-3.905633E-1,2.2834687E-1,-5.51192E-1,5.3041023E-1,3.112955E-1,-4.0872958E-1,4.9967635E-1,-4.327575E-2,-1.2527332E-1,-4.96532E-1,7.0511854E-1,-9.3753256E-2,8.439645E-1,-2.6485493E-2,-4.1999042E-1,-7.2463662E-3,-3.504014E-1,-6.8741304E-1,-7.9675233E-1,-4.686873E-1,4.983194E-1,-6.685823E-1,-3.2916492E-1,-5.084675E-1,5.067833E-1,-2.6776385E-1,2.1225253E-1,-6.7436486E-1,-2.603708E-1,1.8338948E0,-7.707167E-1,2.5904772E-1,-3.9588186E-1,-6.513313E-1,-8.138222E-1,-2.8175162E-2,1.1415324E0,-1.6238122E-1,-4.2782396E-1,6.972317E-1,-6.980377E-1,-7.733581E-3,4.989022E-1,-6.897839E-3,1.4798032E0,-1.1450112E-1,6.8424135E-1,-1.9114412E-1,-6.0003775E-1,2.0010574E-1,3.137548E-1,-3.273328E-1],"categories":[],"categories_nodes":[],"categories_segments":[],"categories_sizes":[],"default_left":[true,true,true,true,true,true,true,true,true,true,true,true,true,true,true,true,true,true,true,true,true,true,true,true,true,true,true,true,true,true,true,false,true,true,true,true,true,true,true,true,true,true,true,true,true,true,false,true,true,true,true,true,true,true,true,true,true,true,true,true,true,true,true,false,false,false,false,false,false,false,false,false,false,false,false,false,false,false,false,false,false,false,false,false,false,false,false,false,false,false,false,false,false,false,false,false,false,false,false,false,false,false,false,false,false,false,false,false,false,false,false,false,false,false,false,false,false,false,false,false,false,false,false],"id":10,"left_children":[1,3,5,7,9,11,13,15,17,19,21,23,25,27,29,31,33,35,37,39,41,43,45,47,49,51,53,55,57,59,61,-1,63,65,67,69,71,73,75,77,79,81,83,85,87,89,-1,91,93,95,97,99,101,103,105,107,109,111,113,115,117,119,121,-1,-1,-1,-1,-1,-1,-1,-1,-1,-1,-1,-1,-1,-1,-1,-1,-1,-1,-1,-1,-1,-1,-1,-1,-1,-1,-1,-1,-1,-1,-1,-1,-1,-1,-1,-1,-1,-1,-1,-1,-1,-1,-1,-1,-1,-1,-1,-1,-1,-1,-1,-1,-1,-1,-1,-1,-1,-1,-1,-1],"loss_changes":[2.217594E2,5.343257E1,4.541028E1,1.2157242E1,3.9201294E1,3.8336304E1,8.338589E0,4.622879E0,6.660122E0,2.7515244E1,8.860321E0,7.408557E1,1.139975E1,1.2989708E1,6.1531744E0,5.1532183E0,3.2512283E0,6.5856895E0,5.0341034E0,2.5457825E1,1.7353956E1,7.990923E0,3.1002045E0,1.2962189E1,2.758865E1,4.5561514E0,1.0659546E1,7.0145836E0,8.844113E0,6.460586E0,7.0035324E0,0E0,2.060668E0,4.02544E0,4.580309E0,6.604908E0,7.5223694E0,3.1482277E0,7.9613953E0,1.3300765E1,1.5011017E1,1.4604561E1,8.1133095E1,8.286482E0,2.7594051E0,2.1838799E0,0E0,3.105896E0,9.737061E0,3.0961433E1,1.7407986E1,9.0133915E0,2.3908672E0,1.1129868E1,5.75058E-1,9.50815E0,5.2527084E0,3.9152198E0,7.7279835E0,8.677113E0,9.270244E0,4.427618E0,3.4726784E0,0E0,0E0,0E0,0E0,0E0,0E0,0E0,0E0,0E0,0E0,0E0,0E0,0E0,0E0,0E0,0E0,0E0,0E0,0E0,0E0,0E0,0E0,0E0,0E0,0E0,0E0,0E0,0E0,0E0,0E0,0E0,0E0,0E0,0E0,0E0,0E0,0E0,0E0,0E0,0E0,0E0,0E0,0E0,0E0,0E0,0E0,0E0,0E0,0E0,0E0,0E0,0E0,0E0,0E0,0E0,0E0,0E0,0E0,0E0,0E0],"parents":[2147483647,0,0,1,1,2,2,3,3,4,4,5,5,6,6,7,7,8,8,9,9,10,10,11,11,12,12,13,13,14,14,15,15,16,16,17,17,18,18,19,19,20,20,21,21,22,22,23,23,24,24,25,25,26,26,27,27,28,28,29,29,30,30,32,32,33,33,34,34,35,35,36,36,37,37,38,38,39,39,40,40,41,41,42,42,43,43,44,44,45,45,47,47,48,48,49,49,50,50,51,51,52,52,53,53,54,54,55,55,56,56,57,57,58,58,59,59,60,60,61,61,62,62],"right_children":[2,4,6,8,10,12,14,16,18,20,22,24,26,28,30,32,34,36,38,40,42,44,46,48,50,52,54,56,58,60,62,-1,64,66,68,70,72,74,76,78,80,82,84,86,88,90,-1,92,94,96,98,100,102,104,106,108,110,112,114,116,118,120,122,-1,-1,-1,-1,-1,-1,-1,-1,-1,-1,-1,-1,-1,-1,-1,-1,-1,-1,-1,-1,-1,-1,-1,-1,-1,-1,-1,-1,-1,-1,-1,-1,-1,-1,-1,-1,-1,-1,-1,-1,-1,-1,-1,-1,-1,-1,-1,-1,-1,-1,-1,-1,-1,-1,-1,-1,-1,-1,-1,-1],"split_conditions":[3.998124E1,-2.05E1,3.3805E3,-2.75E1,2.45E1,2.15E1,9.0890015E1,9.460407E0,6.2785347E1,3.4875E3,1.2052178E2,-1.15E1,3.5E0,7.420915E1,3.5E0,4.79E2,-1.25E1,1.35E1,4.25E1,4.5E0,6.433113E1,2.95E1,3.75E1,-3.15E1,1.5602083E2,6.9289246E1,3.35E1,4.8759613E1,-2.25E1,2.0155205E9,2.15E1,3.9559135E-1,3.5348267E1,8.55E1,7.35E1,6.55E1,2.0160207E9,3.505E2,1.28906E2,4.3573885E0,1.6195746E2,5E-1,3.62E3,1.7615E3,4.5E0,8.5E0,1.5366179E-1,2.9142137E0,4.944187E1,6.134028E1,2.0170212E9,6.878226E1,1.2146672E2,5.199038E1,1.7367542E2,3.3965E3,3.841E3,3.195E2,-9.5E0,7.577814E1,7.387488E1,3.7405E3,1.0331686E2,-2.0967232E-1,4.2606995E-2,-2.4672794E-1,9.9054754E-2,-1.21831045E-1,-2.8451815E-1,-4.9958453E-2,-1.5562023E-1,-1.17169E-1,6.8504065E-2,-1.653576E-1,1.5912308E-1,9.3388654E-2,-1.2261888E-1,1.4990291E-1,-1.2982726E-2,-3.7581995E-2,-1.489596E-1,2.1153557E-1,-2.8125977E-2,2.5318936E-1,-7.945648E-3,-1.2599713E-1,-2.17391E-3,-1.0512043E-1,-2.0622392E-1,-2.3902571E-1,-1.406062E-1,1.4949583E-1,-2.0057471E-1,-9.874948E-2,-1.5254025E-1,1.52035E-1,-8.032916E-2,6.367576E-2,-2.0230947E-1,-7.811124E-2,5.5016845E-1,-2.3121503E-1,7.771432E-2,-1.18764564E-1,-1.953994E-1,-2.4414667E-1,-8.452549E-3,3.4245974E-1,-4.8714366E-2,-1.2834719E-1,2.0916952E-1,-2.0941131E-1,-2.3200745E-3,1.4967066E-1,-2.0693517E-3,4.4394097E-1,-3.4350336E-2,2.0527242E-1,-5.734324E-2,-1.8001133E-1,6.0031723E-2,9.412644E-2,-9.8199844E-2],"split_indices":[5,4,2,4,4,4,5,10,10,2,10,4,9,10,4,2,8,8,7,9,10,4,4,4,5,10,4,5,8,1,4,0,5,3,7,7,1,0,6,5,6,9,2,2,8,8,0,10,5,6,1,10,5,5,10,2,2,0,8,6,10,2,6,0,0,0,0,0,0,0,0,0,0,0,0,0,0,0,0,0,0,0,0,0,0,0,0,0,0,0,0,0,0,0,0,0,0,0,0,0,0,0,0,0,0,0,0,0,0,0,0,0,0,0,0,0,0,0,0,0,0,0,0],"split_type":[0,0,0,0,0,0,0,0,0,0,0,0,0,0,0,0,0,0,0,0,0,0,0,0,0,0,0,0,0,0,0,0,0,0,0,0,0,0,0,0,0,0,0,0,0,0,0,0,0,0,0,0,0,0,0,0,0,0,0,0,0,0,0,0,0,0,0,0,0,0,0,0,0,0,0,0,0,0,0,0,0,0,0,0,0,0,0,0,0,0,0,0,0,0,0,0,0,0,0,0,0,0,0,0,0,0,0,0,0,0,0,0,0,0,0,0,0,0,0,0,0,0,0],"sum_hessian":[2.0427639E4,1.5472155E4,4.9554834E3,7.55159E2,1.4716996E4,4.253485E3,7.019988E2,2.0500931E2,5.501497E2,1.431274E4,4.0425577E2,3.1924758E3,1.061009E3,5.0069583E2,2.0130293E2,1.1649815E1,1.9335948E2,3.323311E2,2.1781862E2,1.3161286E4,1.1514547E3,3.0143796E2,1.028178E2,1.6201106E3,1.5723652E3,1.6222707E2,8.98782E2,3.2043515E2,1.802607E2,1.19759285E2,8.154365E1,1.5365887E0,1.0113226E1,7.513589E1,1.182236E2,2.4311644E2,8.921464E1,1.4366777E2,7.415085E1,4.619227E3,8.542059E3,5.7015845E2,5.812962E2,1.960244E2,1.0541355E2,1.0126118E2,1.5566235E0,3.3092233E2,1.2891882E3,1.3233693E3,2.489959E2,1.3627637E2,2.5950703E1,7.0816437E2,1.9061761E2,1.057338E2,2.1470134E2,3.3416542E1,1.4684415E2,6.1772198E1,5.798709E1,4.0996727E1,4.0546917E1,4.497295E0,5.615931E0,7.248325E1,2.6526384E0,9.9609924E1,1.8613674E1,1.6412907E2,7.898737E1,2.7623058E1,6.1591583E1,1.4167432E2,1.993451E0,2.0520882E1,5.3629967E1,4.4572685E1,4.5746543E3,8.432601E3,1.094579E2,2.2887117E1,5.4727136E2,1.4040593E2,4.408903E2,8.665318E1,1.0937122E2,4.9784264E1,5.562929E1,6.2285748E1,3.8975433E1,1.621894E0,3.2930045E2,5.1028488E2,7.789034E2,5.2893585E1,1.2704757E3,2.2542554E2,2.3570347E1,1.3517744E2,1.0989202E0,2.3947197E1,2.003504E0,3.117428E2,3.9642157E2,1.89608E2,1.0096209E0,4.9229107E0,1.0081089E2,2.1133313E2,3.368212E0,1.9796904E1,1.361964E1,4.130465E1,1.055395E2,2.6194096E0,5.9152786E1,4.1609406E1,1.6377684E1,3.283304E1,8.163688E0,2.981657E1,1.0730349E1],"tree_param":{"num_deleted":"0","num_feature":"12","num_nodes":"123","size_leaf_vector":"0"}},{"base_weights":[-1.2371598E-1,-7.787003E-2,-2.7706364E-1,-3.6744893E-1,-6.9980204E-2,-3.0485678E-1,-4.0546495E-2,-5.825485E-1,-3.0020604E-1,-5.4800007E-2,-1.942915E-1,-2.7047068E-1,-5.211177E-1,5.9495248E-2,-2.595287E-1,-6.190564E-1,9.873783E-2,-1.2767018E-1,-3.9265758E-1,-1.2458246E-1,-2.9244212E-2,-1.7332973E-1,-5.0077343E-1,-4.0556282E-1,-1.8208155E-1,-4.4459507E-1,-6.520498E-1,-5.1748104E-2,3.1672153E-1,1.5349184E-1,-3.807097E-1,-5.4129547E-1,-9.96122E-1,-5.9969854E-1,8.7286806E-1,-6.675716E-1,-3.6676932E-2,-4.2285258E-1,1.1677445E0,-1.12421796E-1,-4.4307598E-1,2.1986945E-3,-8.721625E-2,-1.6353908E-1,-8.585044E-1,6.258966E-1,-5.2297777E-1,-2.7956033E-1,-4.656294E-1,-1.1338147E-1,-3.5082752E-1,-4.78781E-1,1.428358E-1,9.462635E-1,-6.650163E-1,-8.0614513E-1,-4.381106E-3,-9.9541105E-2,5.348459E-1,-7.578959E-1,2.3686732E-1,-5.1818854E-1,-1.2503147E-1,-7.2456485E-1,-3.4667936E-1,-7.6922065E-1,-1.5258613E-1,1.4093359E0,-6.642285E-2,4.6480206E-1,-7.775836E-1,7.8974836E-2,-5.177952E-1,-2.6130423E-1,-5.329312E-1,-7.350745E-2,1.6457419E0,-1.5816578E-1,-3.0081032E-2,4.1136864E-1,-4.7964E-1,5.1784173E-2,-4.20509E-2,-8.4579014E-4,-1.797068E-1,-2.795491E-1,-1.11841045E-1,-9.8181236E-1,9.472955E-2,3.092273E-1,-5.4891557E-1,-9.253593E-2,-3.543045E-1,-5.478031E-1,-3.9570588E-1,4.1970366E-1,-1.4081782E-1,-1.3710737E-1,-4.4749072E-1,-3.4963825E-1,-6.4123136E-1,1.0062518E0,-6.0626024E-1,-6.824961E-1,1.06177144E-1,-9.335459E-1,2.0198353E-1,-1.11210935E-1,2.8643468E-1,-9.2007905E-1,7.19234E-2,6.918759E-1,-2.9217306E-1,-1.5823655E-1,5.6172323E-1,-5.554989E-1,5.5074745E-1,-2.2136942E-1,6.492498E-1],"categories":[],"categories_nodes":[],"categories_segments":[],"categories_sizes":[],"default_left":[true,true,true,true,true,true,true,true,true,true,true,true,true,true,true,true,true,true,true,true,true,true,true,true,true,true,true,true,true,true,true,true,false,true,true,true,true,true,true,true,true,true,true,true,true,false,true,true,true,true,true,true,true,false,true,true,true,true,true,false,true,true,true,false,false,false,false,false,false,false,false,false,false,false,false,false,false,false,false,false,false,false,false,false,false,false,false,false,false,false,false,false,false,false,false,false,false,false,false,false,false,false,false,false,false,false,false,false,false,false,false,false,false,false,false,false,false,false,false],"id":11,"left_children":[1,3,5,7,9,11,13,15,17,19,21,23,25,27,29,31,33,35,37,39,41,43,45,47,49,51,53,55,57,59,61,63,-1,65,67,69,71,73,75,77,79,81,83,85,87,-1,89,91,93,95,97,99,101,-1,103,105,107,109,111,-1,113,115,117,-1,-1,-1,-1,-1,-1,-1,-1,-1,-1,-1,-1,-1,-1,-1,-1,-1,-1,-1,-1,-1,-1,-1,-1,-1,-1,-1,-1,-1,-1,-1,-1,-1,-1,-1,-1,-1,-1,-1,-1,-1,-1,-1,-1,-1,-1,-1,-1,-1,-1,-1,-1,-1,-1,-1,-1],"loss_changes":[1.3790814E2,3.4485176E1,2.9667938E1,5.6164513E0,2.7739906E1,2.990326E1,1.0441859E1,2.4064827E0,4.84853E0,2.3370098E1,1.0191933E1,4.1574997E1,5.252655E0,9.387695E0,7.5375757E0,2.0890656E0,3.5828743E0,5.312075E0,9.892355E0,1.3556328E1,1.748948E1,9.9157295E0,2.8764076E0,1.0304703E1,2.4424225E1,7.142853E0,4.813736E0,8.196773E0,9.043476E0,2.8095E0,4.0063896E0,2.477436E0,0E0,1.5302098E-1,1.651187E0,2.30591E0,5.272257E0,3.3537445E0,2.5254326E0,1.2745659E1,4.2231255E0,1.365339E1,2.6952972E1,8.840065E0,2.5476637E0,0E0,2.3384228E0,6.2239037E0,5.1391907E0,2.201524E1,1.2542282E1,6.7647705E0,1.3638809E1,0E0,2.7802658E0,1.9291506E0,6.771478E0,4.9746466E0,8.659967E0,0E0,4.2566924E0,3.2972507E0,3.2630792E0,0E0,0E0,0E0,0E0,0E0,0E0,0E0,0E0,0E0,0E0,0E0,0E0,0E0,0E0,0E0,0E0,0E0,0E0,0E0,0E0,0E0,0E0,0E0,0E0,0E0,0E0,0E0,0E0,0E0,0E0,0E0,0E0,0E0,0E0,0E0,0E0,0E0,0E0,0E0,0E0,0E0,0E0,0E0,0E0,0E0,0E0,0E0,0E0,0E0,0E0,0E0,0E0,0E0,0E0,0E0,0E0],"parents":[2147483647,0,0,1,1,2,2,3,3,4,4,5,5,6,6,7,7,8,8,9,9,10,10,11,11,12,12,13,13,14,14,15,15,16,16,17,17,18,18,19,19,20,20,21,21,22,22,23,23,24,24,25,25,26,26,27,27,28,28,29,29,30,30,31,31,33,33,34,34,35,35,36,36,37,37,38,38,39,39,40,40,41,41,42,42,43,43,44,44,46,46,47,47,48,48,49,49,50,50,51,51,52,52,54,54,55,55,56,56,57,57,58,58,60,60,61,61,62,62],"right_children":[2,4,6,8,10,12,14,16,18,20,22,24,26,28,30,32,34,36,38,40,42,44,46,48,50,52,54,56,58,60,62,64,-1,66,68,70,72,74,76,78,80,82,84,86,88,-1,90,92,94,96,98,100,102,-1,104,106,108,110,112,-1,114,116,118,-1,-1,-1,-1,-1,-1,-1,-1,-1,-1,-1,-1,-1,-1,-1,-1,-1,-1,-1,-1,-1,-1,-1,-1,-1,-1,-1,-1,-1,-1,-1,-1,-1,-1,-1,-1,-1,-1,-1,-1,-1,-1,-1,-1,-1,-1,-1,-1,-1,-1,-1,-1,-1,-1,-1,-1],"split_conditions":[3.998124E1,-2.35E1,3.4935E3,-3.05E1,1.45E1,2.75E1,3.5875E3,3.295E2,2.7013998E0,-6.5E0,3.05E1,-1.45E1,6.988204E1,9.367618E0,-4.85E1,2.745E2,9.5E0,-7.35E1,2.0180212E9,1.5727325E2,4.5E0,1.720083E2,2.0150202E9,4.7291565E1,1.85E1,2.2972202E1,-9.75E1,4.2029747E1,3.5305E3,4.083503E1,3.7315E3,-4.5E0,-2.9883662E-1,2.1481335E1,3.587295E1,8.773298E0,4.05E1,-6.15E1,5.4390345E0,2.0170209E9,1.7859522E-1,1.1683302E1,3.5E0,1.115E2,3.252E3,1.8776898E-1,-8.65E1,6.5E0,-2.65E1,6.758661E1,4.6914795E1,3.25E1,2.5E0,2.8387907E-1,3.4785E3,7.85E1,2.45E1,2.755E2,7.05E1,-2.2736877E-1,-7.15E1,3.65E1,2.0180207E9,-2.1736947E-1,-1.0400381E-1,-2.307662E-1,-4.5775842E-2,4.2280078E-1,-1.9926855E-2,1.3944063E-1,-2.3327509E-1,2.3692451E-2,-1.5533857E-1,-7.839127E-2,-1.5987937E-1,-2.2052236E-2,4.937226E-1,-4.7449738E-2,-9.02431E-3,1.234106E-1,-1.43892E-1,1.5535252E-2,-1.2615271E-2,-2.5373706E-4,-5.391204E-2,-8.386473E-2,-3.3552315E-2,-2.945437E-1,2.8418867E-2,9.276819E-2,-1.6467467E-1,-2.776078E-2,-1.0629135E-1,-1.6434094E-1,-1.1871177E-1,1.259111E-1,-4.2245347E-2,-4.113221E-2,-1.3424723E-1,-1.0489148E-1,-1.9236942E-1,3.0187556E-1,-1.8187808E-1,-2.0474882E-1,3.1853143E-2,-2.8006378E-1,6.059506E-2,-3.3363283E-2,8.593041E-2,-2.7602372E-1,2.157702E-2,2.0756277E-1,-8.765192E-2,-4.747097E-2,1.6851698E-1,-1.6664967E-1,1.6522424E-1,-6.6410825E-2,1.9477494E-1],"split_indices":[5,4,2,4,4,4,2,0,11,4,4,4,10,11,3,0,9,3,1,6,4,6,1,5,4,11,7,5,2,5,2,8,0,6,5,10,9,3,11,1,11,5,8,0,2,0,3,9,4,6,5,4,8,0,2,7,9,0,7,0,3,4,1,0,0,0,0,0,0,0,0,0,0,0,0,0,0,0,0,0,0,0,0,0,0,0,0,0,0,0,0,0,0,0,0,0,0,0,0,0,0,0,0,0,0,0,0,0,0,0,0,0,0,0,0,0,0,0,0],"split_type":[0,0,0,0,0,0,0,0,0,0,0,0,0,0,0,0,0,0,0,0,0,0,0,0,0,0,0,0,0,0,0,0,0,0,0,0,0,0,0,0,0,0,0,0,0,0,0,0,0,0,0,0,0,0,0,0,0,0,0,0,0,0,0,0,0,0,0,0,0,0,0,0,0,0,0,0,0,0,0,0,0,0,0,0,0,0,0,0,0,0,0,0,0,0,0,0,0,0,0,0,0,0,0,0,0,0,0,0,0,0,0,0,0,0,0,0,0,0,0],"sum_hessian":[1.961813E4,1.5104027E4,4.5141035E3,3.9939883E2,1.4704629E4,4.0391714E3,4.749322E2,9.329602E1,3.061028E2,1.3105678E4,1.5989509E3,3.4869817E3,5.521895E2,3.2649957E2,1.4843262E2,8.8637566E1,4.658454E0,1.0762699E2,1.9847585E2,3.5119902E3,9.5936875E3,1.4980571E3,1.008938E2,1.3777175E3,2.1092642E3,3.5128076E2,2.0090878E2,2.2848491E2,9.801467E1,3.3610733E1,1.14821884E2,7.55025E1,1.3135064E1,2.5674098E0,2.0910442E0,1.4609017E1,9.3017975E1,1.9542325E2,3.0525823E0,3.3841309E3,1.2785935E2,6.220676E3,3.3730115E3,1.4781738E3,1.9883337E1,1.4245167E0,9.9469284E1,4.4657828E2,9.311393E2,1.5001807E3,6.090836E2,3.3213675E2,1.9143988E1,1.0375475E0,1.9987125E2,1.2552155E1,2.1593275E2,3.3887783E1,6.4126884E1,2.1389923E0,3.1471739E1,7.4003365E1,4.081852E1,3.7482403E1,3.80201E1,1.339225E0,1.2281847E0,1.0123972E0,1.078647E0,1.0080419E0,1.3600976E1,7.5665306E1,1.7352663E1,8.056383E1,1.1485943E2,1.083971E0,1.9686114E0,2.1749355E3,1.2091954E3,4.8262715E0,1.2303308E2,2.93339E3,3.2872861E3,1.7447347E3,1.6282769E3,4.543065E2,1.0238674E3,1.7579338E1,2.3039994E0,2.6763866E0,9.679289E1,1.2815291E2,3.1842538E2,4.249299E2,5.0620938E2,7.273087E1,1.4274497E3,1.9044107E2,4.1864252E2,1.867939E2,1.4534286E2,8.733907E0,1.0410081E1,1.9555385E2,4.3173933E0,1.1209546E1,1.3426082E0,1.5837282E2,5.7559933E1,5.1027465E0,2.8785036E1,5.4031147E1,1.0095739E1,1.4431917E1,1.7039822E1,7.197158E1,2.0317829E0,3.6936848E1,3.881675E0],"tree_param":{"num_deleted":"0","num_feature":"12","num_nodes":"119","size_leaf_vector":"0"}},{"base_weights":[-9.1239184E-2,-5.7043713E-2,-2.1749382E-1,-1.4603989E-1,-3.7738517E-2,-2.5220627E-1,-3.526741E-2,-4.688413E-1,-1.345455E-1,-2.9727263E-2,-2.81134E-1,-2.2371815E-1,-4.5895845E-1,7.962523E-2,-2.449137E-1,-3.7749237E-1,-8.5632014E-1,-1.26579E-1,-6.153337E-1,-5.583013E-2,4.3134473E-2,-2.9627472E-1,6.328558E-1,-5.055843E-1,-2.0225607E-1,-6.753671E-1,-2.0768497E-2,-1.3576874E-1,3.6609083E-1,-4.7731566E-1,-1.2418032E-1,-4.052678E-1,6.299655E-1,-7.787065E-2,-9.0692675E-1,5.1921315E-2,-1.4644992E-1,1.2189543E-1,-8.076592E-1,1.0293867E-1,-6.9954775E-2,6.6618808E-3,2.8434938E-1,-2.3426172E-1,-5.0207055E-1,1.4989504E0,-2.0292726E-1,-5.973853E-1,-2.7399495E-1,-3.6622044E-1,-1.7017354E-1,-1.0705996E-2,-7.951425E-1,5.759446E-2,-7.6933885E-1,5.7756233E-1,-1.9267948E-1,-3.6287624E-2,4.8029426E-1,4.7913167E-1,-5.26928E-1,2.728565E-2,-5.0461566E-1,-4.311429E-1,6.059271E-1,-9.6305484E-1,-2.1690547E-1,-1.2662434E-2,1.1506587E0,-4.5245564E-1,-1.2715738E-1,-4.9103913E-1,1.5210978E0,-9.0730006E-1,-1.165641E-1,1.2435237E-1,-8.5326123E-1,-4.236533E-2,-1.5849014E-1,-1.333152E-1,4.48354E-2,3.3909145E-1,-3.3656776E-1,-3.963962E-1,-1.2557456E-1,-5.948994E-1,-2.2140285E-2,2.0013952E0,2.8559035E-1,-7.667165E-1,5.3752023E-1,-6.463262E-1,-4.723054E-2,9.0619266E-1,-3.5246393E-1,3.0323827E-1,-3.8437468E-1,-1.4119078E-1,-3.3843702E-1,-3.6907881E-1,6.916542E-1,-8.7317723E-1,-3.9363956E-1,-9.5239595E-2,4.2318106E-1,-9.3563575E-1,3.3957115E-1,3.1398582E-1,1.5278218E0,1.4538476E-1,-2.718223E-1,1.0406568E0,-1.3931814E-1,-1.6830678E-1,5.698437E-1,1.2791346E0,-6.754342E-1,-5.68984E-1,6.629838E-1,-6.5286055E-2,8.9102745E-1,-5.711107E-1,5.635004E-1],"categories":[],"categories_nodes":[],"categories_segments":[],"categories_sizes":[],"default_left":[true,true,true,true,true,true,true,true,true,true,true,true,true,true,true,true,true,true,true,true,true,true,true,true,true,true,true,true,true,true,true,true,false,false,true,true,true,true,true,true,true,true,true,true,true,true,true,true,true,true,true,true,true,true,true,true,true,true,true,true,true,true,true,false,false,false,false,false,false,false,false,false,false,false,false,false,false,false,false,false,false,false,false,false,false,false,false,false,false,false,false,false,false,false,false,false,false,false,false,false,false,false,false,false,